encog,BasicNetwork,java,3.4.0,1,1499390034545
[BASIC]
[BASIC:PARAMS]
[BASIC:NETWORK]
beginTraining=0
connectionLimit=0
contextTargetOffset=0,0,0,0,0,0
contextTargetSize=0,0,0,0,0,0
endTraining=5
hasContext=f
inputCount=45
layerCounts=1,24,34,24,14,45
layerFeedCounts=1,23,33,23,13,45
layerContextCount=0,0,0,0,0,0
layerIndex=0,1,25,59,83,97
output=0,0,0,0,0,0,0,0,0,0,0,0,0,0,0,0,0,0,0,0,0,0,0,0,1,0,0,0,0,0,0,0,0,0,0,0,0,0,0,0,0,0,0,0,0,0,0,0,0,0,0,0,0,0,0,0,0,0,1,0,0,0,0,0,0,0,0,0,0,0,0,0,0,0,0,0,0,0,0,0,0,0,1,0,0,0,0,0,0,0,0,0,0,0,0,0,1,0,0,0,0,0,0,0,0,0,0,0,0,0,0,0,0,0,0,0,0,0,0,0,0,0,0,0,0,0,0,0,0,0,0,0,0,0,0,0,0,0,0,0,0,0
outputCount=1
weightIndex=0,24,806,1598,1920,2505
weights=##0
##double#2505
   2.9310685076,3.2066809251,2.3706923635,1.3740986664,-2.1542847153,1.9370771547,1.1716091082,-2.762232236,-1.8813258859,1.1663027864,1.8454521548,2.5462392131,-2.0127307372,-2.3012564266,1.5511901162,-0.0592677498,-1.9354088327,2.405797587,-2.5285369258,-2.4306286965,-1.3632466901,2.5810173001,1.2385095119,2.3008831679,-1.0532647899,0.6861814204,1.0499442932,-0.381646567,-0.7816532099,-1.9505786672,0.6417248249,-1.1056700845,-0.7228963326,0.5877344646,0.0679407486,-0.6253563646,0.1256903963,0.0028519685,-0.6712896389,-0.4710049662,0.6067374767,-0.7156485888,0.064388052,0.8378423707,-0.7297155672,0.4309689828,-0.0061387857,-0.4488123203,-1.2048585716,0.3428796961,-1.4436501413,0.6353259798,2.1247377277,1.6444444821,1.8529813295,1.0672209382,1.9785732202,3.1940974236,0.0436144388,-1.3810917054,1.5630943959,-1.0169711117,-1.115854608,-1.9308508217,0.4576593677,0.1327947189,-0.7350722056,0.7015847363,-0.1377795189,-0.1546246089,0.7179940164,1.219230807,-1.1612010089,-0.4654175106,0.1528407214,-1.7857322086,-0.8749534174,1.4877575257,-0.7688214786,0.1539179684,-0.6144295964,0.2504933405,-1.5873325422,-0.3919263884,-0.6485889552,0.0720769509,0.6948353973,1.1470003549,1.8570036306,0.0684932187,0.3192159521,2.6067061303,-0.1061622233,-0.3915490937,0.1926942053,1.0874127258,0.57537441,0.1445837486,-1.0224178668,0.115680948,0.3249633276,-1.1907823845,-0.452222745,2.5487298618,0.5141605789,-0.8925622655,1.2038345393,-0.9682527139,-1.2566709362,0.5528397246,-0.3669928195,-0.0951927551,-0.8451256057,-0.6535733864,-0.6019911008,0.0952734528,-0.9882296853,-2.1622496268,-0.0688265174,-0.2761993144,-0.4669165953,-1.5885147481,-0.752481808,-0.9732154202,0.3027646219,-0.0602081398,0.0099851288,-0.2169791196,-1.8162123195,1.8683704171,2.7091453332,2.4246833407,-3.4405329667,2.9195126794,4.489013566,-3.0161880345,-1.3700183517,3.4683955066,-0.2190299716,-0.4291180103,1.49125283,0.0743768287,-0.0281086035,2.5485520947,-1.5451672077,-2.2938170837,1.9221082112,-0.5231187441,-2.2847512088,-0.6590396585,2.2143128862,-2.2791149299,0.4954588379,-1.702521103,-2.4924864693,-2.8991933803,-2.1133886899,-2.9825794045,-1.4041220911,-3.5583473784,0.1559761433,1.0204850768,0.3046233523,1.1995031362,0.9870575062,1.1074147546,-0.3719301583,0.0474185121,1.5239957038,0.1083148055,-0.5674474811,0.2054711418,-0.5068494323,-0.5657984645,0.9890768676,0.1020299022,-0.1484682586,-0.2138523733,0.122597953,-0.1911370792,0.3535369576,-0.2762839533,-0.9970696479,-0.6602662159,-0.0566921525,-0.8262650028,-0.0883248029,0.289898621,-1.4374159545,-0.2258459826,-0.7753920361,-0.7262724731,-0.7042793748,-1.9462948143,-0.5352080947,-0.8481608136,-0.8372942692,0.2848477064,1.568471162,1.908091856,-1.4391117782,1.3337555061,0.9599324635,-0.7699601799,0.3977210149,2.2023476353,0.2656756317,-0.9270616975,0.9962031634,0.1230451767,-0.1163106593,1.5668257528,-1.4660652452,-1.3826373534,-0.5452353521,0.5946790285,-0.0969218931,-0.6361670157,0.8563139194,-1.0580439048,-0.6006776409,-1.8137009073,-0.0723518638,-1.5787764373,-0.5368709821,-1.4395211031,0.140691279,-1.2105792635,0.0769955924,-0.9100707849,-0.8627931134,1.2458151217,1.857725886,3.2224341975,-2.4326986942,2.9682953346,3.2804251321,-1.4706199804,-0.0870455283,2.1973218415,0.1861671963,-0.4902752597,2.6570137479,-1.0248336872,-1.8006509534,2.4049194995,-0.4360726471,-1.165944917,1.1571168702,-0.2345131198,-1.6339603449,-0.1331405614,1.5499481518,-3.005749511,0.0798308586,-1.3849240406,-2.2781173797,-4.0263958525,-2.7012812017,-3.1836389424,-1.026477967,-3.0870764077,-0.6535158417,0.4009809957,-0.6131918489,1.5473243743,1.8129099842,0.8203509103,0.0530881346,1.1093912872,1.1301447119,-1.2259246327,-0.272295189,0.2915129376,-1.4440088006,-1.1302495596,0.4893601316,-0.0714451883,-0.1293488801,1.1883294576,0.2854555375,-1.3030251002,0.4727788345,0.0921219972,0.147896279,-0.1594836356,0.5420633333,-0.9387926298,-0.1402622481,0.5340438031,-0.6798852655,-1.1163825073,-0.8253359267,0.2225984791,-1.2441613994,-0.7362664672,0.4646513425,0.9406196485,0.7674341408,-0.5062097787,-1.3673890875,0.1485419801,1.5067515574,-0.9718146469,-0.3387992705,0.0675572003,-0.8165604884,-0.4295006183,0.3188834404,0.1174236877,0.2170423184,1.0455253301,0.2302017981,-1.613453534,0.3924273679,0.1383074986,0.304418425,0.4627984561,0.0068523743,0.6274916445,0.4061948516,1.3703631401,-0.437281066,0.8245247668,0.2109169984,1.4933182981,0.4236470044,1.0758083019,0.1028332937,0.1144842701,0.4217034225,0.0553401353,-1.4057457165,2.5264804209,2.2223518433,3.0921510182,-2.6561515001,3.5463566574,3.3097432017,-2.4400436957,-1.7357319999,3.7159053502,-0.1284655773,-0.8277124264,3.2787690595,0.0738905921,-1.4975445039,3.2685417385,-0.7028283256,-1.1887399682,1.0989207446,0.1450841798,-2.7894113947,-0.614214131,1.6788607912,-3.4151016535,-0.5407622996,-1.1199827821,-2.2435716381,-2.9724004362,-2.0378404447,-2.7657626466,-2.2968119659,-3.9354747855,-0.5636357892,-1.1733864762,-0.7778829371,-0.613522219,0.2171111777,1.034278507,-1.6824609049,0.5487332895,1.5285033515,-0.1612241212,-0.6810929624,0.6591980083,-0.224664199,0.1047158502,-0.7543987876,-0.5967464825,-0.4584154816,0.6646790799,-1.404992452,0.7796744348,0.6029806498,0.8391864271,0.0810136049,-0.1959575755,-0.6041885777,-0.6603985502,-0.4344992261,-1.2243898185,-0.0830906736,-0.3868707327,0.8093913153,-0.996187569,-0.1087998627,-0.8870686471,0.0177581834,-0.1955640512,0.5802551063,0.7785076346,-0.7997993445,0.8826263259,-0.6934437483,0.4989139359,0.6092861818,-1.3410859314,0.987529694,1.1905656012,0.0462470004,-0.6615907261,0.6148851064,-0.6768887061,-0.9796533234,0.0085651248,-0.6405837131,0.0172071707,-0.6557382508,-0.7061000054,-0.8740807438,-1.3492243131,0.2056738383,-1.0261681919,0.1091460278,-1.7077127514,-0.5589380462,-1.0571681118,0.9509250193,-0.6275617648,0.390034744,0.204458432,-0.8354196877,1.4479404333,-0.6564753428,0.8853745033,-0.7010010375,0.8631900177,0.2741202323,-0.7608195466,-1.3124857313,1.0107101701,0.309558429,-0.942198402,-0.508291705,0.1009286433,0.1762322594,0.4962401108,-0.1300700246,0.4484870659,0.9710479099,-0.8254669865,0.420861216,-0.0806436104,0.0347011371,1.4282566192,-0.5300275369,0.3029791959,-0.2070277802,0.6103684132,-0.3217615813,1.2965730487,0.3372611706,-0.5313258028,-0.6379111239,-0.2111932819,-0.0617905659,-0.1869673294,-0.6120825147,0.7428007698,0.78384682,1.0561176984,-0.9399051414,0.9093831474,1.3479031803,0.0202705927,-0.601398226,0.8752626695,0.0486674497,-1.4788448182,0.7976054268,-0.0230053284,1.1298968423,0.3554688922,0.2750895567,-1.6568763833,1.732692597,-1.1847125097,-0.2346949081,0.3133584513,1.843718829,-0.7414820625,0.6240850469,0.1573803859,-1.1197727959,-1.7905679105,-1.0851134949,-1.6267383208,-0.869532233,-2.6278701712,0.0683513889,-0.4142682641,0.1444140569,1.8528007559,2.5794678245,0.70976396,-0.0135824267,0.4595395182,0.9047768309,-0.2263457734,-0.0096559345,1.5435352899,-0.129617279,-1.1162936957,0.5717756398,0.8927392752,-0.1500734129,1.0253327189,-0.5771440163,-1.6139313259,1.9609048198,0.5291952983,-1.2622782337,-0.8402963942,1.2090685984,-1.2640027857,-0.3917810702,0.7638130446,-0.7683370189,-0.4644156546,-1.3795042379,-0.4487102541,-0.7653701778,-1.3554341816,0.5561295523,0.7332821912,2.0319920693,-0.9044986795,-2.1876381841,-2.2279789878,1.6375088233,-2.4376886636,-2.8276292321,2.7114954596,-0.0433110677,-2.3970645582,0.506550842,1.3164643393,-2.4622213669,0.5915135898,1.3844325529,-3.142378919,0.9985785037,0.3665414023,-0.74112582,0.2291304142,2.1479009723,0.6099074741,-1.0999806285,2.850878942,-0.9907538775,0.0511271616,2.1686453342,2.3736679527,2.7662063779,2.3290748691,0.5950587244,3.4837930227,-1.0150194568,0.8328611342,0.2511577436,-1.3398912984,0.1659335009,0.5326215691,-0.837903239,-0.4702387331,-0.2202474511,0.0920463789,0.7783317782,-0.5812848902,-0.4049553812,0.9998780827,0.3498637307,-0.479186891,0.393778495,0.1137663022,-0.1318134814,-0.1602442449,0.481756846,0.2247395094,-0.6347625849,-0.3148331122,-1.1608724374,-0.5528729355,-0.6467245101,-0.0082916293,0.4869245006,0.0817735502,-0.0306055293,-0.0163231988,-0.3797473896,1.6758606424,-0.4747005841,-1.0327518606,0.2563321509,-0.3961667971,-0.8453839548,-1.2911674975,0.005605907,-0.5375277339,-1.528403773,1.2004861422,-0.5290134052,-0.3324522861,-0.0617261787,-0.3433258982,-0.5046096484,-0.1700483082,0.117427853,-0.3315906943,0.1231524701,1.074487594,-0.8479261543,0.9453016015,-0.4406637127,-1.0830217868,0.3250658485,0.7844915377,0.5735761833,-0.0446645473,0.1930169611,0.7616091516,0.1420408312,0.3987983744,0.0548322003,1.5600441395,-0.7204875665,0.9607736103,-0.7658539884,0.9201538956,1.1553491296,1.1912676212,-0.4075456502,0.3014387667,0.1253713985,-0.6888250263,0.637897303,-0.3033660131,-0.2578919692,-0.6318598376,0.1744083325,0.7149519289,0.734662542,1.1240553508,-0.4036682895,-1.2096590845,0.5498199618,-0.1367835962,-0.3327108701,0.7289728894,1.1567646861,0.7290713203,0.8104682383,0.7108858435,0.0285615615,-0.9977095799,-0.4499672355,-0.6024007533,-0.7484219029,-1.083715971,0.3702633603,-0.2089269016,0.5360389017,0.0220945462,0.9794622474,-0.0436604726,0.6482153816,0.6568943994,-0.9741403326,0.1673497536,0.5856096465,-1.05763368,0.5682059841,0.2995410493,0.6069756672,0.2386556661,0.9358287498,0.5037361034,-0.3305662716,0.7326271353,1.2028851741,-0.3472911912,1.1084823775,-0.1609116099,-0.0654454159,0.9073484043,0.8108505094,0.8660951293,0.426205098,0.4914318338,0.2728885871,0.2110785413,-0.3773218494,-0.1559549704,-0.7423847214,0.5326231684,0.2606361556,-1.4407822307,-2.1610485221,-1.5386821625,1.8390996322,-0.9596855737,-1.372506967,1.898246992,1.3050443908,-1.3074124794,0.8572707741,1.4744388179,-0.8751618398,0.4604861234,0.6440292629,-1.1381907117,-0.5894042615,1.0677428504,-1.417068115,1.3132107624,1.3785710039,-0.0975422165,-1.3148812353,0.6936221397,-0.0732877404,-0.4877632335,1.3572833103,1.257699454,2.46376733,2.6537092828,0.7886532477,2.3291689812,0.6023449702,0.1935996085,-0.1563124816,-0.786145036,-2.3768666432,-1.8771996719,-0.0622237685,-1.540227372,-0.8851589904,0.9512856443,-0.3130850441,-0.7958458126,0.988911655,0.0045818659,-1.4696761527,0.1897896725,-1.20656347,-0.4698631831,-0.1380640906,0.2095762851,-1.3906413932,0.5585631845,-0.3309495562,-0.2960201399,-1.257096781,0.5244047391,0.140369717,-0.7594142479,1.0265182518,1.6902301288,0.7534759023,0.7305812919,0.1431070777,1.4440555666,-0.1425340157,-0.6680494638,-0.3875001632,-1.081996523,-0.9997616519,-0.9360006982,0.3906643085,-0.9594510988,-1.2215544079,-0.2484536133,-0.0794165351,0.7860002907,0.4781675087,0.508022441,-0.6444236224,-1.573199647,-1.0762779192,-0.1532739809,-0.3193273131,0.6218231743,-0.1410336981,0.3284563147,-0.6066851531,-0.5294379808,-0.009266616,0.9656311379,0.486662585,-0.7490581977,0.4339825414,-0.0871984199,0.9066043509,0.7496740394,0.8108903455,1.1780032243,-2.9673966742,3.0268592865,0.9616173889,-1.7545108621,-1.3208792327,0.8669449635,-1.606428564,1.2332831923,3.2432553785,-2.0877072524,-2.2468368775,2.1609584655,-0.9912522862,0.5071783386,-2.118511361,2.2351100459,-1.6520942683,2.5512775126,1.8910423102,-2.6868063093,-2.645963258,3.4126191013,2.7962515974,4.7306017225,-2.7553065288,4.0243416615,0.7706456987,-2.2708965818,0.0426793008,1.0899836909,-2.6217625065,0.9990855753,3.5792752384,-4.1270873829,-4.5376186816,4.5699989432,-0.5524956852,-0.6187350248,-0.6584510713,1.5600528277,-1.1475246789,4.6644004741,2.917501795,-3.8237186752,-2.1970435365,4.5334408894,2.9024943531,5.4652571627,1.7387280104,-1.6055926389,-0.658187887,1.1858637515,0.4798489491,-1.1580521911,0.3925302899,0.8689171849,-1.6271805218,3.1928218403,3.1954489569,-2.7363276125,0.7542497181,1.0215419202,2.3157747222,-2.3938597155,1.3700458154,-2.1857571528,0.1248963531,1.5708134815,0.7698231306,-2.9190167991,-1.4952417597,-3.2918639296,-0.0290074355,1.1701548631,1.5705057005,0.9319740806,-0.7117329557,0.6587746726,0.2782772357,0.2664109429,-0.1375046935,-2.6610362193,-1.3975138784,0.2313653402,0.2669475361,-0.8541220223,-1.0500590754,0.4713503338,-0.5199255285,1.9556036047,-0.0077468701,-1.4141044627,-0.2655579053,1.9631376898,1.3198257158,1.2700397113,0.3197970002,-0.8360409436,0.8848597345,0.3314288879,0.9031811242,0.4213805332,-0.6957570603,0.5112381622,-0.6030825895,-1.009802137,-0.8500809184,-0.8428720444,-0.1887822931,-0.2372367446,-0.2761730252,-0.8773546389,0.3478741214,0.8008917561,-0.9254365272,0.5234627979,0.2396738598,0.4237732369,0.2059850239,1.0227991772,-0.1626931728,-0.4337466109,0.5560005931,1.8729020707,1.5228429126,0.6730739751,-0.423520806,-1.4766389263,0.3428280035,-1.1663679621,-1.7994793869,-0.6123314687,0.8740725931,0.5181260048,-1.5715352428,1.2313609299,0.3147085712,1.9863017604,-0.947937639,-1.2431916387,0.2371274205,-0.3169821547,-0.4206760189,-0.2371802816,-0.9122446088,0.65515713,-0.1174205388,-0.6150449523,-0.2585900044,0.5260513945,0.0189555297,0.945900101,1.8317980883,-1.5711976835,-0.1108925075,0.527435794,-1.4545539101,0.4108903658,0.0712016981,0.5655633481,-1.5345123207,0.5912844161,0.9088270495,-1.4693215599,-0.3325808864,0.8443998456,1.4493498855,2.7588205017,1.258480315,-0.9228961161,-0.540662421,0.6755443939,0.5624900005,-0.8699059554,1.3440248133,-0.0927095162,-0.1895832278,2.6002759623,0.8080379142,-0.8803869131,1.5889787503,0.4961884873,1.4263137937,-0.6793653894,-0.1134296419,-2.6477924613,-1.6068597068,1.6872225122,1.0883881227,-1.764698358,-0.8468760269,-3.7153615954,0.4121499345,-0.7779416015,-0.403688173,-0.1396377559,0.8952518859,-0.2473326864,-1.044718644,0.2012082216,-0.193667157,0.0066049554,0.532351266,1.1085409931,0.5042850291,0.0989697043,0.051547336,1.146637595,0.9397997951,-0.022461066,-0.5251189651,0.8781463337,0.4555480398,-0.1424128811,0.4415711735,0.0618835243,-1.2441150046,1.2178836515,-1.1093045434,0.0100148384,-0.4660559705,-0.0187229745,-0.3518971787,0.5855476695,-0.2374444138,-0.8605778611,-0.2440092145,-0.8228212377,-0.1073843531,0.2842367654,1.2426443995,0.8375379328,0.5205248969,-0.5896263993,0.6781037844,-0.2915910886,-0.4166989467,-0.6859500119,0.2078832278,1.6369564502,0.6546265886,-1.1961854011,-0.5511266487,1.6852442071,-0.1243432122,-0.9930915671,1.0275977445,-0.1567295953,-1.8215577499,0.8381287456,0.391732045,-1.019060893,0.4301463062,0.265451022,-0.0771037314,-0.8303583842,0.4110785523,-1.6200700214,-1.2898240848,0.806702076,-0.1142206572,-1.618671023,-2.2399197307,-4.4763185277,1.3160774741,-0.6361810631,-0.699774107,1.2876423583,0.2841443632,-0.6664651196,0.694986046,-0.5600824925,-0.2134127225,1.2113803799,1.2507499887,-1.827686369,0.3189863143,0.0297216002,0.2785260416,-0.7042937269,0.5150190295,-0.9341387022,0.1922545733,1.6106275648,-0.7851085604,-1.5355683856,-0.8645691335,-3.2076234622,1.744667684,-1.4569576894,-0.2488987859,0.6503480766,1.1531473303,-0.2575488954,-0.1511359802,-0.222357678,-2.4391652726,2.1387421923,0.267382691,-1.2054512081,0.9360061674,0.8429696916,1.1706285879,-0.7175241033,0.5392458306,-2.0313553038,-0.9325978303,0.7347025084,0.3029211134,-1.6087768721,-2.4248083864,-3.3294585779,1.8229605062,-1.8745973422,-0.0840133606,0.836136232,0.9740224265,-0.9495516436,0.2921064175,-1.8797929663,-1.2380328737,1.9982048406,1.8935793227,-1.19547775,1.8887034658,0.352332997,0.6115856833,-0.4158088808,0.3151110904,-2.4039453885,-0.740696565,1.7104601116,-0.0127571556,-1.0254228203,-1.9599153477,-3.5342835325,0.1810728739,0.5397839009,-0.8967277536,-1.1896915453,1.1798557366,1.0005881213,0.5342551036,0.2671497931,0.9728429234,-0.6247825411,-1.0010693712,0.631363882,-0.0246058143,0.8265426227,0.6806744289,-0.2595421117,-1.0242229411,2.252392048,1.1821104922,0.0146033177,-1.0401436072,1.3202511025,1.2933460787,2.3940072742,-4.2394429298,5.3156989106,2.5363926718,-4.986096884,-1.8524567942,2.2348292736,-2.8890360873,1.9344192398,5.7063311243,-7.0090799816,-7.0751904673,6.5311233181,-2.4150223148,-0.2098965563,-3.04877545,3.8789527933,-3.1303499245,7.1545357104,4.9034380797,-8.1533178067,-3.769553061,6.8209855411,5.7830614584,11.3522466194,-5.6932004863,5.4174556119,0.7449646968,-4.181959428,-1.293253897,2.8556596392,-4.4975571732,3.2801243512,6.40342443,-7.4088654995,-7.3514691537,6.3382158567,-2.8382649887,0.3550021926,-3.2441885946,4.886948975,-4.1082349028,8.0750211543,4.8658206828,-7.7470687052,-3.5688142434,7.3903471707,5.711568432,11.3054131728,-0.6480532902,1.1978157056,0.216810945,-0.1985984009,1.6752341248,2.1857944263,-0.9866314952,-0.1551533724,0.3365346779,-2.0377174739,-3.4208564102,0.9777331072,0.7461490872,1.4208110252,-1.0847584979,1.2346741461,-0.4084296409,1.1705628283,0.5449680597,-2.7555554228,-1.4514540855,2.7403798776,1.2141622637,-0.1173417483,-0.6404238643,-0.4328367212,0.2041232663,1.0993110212,-0.1035440231,-1.1037300934,1.0431630899,0.4230259459,-0.5354450939,-0.0317924865,0.1055172639,-1.4343565086,0.0460725345,0.8585075654,1.2767777122,0.3643185867,0.1746104523,0.2539923105,-0.2366268001,0.127740755,-0.1512318947,0.0372762969,-0.911146344,-1.1013054404,-0.2643786021,-0.2308442425,-0.124792682,-0.4759153923,-0.4352877531,-1.2945093946,0.5232228307,-0.3624434996,0.1175217365,1.6747427679,0.3586964906,-0.8738709184,-0.1424723183,0.2657706115,0.2487827885,-1.2517446995,-0.6176696352,-1.9155924735,-0.7612226186,1.3195507804,-0.2501307793,-1.3191358259,-0.2156252394,-2.3296108658,-0.543911216,0.6533561613,1.4209759604,-0.815049463,-0.4514573461,1.6376562179,0.1942662728,1.4295347352,2.1525632279,-2.7754211251,-2.4699206927,2.7352394705,-0.4782320458,0.3021988075,-0.9458812001,0.5552298192,-0.2960079104,2.8973358458,0.2103496093,-1.1814365559,-0.0394118377,1.5169201809,0.9644904639,2.9011769378,1.3793104092,-2.4283776405,-0.4445877153,0.7855733837,1.0588413381,-1.3624587394,1.8832818225,-1.1353857421,-1.4937120505,2.4377527402,2.680131224,-3.0010400813,1.8271407804,0.2957952151,0.5284502523,-1.2743523046,0.5849901327,-2.7594115638,-0.958056258,2.1000061412,0.5391643054,-2.8852231637,-2.5994986783,-4.2570967644,0.1222149318,1.0703211019,0.1858429451,-1.039111233,0.7843276956,0.0812832718,-0.7807699409,-0.9382239163,0.1706094715,0.0828044197,-1.0556236067,1.0002744275,-0.1648624302,-0.5777670881,-1.1944627319,1.2763818983,0.1264084085,0.2709750877,0.7569247742,-1.3801129731,0.6089677262,1.6228856533,0.0060050225,0.9958594769,-1.0809042833,2.25524297,0.5282799128,-2.2726026288,0.1464498534,0.5134674476,-1.022167279,0.1138818224,1.8878036184,-2.6448124225,-1.7482939373,2.3975476447,-1.1446535941,0.092527852,-0.0269927721,1.9322297773,-0.483325964,1.7223722144,1.5052718353,-1.8220443391,-0.343065352,1.7807407843,2.6442779621,3.5978617095,-0.921199255,-0.0149745028,0.9509956952,-0.2203352191,0.6160034384,1.1535871318,-0.5427111952,-0.1449174794,0.0679508952,-2.0129422761,-0.0105246892,0.552028254,-1.0876418627,-0.1392429939,-0.349237729,0.4245877051,0.2903863329,1.341110973,1.5562055919,-0.5321589107,0.2878345518,1.046533004,0.3785482976,1.4708235138,-0.9389247341,-0.1533881925,0.5697269492,0.2536486648,-0.7091467334,0.1507765549,0.6539890802,0.8228649053,0.6605901998,-0.1942866749,-0.1543840654,-0.3233378062,0.6654508217,-0.6490511797,-0.6968713615,0.7893512635,0.5931784624,-0.1052545565,0.6728872231,0.0856413912,0.5060726944,0.8161472428,-0.0363438902,-0.2746492052,-3.1219208638,1.6268693284,-0.6828777163,-1.4557267709,-1.2127255066,0.129051281,-0.1977508945,1.038582348,1.9714350751,-0.9323774074,-1.3551821906,2.7933615923,-0.7185411399,0.7863231994,-1.1755808023,1.8233692338,-1.6323412579,3.101761853,1.6380498056,-3.2896745296,-0.9476393065,1.5622721713,2.6257091086,6.0021850593,-4.3915331026,5.1576332752,1.5158404674,-3.7548862022,-0.4020486464,2.5325685823,-3.4197146885,2.1348561089,5.2518591152,-5.9676622629,-6.6767392635,7.1108137308,-1.3858090871,0.3299860657,-2.4861087755,4.2615909745,-2.6308784342,5.7759181076,3.1701086965,-7.6347105275,-4.2130947337,7.6465800799,5.2130322468,7.9395778051,-0.3989893571,-0.040267391,-1.5685212359,1.0487879559,0.5892978558,-0.9935188297,0.68503425,-0.3446996116,0.1463505148,1.7333208503,0.9980659672,-0.2607134809,-0.4761300968,0.1515315436,0.1103319977,0.2622341907,-0.2055617929,-0.5274630159,-0.6411855778,-0.2495178575,-0.0346659186,0.0226591663,-1.0458808254,-1.7791708222,-0.9287914241,-0.697744871,0.3512747547,-0.7598009707,-1.0667917412,0.1822095883,-0.8870512393,-0.6855532909,-0.6834200044,0.2322243117,-0.7398137022,0.8191370711,0.0745278492,0.3460151678,-0.2683411538,-0.0570919411,0.1061270887,-0.4490875253,0.4678879254,0.8440192556,-0.3012038117,0.4229657834,0.4575939235,-0.0300012306,1.3949770831,-2.0626077037,0.3273159003,1.1880635212,-0.6126348467,-1.1234220615,1.8290389388,0.2958215139,-0.6900417631,0.8265473777,2.4819691167,-2.0161746725,0.3976461088,0.7825883844,0.3381643659,-1.6391906736,0.1412490889,-1.4055221679,-0.2404967914,1.866440879,1.3822710587,-2.3926254855,-1.3676969935,-2.2285860085,0.3351534169,0.6019296602,0.8565689465,0.5792402026,-0.0442128689,1.6006124364,-1.6670783882,-1.5385806645,0.2283384661,-0.5683267523,-1.8289601711,0.9430031161,0.6059097823,1.1259227226,-1.4881454025,0.7437751152,0.8585416896,0.8614870948,-0.1522452444,-1.1253004622,0.95889117,1.4991208473,0.4406849559,-1.2504338825,3.5429433801,-5.5236955004,-0.1486599552,2.6092826109,0.9502095673,-0.7788200569,3.3010728381,-1.0178015521,-3.7389667194,5.6564901696,6.0612149895,-4.781813582,0.1884465638,-0.6455837918,2.1061595417,-2.4616859028,2.6073104577,-5.5626513194,-4.4095933393,5.4424777149,2.1499976466,-6.3456174217,-3.987566341,-7.4512667617,0.6339049297,0.2311171297,0.2812195102,0.0316406652,0.061592384,-0.075969777,0.4692548099,-1.3334877914,0.422261888,-0.5506795716,0.1704825481,0.3105182706,-0.4310517298,1.8268206381,1.0573328091,-2.0844243217,1.9421595612,0.2241276494,-0.5051563755,0.2644874071,0.1039293203,1.1330465188,-1.1980612502,0.3932121884,0.8559167576,-0.2072291242,-1.7896931146,-5.1950625441,5.7591736395,-8.3276756766,7.9088554318,9.0046553701,4.6297991636,7.8226146406,-7.0203771286,9.6877577047,5.650108942,6.9690282619,1.9279044685,-9.8315620424,-1.2598224377,-9.3918024701,-2.1252342441,1.9191102136,-3.1143679345,-1.6090797738,-0.9450376413,-2.0724476028,0.6807900428,-2.217555248,-1.1145408812,-2.2323104156,-1.0379563921,1.427030854,0.0182079384,4.8890832619,-0.7114487025,-0.070401083,-0.2613412779,-1.9112473726,-1.4792440972,-0.5390535372,1.5971153192,-0.8379062227,-1.2383711188,-0.6517086442,-0.3020764004,0.1033139426,-0.7979969743,2.0556562203,-6.5329933254,10.8353473841,-9.1123449523,-10.362835096,-3.9241585943,-7.5559854636,7.7773624828,-8.7233806843,-4.1688266296,-7.7071244013,-0.8425351285,9.6019982087,3.3114663336,14.4389897597,-0.249027426,2.1155831299,-2.6633427375,-0.3590313196,0.4593735201,-1.0325343347,1.0055354282,-1.9154237326,-0.2040099846,0.3210905692,0.2474128342,1.7227192506,1.9413516518,2.833146243,7.5452371632,-9.9007041021,10.0668150715,11.3602794251,2.7510651884,9.2753049192,-7.1410413765,11.4731657911,7.2877400842,9.3962685833,1.1371213485,-10.0715132487,-5.9218656543,-14.6676410354,0.6777149026,-3.1399086919,3.2444641655,1.5179758557,0.7416177579,2.1502631887,-0.8856700111,2.4294663278,-0.0019644282,1.0493373264,1.8878330838,-3.3073089503,-1.6290019681,-5.9461032163,1.8400868035,-1.7390864325,2.0977284529,2.946584638,0.9864046026,2.3417188133,-2.0834603285,1.0138508106,1.1600150334,1.8071065501,0.8485230985,-1.8069831213,-1.035716486,-5.0425120465,2.122727425,-2.0761133333,2.0396819807,3.3399392045,1.6529797966,2.8091418599,-2.8385506216,3.0341092208,1.2399093509,1.9470228813,-0.185700976,-3.4024401464,0.2826703759,-1.7928291604,0.7397638476,-1.4931863758,-0.0068455546,-0.1833119364,-0.2607796906,0.1123336939,-0.414464958,-0.2063233729,-1.2604218311,-0.770488228,1.0357268444,-0.3266946605,-0.2314445824,-3.1513954362,3.5504080589,-6.830237264,5.6170603218,5.0823550734,1.6663200125,4.8213432802,-3.6345783415,6.342593727,3.5230999131,3.5042891134,0.6224552101,-5.6375314098,-2.100435081,-7.9634979315,4.8826094574,-6.1638906292,7.4399803394,6.2357011933,1.6126991682,5.7815438189,-4.395783612,6.4155050003,4.6964467149,6.352067932,0.958900467,-7.45453821,-3.2618979449,-9.75579593,2.1578540978,-3.142801288,2.8083400388,3.1659095292,1.1921326921,1.9250139219,-1.0767635044,2.7169849647,2.5107979886,2.9715642865,-0.1869128499,-2.5420585942,-0.8860915438,-4.7767676724,-2.0110207443,2.7298173101,-2.9816407678,-2.8750631312,-1.2582283135,-2.847803992,1.1408812914,-2.8346588775,-2.058921552,-2.3761162041,-0.2707114678,2.1929540286,0.4318821176,2.7965018437,-4.0261945183,9.3642717668,-7.186896074,-8.46639853,-1.5378959761,-8.143998902,5.6020591217,-7.280030134,-3.2011161446,-5.9429700751,-0.927461068,7.927512973,5.1201033343,12.5690899554,-2.0172121052,3.2300857197,-1.4470203901,-1.53018878,-0.687579494,-2.0095777949,1.8490775183,-1.9839276728,0.0973298791,-0.1662477801,-0.0502087213,1.247371091,1.0370059178,4.4812063009,3.9493068447,-5.7829398541,5.8010360731,5.1995471873,-0.8530487344,3.8786561617,-3.3870247994,5.4719260947,3.3423257987,4.3808854895,0.7671091545,-5.0293394164,-4.0638063145,-9.486175538,0.5703982443,0.0928787412,0.3497339168,2.4528312158,1.861470853,0.0164927531,-2.0048113941,1.8963763183,0.9675661889,2.4068017031,-1.1211561096,-1.8562685187,0.7175812532,2.3262648686,-0.2773221433,1.503337723,-0.6377705617,-1.8541250204,0.3495746354,-1.4548460921,-0.3402237477,-0.0394460285,0.011782659,0.1241123108,-0.8331955525,1.8764002372,1.0883752372,4.8656619336,-0.612125679,-0.6004790494,-0.0767669492,-1.9199987566,-2.0917750625,-1.5654733492,1.9972695278,-2.2830025141,-2.2395149633,-2.476853675,2.0508591307,1.4231972527,-0.7949489337,-1.3105494652,1.7434614872,-2.6100500769,1.7479108591,1.3890443388,1.2619767448,1.3137695837,-1.5856375552,1.6753020846,0.5348970622,1.4076561835,1.4461161055,-1.9307768689,-1.1082898408,-4.2717387478,0.7727062406,-0.5083346456,-0.0029586938,0.3994873376,0.4827357352,-0.417973357,-0.5827818412,-0.5289511256,-0.8600190399,0.0446467033,0.8060194378,-0.4476405129,0.7466439777,0.4953659701,-0.4788979273,0.6430543906,0.4738393971,-0.2214665719,-0.2460912497,0.3088035357,0.8908970035,-0.6240598286,0.4507384826,0.2004368768,0.2184995145,-0.8626540692,-0.2320320251,-0.1570397416,0.1304154744,0.0732150755,-1.0431962242,-0.6766037948,-0.8323447588,-0.6061551315,0.0601948891,0.0463048667,-0.8999460225,-0.4707744348,-0.1897777002,-0.6740529751,1.0478057062,-0.4554831665,0.7440824219,0.7613077388,0.936268701,0.8214390655,0.1278703046,0.4986684885,1.7026570639,0.9151727558,1.3684213489,0.0638224047,0.7383547011,-0.2463532571,0.5183884644,0.6737195582,0.4436892698,0.3395956225,0.7685317944,1.2433774667,0.0825401585,1.2441976074,-0.2135364179,-0.2328042821,0.7972650038,1.2868950376,0.0519623226,-0.1718874532,0.1671529072,0.6575600431,0.3124639107,1.6154185258,0.6971720567,1.3943288563,-0.0942975199,-0.0093402061,1.111126083,0.5739774307,0.9721366944,0.7401992907,-0.0964229758,1.5882410583,-0.164419452,0.7523672856,0.1203091591,0.3129812741,1.471802755,1.6181907207,0.5202236456,0.8346615661,-0.966009699,0.6123861535,0.5608915817,-0.1948426908,-0.9664297059,0.091441576,-1.1869589872,-0.5425947966,-0.7382097364,-0.6669773329,0.1498371317,0.1327206668,-0.9605213474,-0.4324510893,0.4835092979,-0.7570214013,0.1176850395,-0.6879736933,0.403339353,-0.5300041563,-1.0643898566,-1.2707982384,0.0066616136,-1.2891561073,-0.0532112689,-1.1957182627,-0.8049348899,-1.4827895327,-0.5736808792,0.4927890455,0.046734893,-0.4796112869,0.0277165758,-0.1473294791,-0.4833567364,-0.7547933468,0.278746178,-1.3729953266
   -0.8225424994,-0.0288377205,-0.672975204,-0.9060806334,0.1184840817,-0.7422631303,0.6292982949,-0.2229579415,-0.3645268142,-0.8916976616,0.7163656289,-0.0645781629,-0.7106618286,-0.3277398464,-1.2107687894,0.7469335148,-0.057776174,-0.823725432,-0.828339953,-1.1980013774,-0.8306892996,-0.2371557061,0.4704852909,-0.1152918752,-0.4577739897,-0.7454112596,-0.5093989364,0.037465705,-0.855668841,-1.0128939882,-0.7059422116,0.3555826048,0.4061443629,0.3417713786,0.3877022719,-1.3643940852,-0.92280467,-0.842042271,-1.1390236631,-0.0892399171,-0.5857642081,-1.2905084763,0.3581439332,-0.1471043079,-0.3587726262,-0.4562104142,-0.4019978777,-0.685077499,-0.334676977,-0.5224916617,-0.7441286772,-0.5490282952,0.3696055867,1.6324368474,1.5070965644,2.1872547937,0.551484131,0.5432935009,0.5561662042,0.4755783501,0.9312878301,1.0852374682,1.2638909812,2.3206537682,0.507296406,1.0180980813,2.2055177887,0.696671184,0.9347102435,0.5716069784,0.7434132363,0.8505127029,2.3255746626,0.8929550466,0.7347103563,2.1989157476,1.611700567,2.1678221041,2.0045955985,1.847749237,3.0322072585,1.2265176377,3.1823496355,2.1347203639,3.0299055983,2.2174697139,3.1115062665,2.4745848898,1.9241960963,1.8936201644,3.2681387562,3.3385986444,2.3930114908,2.439951039,3.5494587416,3.4680168886,2.1967182384,-0.6133901287,0.0180099624,-0.1564377616,-0.736644346,-0.5247815835,0.4108915612,1.0042549681,0.305604978,-0.8794859135,0.9744954281,0.5282597351,0.1573119109,0.5078894421,-0.6322683663,0.4899337159,-0.9609219994,-0.487498069,-0.0560384273,0.1487493376,-0.5319889347,0.0549074385,0.908325491,0.5262669958,0.6723456898,0.7515599748,0.3434604871,0.7531865273,0.1331828012,0.0876405879,0.5885127013,0.2431330016,-0.6935597419,-0.7238697291,0.8723203526,-0.3372578907,0.0968308498,-0.1504566814,-0.1459512802,0.8695680997,-0.6427527502,0.1686225041,-0.5456834162,-0.4563748018,-0.2131619029,-0.6146494514,-0.5097087159,0.0944803733,-0.4868043739,-0.8665497209,-1.6465015977,-0.1031540929,0.0272619069,-0.1241671237,-0.6679227878,0.1201512882,-0.2493155767,0.0953028766,-0.7650616666,-0.0092946192,0.2293660745,-1.0862150065,-1.2281650935,-0.1226078817,-1.1887266217,-1.3326119316,0.0444598747,-0.1758558762,-0.9769805862,-0.8483157114,-0.7545496585,-1.2184140106,-1.6018009754,-0.0570162656,-1.1503451392,-2.0116156443,-1.1849269252,-0.8354059114,-1.8607829162,-1.6640663647,-0.6709969598,-1.7367188808,-0.9354411358,-2.204432199,-1.498631516,-2.1600101091,-0.4616145796,-1.3406404424,-0.6224783207,-1.029945661,-1.4235144988,0.2612758161,-0.3884276883,0.1050216455,0.268691405,-0.8071860796,0.0789968184,0.1174332997,0.2660204232,0.1823559683,-0.4451660866,-0.4835027025,-1.2260537845,-0.8235549526,-0.9874318899,-0.6375308409,-1.3188856078,-0.1455142563,-1.320955135,-0.8978409968,-0.0830427867,-0.2044985976,-1.3760830729,-0.5205445399,-0.6862226062,-0.2197230451,-0.868539257,0.137557057,0.0816191417,-1.1584721766,-0.140593547,-1.1488450173,0.2619378203,-0.3977903307,-1.0837584868,-0.9404520046,-0.9979642811,0.0228667492,-0.0315197445,-1.2402572994,0.4509350694,0.6691374479,0.5669798269,-0.481893493,-0.8376165576,0.5958980737,0.2801228159,1.5439198905,0.0961250633,0.1864681958,1.2795468525,0.1960657185,1.5476789693,0.9798428904,1.692914597,1.064249307,1.044263252,0.2640153703,1.7759485853,0.4302910279,1.9402307668,1.2564563173,0.5574956248,1.2822769389,0.3417133126,0.0253928875,1.4284198325,0.3154545599,0.7690190837,0.9665105939,1.3813230796,-0.3619316373,-0.3581457261,0.2319687054,-0.3556884916,-0.1296925275,-0.2887662714,-0.2158438698,-0.4741465472,-0.0196352805,1.4274517386,-0.3123981813,0.8827486811,0.2420733151,1.1261858035,0.4476668195,1.5363588782,-0.1313412681,0.0629261307,0.3868054401,0.324779631,-0.2462691006,-0.3917023061,1.2932735437,0.75224077,-0.5072221765,0.065713967,1.1830301394,-0.1802282914,1.3094100523,0.187526007,0.6614317679,0.9086221172,0.0040521789,-0.5898248639,-0.5979486993,0.7108823832,-0.1160484021,0.5381348205,0.158157981,-0.3989460566,0.0858372761,0.0895906413,-0.2053967063,0.6182162706,0.2665762487,-0.000085472,-0.0116814787,-0.6920394131,0.3504908692,1.2086083148,0.2896530484,-0.1164221727,0.1298340971,1.0471131732,0.4035930719,-0.4071317169,0.8843297683,-0.5136609323,-0.3382450719,0.3328776165,-0.4341234235,-0.5491412745,0.5170416244,-0.5521918278,-0.2931848224,1.3715524025,-0.3608290679,0.9379260187,0.3794096001,-0.1569608053,0.653911395,1.1221285338,-0.3213493543,-0.0064247037,0.6531282589,1.2109294432,1.1062812607,1.2398719811,0.9316502545,1.5446150394,0.4766198458,0.1594547429,0.7081335549,0.7749549932,1.2532079621,0.3622095162,0.9680331903,1.4540609337,-0.1189969454,0.0432158428,-0.1368625415,0.4330960622,1.1554260897,1.7725547587,1.6536543216,1.3314655344,0.1996663281,1.2931505335,1.8471133342,1.39159061,1.915711323,1.8210894269,0.2659884395,1.7452169646,0.4267332188,1.8649979743,1.2480900751,0.2582941856,0.8416755217,1.3702246623,-0.290835347,-0.1751500094,0.4930323122,1.2724058163,0.3682022527,1.0147954012,0.6688850574,-0.1040506601,-0.1519836328,0.4848546355,-0.3754837577,1.1384715977,-0.5268806945,0.618020987,0.0686647217,0.6234004168,0.1738950844,0.3034721918,1.0631089456,-0.1289572864,0.3357491226,0.7893357027,0.8654811106,0.577277575,0.5426597252,0.3896562089,-0.4363078416,0.5045643405,0.7390468831,1.108681781,0.9236831706,0.6446369224,-0.4776568435,0.5287824035,-0.6927296858,1.0588670174,0.6837488457,0.9836898332,1.2230531217,0.0908449077,-0.4449525928,0.798967057,0.4951654726,1.1191134823,0.1088604886,-0.4349563603,0.3509805117,-0.4955884325,0.2012171863,1.1065164616,-0.2422848588,-0.0034787676,-0.2233911614,0.9908422309,-0.0250375412,0.8280267463,-0.1862510556,-0.2941697164,-0.1328159542,0.3980231997,1.1824804875,-0.3862888716,1.410879711,0.0225262909,0.1163675073,0.4550607902,-0.4069677248,0.5747609008,-0.0593639393,1.5437186413,-0.1839459547,0.5849217547,0.8431328126,0.3043902903,0.4100905175,0.6374468396,0.1530828393,0.6097290251,0.7945605164,1.315231237,1.4189819342,0.5667275649,1.5646122946,1.6656867774,1.9380311586,1.2704615377,0.4635561506,1.2007343736,0.5860074428,1.9823076652
##end
biasActivation=0,1,1,1,1,0
[BASIC:ACTIVATION]
"org.encog.engine.network.activation.ActivationLinear"
"org.encog.engine.network.activation.ActivationElliottSymmetric",1
"org.encog.engine.network.activation.ActivationElliottSymmetric",1
"org.encog.engine.network.activation.ActivationElliottSymmetric",1
"org.encog.engine.network.activation.ActivationElliottSymmetric",1
"org.encog.engine.network.activation.ActivationLinear"
