encog,BasicNetwork,java,3.4.0,1,1486496766737
[BASIC]
[BASIC:PARAMS]
[BASIC:NETWORK]
beginTraining=0
connectionLimit=0
contextTargetOffset=0,0,0,0,0
contextTargetSize=0,0,0,0,0
endTraining=4
hasContext=f
inputCount=5
layerCounts=2,6,11,6,6
layerFeedCounts=1,5,10,5,5
layerContextCount=0,0,0,0,0
layerIndex=0,2,8,19,25
output=0.5458620854,1,0.9049375535,0.932552485,0.9177536315,0.8968131162,0.9437484432,1,0.8155386235,0.7223547768,0.6644844487,0.7334051975,0.7786461451,0.7599520885,0.718325738,0.7547514847,0.7813436611,0.5712434519,1,0.8560717634,0.8579817142,0.8330187661,0.8988022486,0.8247605487,1,0.4887605665,0.4887605665,0.5908434548,0.5846566131,0.5537224045,1
outputCount=1
weightIndex=0,6,61,121,151
weights=0.6407754466,-0.7461155613,0.3040244569,0.475030074,0.0243942566,-0.4281592119,0.3264072268,0.6896259857,0.388485531,0.0096332624,1.0066903065,0.2265056186,0.5282679,0.6496686944,0.6876573038,0.776118332,0.4236955494,1.4570703402,0.2630110656,1.0440487055,0.9598076547,0.0736071071,1.3158430098,1.0194053651,0.1044025266,0.3295709469,1.4195799127,0.7004165619,1.2490445026,0.2759019095,0.9834340484,0.1969020678,1.3898799746,1.2529179984,0.2734619668,0.0576875813,1.2802861532,0.5330091412,-0.5157113021,-0.0298847355,0.9506761962,0.5843977351,0.9623965031,0.1005112603,0.1465094003,1.0659310904,1.3512517212,1.5254286621,0.9237308703,-1.6056330877,1.1877754492,0.7568975295,0.1456923395,1.4934832395,1.111734024,0.408822319,1.491558046,1.088320641,0.9728429791,1.3105212805,0.6031585792,1.0980260926,1.0469532699,1.0230123974,0.4794739867,0.6802366993,0.7387599713,0.4369135932,0.2968125766,0.8335063369,0.2017529183,0.1639456606,0.9621512639,1.0406673558,0.2697659624,0.5996917298,0.6274612231,0.9394345871,-0.9801790317,0.9920914001,0.7103754128,0.1405095812,1.0955465921,0.773368691,-0.4473505312,1.0186996367,1.0084066744,0.2801593811,1.0901274432,0.6382835844,0.0407608007,0.1246970601,0.2503272684,1.1014482229,0.9820940242,0.8308593466,0.3588138171,0.3810029116,0.8705888422,0.3865192732,0.8919123371,0.9574932592,-0.4362483054,0.2926230382,0.6399597172,0.8557199434,0.155852149,0.7016054757,0.8463490466,0.3383636503,1.0632346048,0.981526217,0.0240851754,0.8570878663,0.8253174935,0.1949482256,0.7600769061,0.3211031199,0.0349852467,0.7276240893,-0.3857412488,0.4160690873,1.6573033854,1.5113286376,0.0330691072,0.4272507203,0.3116997843,0.2765147779,0.7978242557,1.0044810318,0.7695715241,0.9115233421,0.4474218156,1.3375704651,0.1939647409,0.3871236712,1.2728767304,1.6694236328,-0.6515281116,1.2046031139,0.3014585366,0.1381878223,0.9663264797,1.1738866324,1.9080938333,0.3447363844,1.352291277,0.9371343318,1.0842899048,0.5217330417,-0.4527336343
biasActivation=1,1,1,1,1
[BASIC:ACTIVATION]
"org.encog.engine.network.activation.ActivationSigmoid"
"org.encog.engine.network.activation.ActivationElliott",1
"org.encog.engine.network.activation.ActivationElliottSymmetric",1
"org.encog.engine.network.activation.ActivationElliott",1
"org.encog.engine.network.activation.ActivationSigmoid"
