encog,BasicNetwork,java,3.4.0,1,1486325412118
[BASIC]
[BASIC:PARAMS]
[BASIC:NETWORK]
beginTraining=0
connectionLimit=0
contextTargetOffset=0,0,0,0
contextTargetSize=0,0,0,0
endTraining=3
hasContext=f
inputCount=5
layerCounts=2,3,6,6
layerFeedCounts=1,3,5,5
layerContextCount=0,0,0,0
layerIndex=0,2,5,11
output=0.4365842452,1,0.1192625059,0.2069466847,0.6892692478,0.8906780347,0.8601247051,0.8329893454,0.7553758616,0.8913568417,1,0.4153927899,0.4269680895,0.4409218753,0.4458374134,0.4634382114,1
outputCount=1
weightIndex=0,3,21,51
weights=0.5117230494,0.6536909951,-0.6548167053,0.0617450799,0.0920839289,-0.043360356,0.1632493714,-0.0545868299,-0.0373261332,-0.0809601369,-0.0685854613,0.2353529768,0.2252982098,0.4277657255,-0.355472521,0.5153380783,0.148904234,0.4952837505,0.1226039132,0.3449645338,0.818479115,0.9240829883,1.3270819848,0.6135753609,1.2249058739,0.1500986651,1.7369580865,0.604253691,0.7367588151,0.021783698,1.7947069505,0.1902107225,1.1111342006,0.4646724566,1.5521089919,0.2658483689,1.5497626914,1.4887919678,-0.3600252665,1.1179331446,0.6854118977,1.6454303678,1.8176666081,1.0447103391,-1.7331270769,0.9453017081,0.3795179577,1.8501585372,1.6391188637,1.4874783021,0.8115988724
biasActivation=1,0,1,1
[BASIC:ACTIVATION]
"org.encog.engine.network.activation.ActivationSigmoid"
"org.encog.engine.network.activation.ActivationElliottSymmetric",1
"org.encog.engine.network.activation.ActivationElliott",1
"org.encog.engine.network.activation.ActivationSigmoid"
