encog,BasicNetwork,java,3.4.0,1,1487002470749
[BASIC]
[BASIC:PARAMS]
[BASIC:NETWORK]
beginTraining=0
connectionLimit=0
contextTargetOffset=0,0,0,0
contextTargetSize=0,0,0,0
endTraining=3
hasContext=f
inputCount=5
layerCounts=2,8,6,6
layerFeedCounts=1,7,5,5
layerContextCount=0,0,0,0
layerIndex=0,2,10,16
output=0.6027787512,1,0.8699307005,0.9029472769,0.8932651902,0.8947394656,0.8293647967,0.8504373868,0.8451564094,1,0.7347635053,0.7835298506,0.7776769227,0.868956569,0.6869800862,1,0.4532250693,0.4542929889,0.4687099038,0.4665740645,0.4751174215,1
outputCount=1
weightIndex=0,8,50,80
weights=0.0455748629,0.6672341752,-0.2187383597,0.0691150881,0.3009220627,0.5967708806,-0.2551054987,-0.6330024859,1.1465606164,2.0012243384,0.7938431681,0.3806558105,2.0488649471,-1.9220215453,1.9264059574,0.8753592543,0.8963135108,0.944462388,1.5769831397,-0.55057908,0.2315159661,0.7655482761,0.7487186017,1.9646133131,0.1126939716,0.5477245951,0.1153939879,2.0427856973,0.285511065,1.7168443323,1.2538894416,-0.5105480797,0.1922526268,1.5025139527,0.7373099309,0.7749964139,0.2762887884,-0.8249290818,0.3561789013,1.3210172416,0.7986149171,0.6768349835,0.4186513955,-0.4504920038,0.304042393,0.8241738653,0.9223139297,1.8548022357,1.2056608069,-1.7973690135,0.7495480551,1.907199984,1.2877530758,0.6239739939,0.3713206061,-1.3921650236,1.0579893428,1.1725567016,1.5062972588,0.2967176784,1.3945524807,-1.2094376865,0.6993307781,1.7946783466,0.3207998589,1.3700322512,1.4490632623,-1.3613435132,0.6746827205,1.2045635782,0.6645781013,1.8719543694,1.1988141343,0.2080438267,1.0250874023,0.6422623972,1.2456740485,0.218298494,1.8285360214,-1.7135096489
biasActivation=1,1,1,1
[BASIC:ACTIVATION]
"org.encog.engine.network.activation.ActivationSigmoid"
"org.encog.engine.network.activation.ActivationElliott",1
"org.encog.engine.network.activation.ActivationElliott",1
"org.encog.engine.network.activation.ActivationSigmoid"
