encog,BasicNetwork,java,3.4.0,1,1499389517031
[BASIC]
[BASIC:PARAMS]
[BASIC:NETWORK]
beginTraining=0
connectionLimit=0
contextTargetOffset=0,0,0,0,0,0,0
contextTargetSize=0,0,0,0,0,0,0
endTraining=6
hasContext=f
inputCount=5
layerCounts=1,4,4,34,13,24,5
layerFeedCounts=1,3,3,33,13,23,5
layerContextCount=0,0,0,0,0,0,0
layerIndex=0,1,5,9,43,56,80
output=0.4544075849,0.4702749092,-0.3751973214,0.469433094,1,0.0987334268,0.6471248237,-0.5585977467,1,0.5666681206,-0.3745674002,-0.3656958705,-0.5680792793,0.6047989092,0.142155193,-0.1997046434,-0.4959519707,-0.2602145955,-0.3925493377,-0.3295039079,-0.4704273168,-0.6031258245,-0.0917344383,-0.2420564037,-0.5135916894,-0.5454770693,0.5170858105,-0.2145292275,0.4135715708,0.0435104727,-0.2851083799,0.3552399682,-0.6301854769,-0.1698283037,-0.483860526,-0.2174000904,-0.5335601434,0.1091318671,-0.5826667603,-0.315800426,0.4897371596,-0.5505555164,1,0.477742414,0.5246681438,-0.3718700272,-0.0971847208,0.20275479,0.2611417183,0.2173623015,0.3690961531,-0.2357084629,0.475027928,0.4660966468,0.48681154,0.4954138788,0.3346311766,0.3486164224,-0.4061790761,-0.0031592031,0.5099774241,-0.1407798508,-0.0690818604,-0.1800093033,0.2612805912,0.3355573818,0.2981982231,0.1198279338,0.2166726448,-0.4416775947,-0.3252560985,0.2731830478,-0.3995970188,0.3788850527,0.281012296,-0.0126817183,-0.453069697,0.0854969488,-0.089723214,1,0.2743654386,-0.5068724822,0.0755253527,-0.0115252177,0.5110980268
outputCount=1
weightIndex=0,4,16,118,547,859,974
weights=1.825065912,0.7793807184,-0.1056456053,-0.288060692,-0.0991976079,-0.4015520966,-1.0207580413,0.5195169201,-0.3940585053,-0.3233307088,-0.2192448484,-0.5425429273,0.5565320077,-0.2340169084,-0.3400481591,0.5894705348,-0.8660036296,-0.2592873496,-0.5949516292,0.1483256788,-0.2027581389,-1.043460662,-0.3047014898,0.6578915863,-0.4074854879,0.3287238929,-0.1242747557,0.6538360312,0.7987927769,-0.3153744003,-1.5366270374,-1.0872093859,0.6594627364,0.145824198,0.2193647533,1.1459981536,-1.1098984762,-0.363637256,-0.0291221729,-0.4756314662,-0.5195378149,-0.7254904111,0.0532331288,-0.4516920912,0.3275198163,0.0664284279,0.4303400622,0.2515821617,-0.31217532,0.4185503433,-0.2506508834,-0.2603622908,-0.4096200694,-0.595925732,0.7378413942,0.4186457721,-0.3083727965,0.4076363363,0.5095854247,0.8935523754,0.5145067242,-0.8819019711,-0.7085982122,-0.9379099429,-1.0796088186,-1.0644237235,-0.8588653675,-0.3042941801,0.8877916646,0.2955214005,0.9862581693,-0.2027605462,-0.3645362337,-0.2435313366,0.1167516462,1.3372253884,-0.9189331872,0.5126709312,-0.0340332853,-0.4708787533,-0.9132912142,0.5096776601,-0.6347140525,-0.536428191,-0.5459054212,-0.1933900926,0.5509049444,-0.6787719958,0.9261042977,0.4611834635,-0.5236414657,-0.527871367,-0.3539515572,0.4027119496,-0.1383321313,0.1851084325,-0.2261727634,0.872743172,-0.5830606301,-1.4670503841,1.8917418725,-1.0382186228,-0.8044556839,0.8205171863,-0.1347882838,0.783289535,-0.197905235,0.7938347041,-1.8747774934,-0.4394716425,-0.4830130546,-1.0240566937,-0.6153738767,0.4942903668,0.6028218824,-0.7796654534,1.520354294,-0.6615624927,0.4725234517,0.9544308638,1.1219571661,-0.5509317549,0.4897731348,0.3951499726,-0.1640098156,0.2623968453,-0.1513985811,0.5859620629,0.5824788464,0.6419188324,-0.4085244281,-0.716195439,-1.0231490716,1.0791365061,1.4842991053,0.2208108862,-0.1866332647,0.0696222059,-0.047201948,0.9288250593,-0.4539909398,0.0474574273,-0.0049328967,0.1784750333,-0.7856228023,-0.9178950957,2.5338084951,0.4760871657,0.0588390624,-0.0627289594,-0.0249033686,0.4367746534,1.0253295059,0.770397178,0.7854401089,-0.7245889026,-0.2181632992,0.6157574853,-2.0212843298,-0.0450805165,0.2905495068,0.0834635589,0.6383142508,-0.9699797479,-0.7076359012,-1.0366602444,-1.7664320154,0.9857092642,-0.8709633528,0.175152289,0.8577801068,1.2396285905,-0.1186263722,0.5297762263,0.0803674882,0.0966440953,-0.452549183,1.0101497519,0.4970300928,0.0772604645,0.08018266,0.1738826235,-0.293053836,0.8027261516,-0.6453724748,1.8328653475,0.7526816241,0.7410528391,-0.4507368125,0.9974619743,0.4308378815,-0.7808409467,-1.4142897046,0.913586333,-0.8477346111,0.5036820328,-0.9104836359,0.300615913,2.2970739121,-0.6209451106,1.8495143611,0.323870152,-1.0518444463,0.1418397153,0.7096829892,2.7008866791,1.4794766185,-0.0969467833,-0.7749441271,-0.0393370873,-0.9472299247,0.6976625512,-0.7867725025,0.3224100978,-0.2960385707,-0.912525379,-0.3892153576,1.1598594704,-0.5132286898,0.3096637758,-0.2333692588,0.9678998082,0.0627662987,0.138300276,-0.1735288069,0.9579834669,-0.8599772044,1.1536555554,-0.76796905,-1.4012557518,-0.430296074,1.805707602,0.5346887,-0.6199078956,0.5524860278,0.4148037941,-0.8274254545,1.2385565778,0.6111722366,-0.6658318765,-0.1691714183,-0.8182384829,0.6995609233,-0.0711414467,-0.3641683973,-0.6759896945,0.1246507965,0.3201181165,0.9031075465,0.6048670814,-0.6697768015,-0.084740216,0.0741960746,-0.052120936,-0.3238932892,-0.6055363117,0.4303400544,-0.5394580344,-0.367345365,-1.1119780254,0.0930261311,0.7907343312,0.0553663995,0.4494033029,0.5346664583,0.5975865965,-0.1047836216,-0.1391223312,-0.0741448244,-0.3289843707,-0.716665669,-0.5177498349,-0.3304846259,-0.7558572574,-0.4173376028,-0.9324503819,0.8390204342,0.4255396964,0.6855658385,0.0679694148,-0.0879570924,0.3219999929,0.3973584879,-0.7845938142,-0.4830907872,0.5490383553,0.601345247,-0.448040721,-0.8272544102,-0.1928465808,0.157455537,0.3458281546,-1.0042612231,-0.3446355935,0.933467413,-0.5948170951,-1.014074914,0.9468025564,0.828730171,-0.6569401722,-0.6197900483,0.4286498489,1.0266346417,-0.3957580398,0.7384095994,0.9803877066,-0.4715610237,-0.0652983268,0.6885425804,-0.8407002552,-0.4979527707,0.4089924258,0.6922324254,0.2249655775,-0.8562843273,-0.5984281336,0.5229371029,-0.3279534073,-0.1535887653,0.4683716598,-0.0674493423,-0.201121215,-0.4414459749,-0.541540926,-0.6415264375,-0.6978717969,-0.0788550723,3.4879199576,0.8861104674,-49.39946019,-4.0342107102,10.7774840924,-0.5857763109,-0.7124574242,-6.2323132799,-1.1362526983,-2.0331369494,0.402839813,-11980.5244812532,-0.347927331,1.3043843088,-0.9189832892,-1.0149093602,0.1975365243,-0.2295876654,-0.0488929058,0.8953135993,-0.0143262015,-0.0988129521,1.108318793,0.6430521451,0.0970922489,-0.6860654145,-1.0300406965,-5.783961992,-3.6797494482,0.8532803571,1.01571364,-0.7344946529,-0.5485245674,-0.2235119163,1.8336360532,-1.1072080803,1.0203766337,-0.3674888779,1.4028431082,0.9568809532,-3.4056270479,-0.6981389945,-1.2800102689,-0.9661401464,-0.4221018218,0.226249787,0.7211782363,-0.3051323843,-0.4224913708,-1.3661232724,0.4237747082,0.5396035768,0.6037640216,0.4147136529,-0.2713201133,0.4404669476,-0.3032670184,0.1277146703,0.0926902931,0.6500804631,-0.531152107,0.4153023079,-0.0785845503,-0.5997334849,-0.0964901539,-0.0587806275,0.91348432,-0.4459411733,0.3749416672,-0.0297136509,0.1581240313,-0.1881723465,-0.512255787,-0.9211081253,-1.3168481358,0.4929444441,-0.0569985306,0.7259188972,0.1412928292,0.8590355884,-0.4272647886,0.7019443341,0.085332605,0.2386907672,0.2614778551,0.1207527001,-0.0759977047,-0.5856025829,-0.0776131481,0.9958530152,-0.3996204695,-1.0489515609,1.8319317929,0.0741000111,0.8872131497,-0.0781139414,-2.3413420895,1.0132805574,1.4702528101,-0.8735623066,-0.6485523466,9.5118119041,-0.7151094873,-0.1826937287,4.4896080707,72.5987788129,-144.0963858855,2.6081005187,88.6665405005,78.7782611366,8.991296668,-66.9096728741,-2.7073756213,414.1109094428,0.5638356724,-18448.6631481228,-0.2337855884,-0.0975071895,-0.2300772906,0.3726449645,-0.2440348913,-0.4037460289,-1.1024357899,0.0918228325,0.2404338277,0.6970661088,-0.4989023135,-0.0454372135,-0.3839000681,-0.2870661486,0.3635982866,0.1223594209,-1.0330811109,-0.651824935,-0.352819043,0.7559818411,0.7113693052,0.5819387344,-0.6993801924,0.1890190518,0.2188394697,-0.5921161017,-0.5608552019,-1.5498280608,-9.659932583,0.0884648544,-1.3346318113,-0.4688208568,-1.5459468678,-0.4649708144,-1.4285313603,0.4584970281,-2.0822173389,-2.662902555,0.0940939228,0.6069135642,0.897259117,0.7028869973,-1.1746236751,0.6728127557,0.2828081182,-1.1445429586,0.9913179122,0.7357292925,1.0599846654,2.0846688161,-0.4601840694,0.3302250545,1.2714607251,-0.84304774,-1.1676127233,0.1341243663,-0.2634916596,-1.4702989636,-0.7073192454,0.0904379711,-0.4671244876,1.6594294751,-1.4310341172,-0.6322713835,-0.25384934,0.9875911959,-1.6619600907,0.4281118682,0.1969130145,-0.822576331,-0.6646914834,-0.4828135216,-0.0406994207,0.8775764668,-0.6710446366,0.6727183118,0.6518494602,-0.0460913418,-1.9349510324,-5.077724193,-0.8935324112,-1.0077759954,2.3039511146,0.9858677773,0.7337482854,-0.8460853003,-1.4537721424,0.0687683715,0.4084743421,0.3085984465,1.0622216602,0.7685121644,-0.5115740353,0.8362770577,-0.8716545083,-0.1092456859,0.996114047,0.6779045229,-0.4088028108,0.745742678,-0.8257371322,-1.0031943874,-0.2259641299,-0.8847593099,-0.1889402863,0.2166451745,0.0599539938,-0.668765468,1.9325558623,-0.6173536535,0.160830682,-0.9960186926,-3.8638440291,0.2369671856,0.4130677226,0.0286229517,-0.5502285248,-0.2361651403,0.5147128476,0.5664615798,-0.4322604879,-0.827084694,0.330815608,0.6126974138,0.936905778,0.3344967648,0.549098525,0.2643071392,-0.4922592376,-0.0688730239,0.2413412688,0.7510774372,3.6465700614,-0.4509681911,-0.5608060341,-0.3869390462,0.8695006075,0.4716199471,0.1287784448,0.94866737,-0.6052665594,-0.9106651648,-0.8362545558,-0.226532809,-0.7859889652,-0.3511138374,0.0292479415,0.3448762618,0.5986771495,0.1310277341,-0.6490105613,-0.2129283164,-0.2086930413,-0.5666549258,-1.0216089673,0.4763783143,-0.8850145931,-1.0712731243,0.3943497389,0.6641535776,1.4894409492,-0.7035408434,0.5171670616,-0.3382693588,-0.0692003453,0.8358808362,-0.6068894963,-0.6205597085,0.8930672327,-0.1069093524,0.600491937,1.1473219301,0.0911780779,-0.8048133984,0.9172309079,0.799164656,0.121732935,-0.1959869234,0.2484862983,-0.7278081298,-1.3705653414,0.2605995443,0.8145760144,9.0863095591,0.8779831263,0.0532073552,-1.1031468281,0.0646050646,-0.4265475474,0.1853681573,0.2105128339,-2.0975072629,-0.4326513523,-0.8288685104,-0.359802087,-0.3823952255,0.3014234571,0.8418298255,0.1983461028,0.6597804564,-0.4610009583,-0.6310960049,-0.2407383509,0.2620758264,-8.3716942986,0.5211055914,-0.983997905,-0.3808888982,-0.1728689069,-0.7601734589,0.9049483056,0.9789608531,-0.8852780172,-0.2542966023,-0.2712190249,0.0515687995,-0.8541829297,0.7375279067,-0.5101766253,0.0210313503,0.88797641,0.7422863711,-0.3644376276,1.1041002116,-0.497067859,1.2778622456,1.1628996374,0.9298273856,5.4383960303,-0.4803492724,0.617077468,-1.0512428251,10.0984828253,-0.8195324104,-0.2050391131,0.5903757538,1.0609728453,0.0338842786,0.3708490325,-0.2169833285,-0.7624123923,0.7084016081,-1.5484900223,1.164023679,-0.9091863853,0.6884846515,-0.5634449656,0.3145803897,-0.6375649567,0.8403001399,-0.770493025,-0.8012497602,10.3562147031,-0.5204049118,-0.0672277847,0.7756608846,1.3450572357,-0.8967378892,0.0344011558,-0.9491113713,-0.0681668825,0.9879823704,0.0792164207,1.1112796974,0.0509367241,-0.1427566313,-0.1032622195,0.0056585915,-0.954252739,-0.6889169045,-0.0444061674,0.9657917436,4.6001010126,-0.7465184144,0.318995486,-0.5332976201,23.0292369668,-0.0531323486,1.1452588376,-6.7297470089,-11.2061990695,4.7017947162,-0.6748677392,1.0038262686,-0.8579960365,-0.7655029596,-2.8655782757,2.3112890933,-0.971647353,-0.0099585552,-0.349936651,13.161753936,-0.5472765155,-0.7741045742,-0.1997009414,1.6246351404,0.5611194864,-0.0023275921,-0.7136332222,-0.8673332792,-8.8485377279,0.3369918706,-0.2394918436,1.3517422316,0.1556438481,-2.7195003507,0.8336285651,0.1466594544,0.1378762617,0.6876464366,0.5068046453,-0.4694311388,0.1574809637,-0.5784091763,-0.2074672525,3.196306047,-0.3294179782,-0.5965601293,0.9393836488,0.2941844339,0.6265448088,0.8996708222,-0.8179971085,-0.1169841608,-2.4426487003,0.1437392036,0.5501938424,-0.0347300142,0.2092366307,0.5861920511,-0.6777003211,0.51593383,-0.8998000954,-0.7347276894,-0.4417340308,0.0447566669,-0.7818496332,-0.8570494131,0.7706128194,-0.2105723334,0.838039477,-0.5234435938,-0.5155610931,-0.7419209301,0.58258046,-1.2156226566,0.8587546656,0.6226384803,4.1065300744,0.4834529812,0.6658243335,-1.0420559008,2.7242675407,-0.6171333616,-0.0161194777,0.3750996476,0.9336872621,-0.9460148786,-0.87981827,-0.0462870014,-0.0145319736,0.6356995198,-1.5459628018,0.4492034472,-0.2447459818,0.8291876164,0.4297717289,0.9820427992,-0.8608016946,-0.1580529163,0.500044743,0.321220786,0.732351901,1.0064971453,-0.0010828685,0.7223152042,1.8913334923,-0.775612263,0.7986141665,-0.1212021851,-0.3214966233,-0.116907961,-0.3872611261,0.2045900358,-0.4583927254,-0.2762870297,0.2770521915,-0.0165170685,-0.8628699537,0.9532136237,0.5391572054,0.4550154819,-1.0159187188,-0.4830268695,0.0293494483,-0.3293520755,-1.393592963,0.8198839433,0.5694549576,-0.0873521943,-1.4009001501,-0.0678469588,-0.2176551015,-0.2073146083,0.056179438,-0.6385019967,-0.8593534247,0.7780022387,0.3635882881,-0.1681330377,0.6944326065,1.1961854792,-0.7257136439,0.3119021621,-0.3326194546,-0.2650976104,0.850848917,-0.4651404517,0.9346619231,-0.1623694348,0.2808526968,-0.1977267812,-0.5926780057,-0.4402009262,-0.4984347785,0.7788104693,0.4153865933,0.8659229217,0.6620311046,-0.0587023776,-0.8167514394,0.7903891206,0.4357611287,-0.6853389657,0.8883607863,0.6894202532,0.7702832517,-1.0475780362,-0.5016370327,0.2224797034,0.5857410787,-0.1752874324,-0.0693283857,-1.4210156042,-0.410242624,-0.518436818,-0.9386159818,0.338939856,0.8336657625,-0.1085686155,0.6282430906,0.9006589688,0.1638387896,-0.5032350854,0.480944546,-0.6121477613,0.0776040404,-0.1359592727,-0.2643086912,-0.1941287307,0.6332528781,-0.4996926253,-0.7725684463,-0.2893896012,0.4092605783,0.5465992902,0.1659389133,0.0667569914,-0.4617081539,0.7859348494,0.927432751,0.1453523918,0.5654134368,1.2614575661,1.364545479,0.7990620757,-0.0716874835,0.2523050178,0.6300260723,-0.6584273478,0.8484113824,-0.0783414983,0.5114310089,-0.3863822939,0.1657625342,-0.9347779632,-0.4435981827,1.2538814983,-0.5609045261,0.5773275308,0.7296899568,0.7485328438,-0.0617220936,-0.9592726386,-0.7441379663,0.4281219093,0.1010140648,0.8481688176,-0.0713298461,0.4425034128,-0.5622893849,0.1723355901,-0.3586542204,-0.1401947785,0.9790334453,0.8513118893,0.2888099963,-0.0784313345,0.7780693407,-0.2309258074,0.7118518641,-0.8148892729,-0.3294241558,0.9242832656,-0.1754988075,-0.0126619692,-0.4821081004,0.3104332612,-0.5686198684,-0.7543035447,-0.8336926785,0.3770474397,-0.5229623691,-0.2328564816,0.2064626628,-0.8761034125,-0.1352379862,-0.3148188433,-1.0536109938,-0.4454764043,-0.4182286287
biasActivation=0,1,1,1,0,1,0
[BASIC:ACTIVATION]
"org.encog.engine.network.activation.ActivationLinear"
"org.encog.engine.network.activation.ActivationElliottSymmetric",1
"org.encog.engine.network.activation.ActivationElliottSymmetric",1
"org.encog.engine.network.activation.ActivationElliottSymmetric",1
"org.encog.engine.network.activation.ActivationElliottSymmetric",1
"org.encog.engine.network.activation.ActivationElliottSymmetric",1
"org.encog.engine.network.activation.ActivationLinear"
