encog,BasicNetwork,java,3.4.0,1,1499297854512
[BASIC]
[BASIC:PARAMS]
[BASIC:NETWORK]
beginTraining=0
connectionLimit=0
contextTargetOffset=0,0,0,0,0,0
contextTargetSize=0,0,0,0,0,0
endTraining=5
hasContext=f
inputCount=5
layerCounts=1,4,4,4,4,5
layerFeedCounts=1,3,3,3,3,5
layerContextCount=0,0,0,0,0,0
layerIndex=0,1,5,9,13,17
output=0,0,0,0,1,0,0,0,1,0,0,0,1,0,0,0,1,0,0,0,0,0
outputCount=1
weightIndex=0,4,16,28,40,55
weights=-0.6949450868,0.2433711876,0.0449644356,-0.4992379233,0.4398009163,0.4135836975,0.5391825089,0.7941936666,-0.7764046434,0.2535806674,-0.1323415826,-0.515206802,-0.8397190831,-0.0390302689,-0.3382115957,-0.5814660221,0.3325052038,-0.0484553087,-0.9951609439,-0.2003938553,0.6401188483,0.7761809381,0.6786941855,-0.6858041308,-0.927564465,-0.9375719252,-0.2501275874,-0.4167279039,-0.0596912477,0.6877601373,0.9923445617,0.168978186,0.8797213739,-0.8536018839,0.5043682684,0.6927978127,0.6814027289,-0.2878519574,0.7392819729,-0.9717178947,0.4133517738,0.7173852399,0.3553646796,-0.0973529879,0.1148584695,-0.099842844,-0.8496450472,0.6962780254,0.9189063964,-0.4899973149,0.7759701266,0.3478438031,0.2309436829,0.6975505365,0.9003872885
biasActivation=0,1,1,1,1,0
[BASIC:ACTIVATION]
"org.encog.engine.network.activation.ActivationLinear"
"org.encog.engine.network.activation.ActivationElliottSymmetric",1
"org.encog.engine.network.activation.ActivationElliottSymmetric",1
"org.encog.engine.network.activation.ActivationElliottSymmetric",1
"org.encog.engine.network.activation.ActivationElliottSymmetric",1
"org.encog.engine.network.activation.ActivationLinear"
