encog,BasicNetwork,java,3.4.0,1,1497393124502
[BASIC]
[BASIC:PARAMS]
[BASIC:NETWORK]
beginTraining=0
connectionLimit=0
contextTargetOffset=0,0,0,0,0,0,0
contextTargetSize=0,0,0,0,0,0,0
endTraining=6
hasContext=f
inputCount=5
layerCounts=1,25,24,28,26,24,5
layerFeedCounts=1,24,23,27,25,23,5
layerContextCount=0,0,0,0,0,0,0
layerIndex=0,1,26,50,78,104,128
output=0,0,0,0,0,0,0,0,0,0,0,0,0,0,0,0,0,0,0,0,0,0,0,0,0,1,0,0,0,0,0,0,0,0,0,0,0,0,0,0,0,0,0,0,0,0,0,0,0,1,0,0,0,0,0,0,0,0,0,0,0,0,0,0,0,0,0,0,0,0,0,0,0,0,0,0,0,1,0,0,0,0,0,0,0,0,0,0,0,0,0,0,0,0,0,0,0,0,0,0,0,0,0,1,0,0,0,0,0,0,0,0,0,0,0,0,0,0,0,0,0,0,0,0,0,0,0,1,0,0,0,0,0
outputCount=1
weightIndex=0,25,601,1245,1947,2547,2662
weights=##0
##double#2662
   -0.0814004011,0.0258334064,0.1263075401,-0.1149415704,-0.6470847435,0.0472129798,-0.0834291144,0.0716069544,-0.4475116172,-0.3791085382,0.2718064949,0.0283413765,0.0215947155,-0.2503091612,0.0901190032,0.0168308025,0.525397424,-0.6267257059,-0.3070020673,0.002277295,0.1794703093,0.0052153304,0.5461522169,0.0262430932,-0.0167435817,0.1152503254,0.9854449905,0.9894289209,-0.4621006145,0.8824476836,0.4041240653,-0.4693842149,0.6517176891,0.5523386436,-0.0651802359,-0.6441429952,0.6036615653,-1.0198703135,-0.7180213817,-0.1956260778,-0.4108281367,-0.4086466933,0.2486791582,-0.0133708327,0.7624699452,0.3232091309,-0.3773323697,-0.5561230874,0.4846430894,0.6003602436,0.0397414091,0.7111485215,0.2148804464,-0.4774937743,-0.4121262918,-0.894340157,-0.4850922477,0.4041728357,0.6742778354,-0.0856762556,-0.9095603419,-0.7613035248,0.0901642295,1.2869593254,0.285038599,-0.0542199753,-0.0281314149,0.2809350966,0.6885663345,0.0950064142,0.2778893802,-0.1009244642,0.6394347961,-0.1572838374,-0.6142711891,0.666684659,-0.5134646644,0.7335601861,0.6216496197,-0.2197317547,0.0688958611,-0.3410648644,0.4082507334,1.0989770466,0.0788440278,-0.4531505002,0.7983857954,-0.078956238,-0.0691775761,-0.284569948,-0.185914002,0.8270218726,-1.0206708119,0.6324929932,0.8784565525,0.8016931693,0.8028338939,0.8335315616,-0.2781445347,0.2515754684,-0.5975828344,0.5573363576,1.0849963621,-0.6921926613,0.979158047,0.123019727,0.3495935025,1.039667841,-0.3779853874,0.7046289341,-0.5994463724,0.2231420999,0.0610492623,-0.7159230699,0.463318039,-0.8034067545,-0.4180345458,-0.4263951201,0.3161713466,0.412089458,0.378026157,-0.7828662495,0.0637824644,0.9034477074,-0.1257955906,-0.3488503916,-0.6547173117,0.3259798923,-0.6978659301,-1.0701670504,1.0680771823,-0.317783592,-0.3462061682,-0.7094776874,-0.1923538913,-0.1064495555,-0.2569788232,-0.5947352407,0.5383699279,-0.6637336411,-0.6220839787,0.2438526036,-0.6783236937,-0.8853049082,0.3476679232,0.0917990006,-0.2490195439,-0.6528008812,0.4897725356,-0.6884984749,-0.9057132991,0.5115300629,0.6482556663,0.9167386831,0.1624323354,0.1896867106,-0.1683825355,-0.2764063646,0.4594227145,-0.2880681165,-0.1648793879,0.531373641,-0.3874080479,-1.0192396694,-0.5110790907,0.9170499203,0.7928994417,-0.4233527608,-0.5733579965,0.3091610801,-0.0846197408,-0.5107983101,-0.8684162864,0.0162147852,-0.1343393678,0.5547874485,0.4535930295,0.508621037,-0.789662063,0.2459057366,-0.4711842617,-0.6032593476,0.5810149126,0.9732997314,0.3100085598,-1.1288927224,0.424941184,-0.3372161004,-0.9217844,0.4278723903,0.0882570575,0.4194281554,-0.3891709705,0.0161746404,0.0599735641,0.1240195776,-0.060738445,0.0162019081,0.9859610314,0.0551457895,0.9508964375,0.0835372673,0.1559414268,0.0707443803,0.5714178415,-0.7500588048,0.1446379698,0.4959495261,0.2640380496,-0.7279014023,0.4381593936,0.1798472181,-0.4311857858,0.6126081925,0.3597561336,0.1269871886,0.1908981224,0.8545533942,-0.3991493802,-0.8957344439,0.0819031189,-0.0778019694,0.4033495793,0.808594442,-0.8302012529,-0.6482523001,0.8321570781,0.7867094644,0.9430903372,0.5959245498,-0.5807920587,-0.2275026032,0.5989311364,-0.4592442049,-0.362297386,0.4396345497,0.7134806288,-0.3079868542,-0.7339822072,0.1238227085,0.2488284181,-0.198454946,-0.1374882171,-0.9185078905,0.7055445329,0.833095615,-0.7484595739,-0.147677087,0.0837319122,-0.1561901628,0.5547168235,1.0755898541,-0.7748938648,0.9166123629,1.0203071596,0.1408410393,0.1389344601,0.8088371087,-0.8580316558,0.1620591296,-0.9671379011,0.9199529745,0.5306960468,-0.4992904961,-0.1063854893,0.5212810024,0.3294261913,0.1608135763,0.4558759611,-1.2879074292,0.575176332,-0.1725095236,0.7093619614,0.5246854383,0.7586758606,-0.6185196309,-0.7125348221,-0.2070478719,0.6734442539,-0.0825473382,0.2146010953,-0.5386819539,-0.3261579566,-1.132235852,0.23596679,0.3919343755,-0.6701191313,-0.6558008398,0.6447303349,0.3418168851,-0.8731433913,-0.0883964038,-0.6256547895,-0.3862323739,-0.5966934552,-0.5130252691,-0.5742389563,0.8989557711,-0.4413375542,-0.6088581735,-0.8491516771,0.4610265685,0.341950238,-0.5617634756,0.6152218779,0.0325652724,-0.0756924749,0.3173564938,-0.5208910101,0.739194578,0.6660318133,-1.1483915196,-0.0416568658,0.5267631652,-0.0974334658,-0.4131379803,-0.8890965676,0.0781540184,0.4674306932,0.9951637002,1.088866564,0.3284335236,-0.020441372,0.1147813288,0.4560519516,-0.4930957812,0.509550936,-0.7149004379,-0.9634614869,0.8456059862,0.3122423588,0.4356636878,-0.0485654835,-0.2646146163,-0.6558687991,-0.3078398637,0.0071317226,0.40910629,-0.8141273182,0.5994168434,-0.8237860992,0.6259537091,0.9340827152,0.5388976665,0.8239228923,0.5062666681,0.6668533256,0.8042552548,-0.7012959264,-0.1719594658,-0.509996956,1.0309725306,1.0640530326,-0.2352207594,0.786658762,0.4644536722,-1.024788285,-0.3428936869,-0.848669936,-0.9356072424,0.0747305644,-0.2983582886,0.3755539814,0.0639494955,0.6754901755,0.0926112183,0.9996875278,-0.5606395474,-0.0138407614,-0.4433161372,0.793042631,-0.4275591939,-0.2211436102,0.7895956772,0.793274609,-0.307038618,-0.3568107814,0.8177048756,1.4683008262,0.5852015814,0.5242838497,0.9510757416,0.0745824065,0.0473462997,-0.545817863,-0.2970878292,0.622718735,-0.2640189628,-0.1411429618,0.2922116171,-0.9036297164,-0.1510851977,0.7037287805,-0.2037609657,-0.8937444944,0.57972978,-0.6273966504,-0.9948021381,0.376886724,-0.6506502551,0.2663433889,0.839818807,0.7005055171,0.9571090732,-0.6157591752,-0.8113986397,-0.8640678491,-0.130702033,0.1108938188,0.7943428156,-0.7268504802,0.0906488909,0.6898430546,0.2461380591,-0.6062787797,0.6627086371,-0.5417138492,0.1498837723,-0.3585730645,0.8482561554,-0.2247765545,0.1366363922,-0.9561253786,-0.7510008852,-0.3970245155,-0.925425177,-0.8758578827,-0.8389491185,-0.4804642276,-0.0983273834,0.735615477,-0.6075229739,0.3408298079,0.760479944,-1.0596805983,0.5907127082,-0.3615271074,0.0261983691,-0.3324254072,-0.6017385552,-0.2260079452,0.4402900012,0.629033042,0.2547413017,0.8476119382,0.4282196118,0.2546583442,-0.4868453546,-0.793999928,-0.8396281089,-0.3685026508,-0.5084140511,-0.2429614398,0.3933434263,-0.432285221,-0.6172519576,-0.0862976615,0.4725242967,0.4652844277,-0.8820088116,0.9709008092,-0.6225796073,0.2449907646,-0.899850477,-0.6013573743,0.7801300341,-0.6496429394,-0.7087430537,-0.5457226486,0.1718674896,-0.6012375607,0.9506777867,0.6487860775,0.0483537989,0.003716205,0.0573960494,-0.8675829573,0.002601019,0.215529228,0.5683994011,0.7719174008,0.0395064891,-0.5417862899,-0.6056978636,-0.1193982646,-0.8443886188,0.6805195651,0.5320976146,-0.7370072849,0.4831128572,0.3673629735,0.5200903673,0.0151120673,-0.203523042,0.1561225509,-0.2736339988,0.7503682382,-1.0280693795,0.8198206356,0.3664078956,1.0053579857,0.6954460881,-0.5036654768,-0.6047940154,-0.9106298026,-0.6115695837,0.2608091864,0.735927753,0.921037591,1.0380036821,0.5100126946,-0.5726948705,-0.0239640586,-0.1856705163,0.7000915384,0.4479212311,-0.0744192766,0.5870885616,-0.6528601632,-0.2325269638,0.5785110551,-0.4648516149,-0.6572451086,1.0039810428,-0.4609376315,-0.8016485827,-0.6855525121,0.5139134634,-0.5285209183,0.136266253,0.68423288,-0.3099413716,0.674238092,0.1682814284,0.6923424375,-0.8459775,0.2783225334,-0.7894378003,0.7427633332,-0.6068843683,0.5822375917,-0.1526110887,0.2888879143,0.2971771784,-0.1252284902,1.0003253747,0.6364299877,-0.3927536863,-0.1470138111,-0.0518603521,0.5509871715,-0.167748357,0.5258927908,0.6544173241,1.1104632649,-1.0531134564,-0.1875171379,0.0260332263,-0.2721140358,0.0656454266,0.5977237128,0.1303829986,-0.5174598325,0.5972574492,-0.0476144867,-0.0066876554,-1.0227897244,-1.1611273696,-0.26104273,-0.1374236439,0.8165069996,0.6982269245,0.8950966803,0.5588622863,0.4164748352,0.9991316007,0.7541175637,-0.1630889793,-0.4013854509,0.3455907741,-0.3478325049,0.254793945,-0.3805844507,1.0111639082,-0.2590875973,0.021466551,0.7189741698,0.7487607513,-0.7488160823,0.2115962258,-0.0323047355,0.7520906857,-0.4684294092,0.1296098194,-0.8208132006,-0.6090812194,-0.114699295,0.8034803844,0.3344758389,-0.540031407,0.6867544089,0.0395868823,-0.1403527278,-0.463858685,0.1528808811,0.1098012789,-0.4858418021,-0.7861452665,0.9342502092,0.1453391713,0.4747088188,-0.102441485,0.3275208728,0.5200869847,-0.114497633,-0.1601912499,0.41347051,1.7067378827,0.355421243,-0.5237270262,-0.7741965637,-0.0376680026,0.7560595835,0.6372492395,0.1944039814,1.1695915396,0.7335034667,0.2719181618,0.0803563947,0.399767321,0.161746789,0.0018808126,0.7718648495,0.7279625514,-1.2822307706,0.6226042915,-0.7552936229,0.4754455117,-0.8185950592,0.2411330265,0.4673605476,-0.1326489019,-0.8309906744,0.554200343,0.8654796871,0.591470184,0.5162057896,-0.010897685,-0.0987979473,0.7181657843,-0.6814578966,-0.758871361,-0.220005891,0.1868913417,-1.2280446834,0.2583805917,0.6596659047,1.0320691797,-0.5439602656,0.2597390721,0.8837203023,-0.3259385069,0.4021706551,-0.3195523156,-1.0843519658,-0.1059128155,-0.3939355557,0.0350762875,0.7970051313,-0.1223754793,0.0023779246,-0.0797419279,0.2442130353,-0.7489778319,0.6704635056,0.215889833,0.8216085252,-1.2721413761,-0.0097017109,0.4563384597,0.3266214798,0.9187429445,0.7037948227,0.5707805514,-0.2676617489,0.3090866343,0.2197917979,-0.2268691916,0.352634702,0.8717212848,-0.438812858,0.4472101596,0.0702314447,0.620810382,0.6792467226,-0.0780527894,0.1044089697,-0.2847216561,0.5330452668,-0.943379056,0.1716266923,-0.8924001563,-1.0207000797,0.7154956663,0.3217265576,-0.6621477952,0.7811278397,-0.5323374534,-0.0729787631,-0.5497385613,-0.3250470102,-0.9138085287,0.3279674996,-0.5902710701,0.4166951681,-0.2650025659,1.0103670566,0.9843697986,0.8534601099,-0.797931595,0.1129981808,-0.0102044458,-1.1076197563,0.9027375133,-0.7965847696,0.4113737796,0.463047571,0.1707552228,0.2312871984,0.0877585931,-0.4276667165,0.6522535551,-1.0621149324,0.3000247433,-0.8713613521,-0.2508375973,-0.6417743342,-0.9924733934,0.4203467902,-0.3364007602,0.4051817466,0.3895345701,0.3663493669,1.2540958508,0.1573336487,-0.7456591104,-0.0643532939,0.7560830198,-0.7712365023,-0.8115406087,0.3637284993,0.6995266346,0.9938318209,-0.8708991932,0.0898739596,-0.3865350436,0.4617820439,0.4544668802,0.0089291765,0.3077488834,0.108088074,-0.3434115818,0.6467703163,0.8200139778,1.3263824336,-0.9245625163,-0.0300798066,0.3376772742,-0.7307863224,-0.1977068484,0.3096764188,-0.3802537923,-0.7091715518,1.3107732096,0.86489519,0.1377974979,-0.7493358812,0.1832148821,0.1217723354,-0.4102924406,0.0025300335,0.7446138816,0.1661076853,0.1066048974,0.6850092098,-0.2612236132,0.2617986909,0.1663465218,-0.055392485,0.5876753394,-0.9009696859,-1.1394489091,0.5425631797,-0.6040529099,0.9724002759,-0.0685655513,0.8198991236,-0.1185552559,1.2760607833,-0.2632668689,-1.0192191531,0.16201008,-0.7873205861,0.00199851,-0.4147448537,-0.6062772837,0.9372128738,-0.9118680748,-0.2559168199,0.269828897,-0.4927094224,0.4794400254,0.2912368401,0.0330755452,-0.9554804972,0.5903041495,-0.0021618601,-0.44242038,-0.5289019907,-0.8971614721,1.3169244901,-0.7013851999,0.9660253308,-0.5616913653,-1.1372142539,0.7751458664,-0.6724579018,-0.5261368239,0.44798692,0.3799754644,0.7053650645,0.9893687403,0.9863043278,-0.9919039039,-0.5300191657,-0.0216973145,-1.2073502641,-1.1060840342,0.487648404,-0.6596585431,-0.7494774584,0.0460616095,0.1422738769,0.3092249442,-0.6210949321,-0.1111507901,0.7781367907,-0.0125616618,-0.1230589558,0.8499467432,-0.3077379757,0.2347808613,-0.6567355593,-0.3263269401,0.1790091552,-0.71263409,-0.1628144114,0.7029923793,-0.7194221111,-0.6545917293,-0.7513309653,0.3768599913,0.2052260493,0.4084472682,0.1329829781,-0.7387465595,0.7116358999,-0.2653092503,-0.1007263284,-0.5815158411,-0.2076015158,0.9687727477,0.8371908875,0.3348203913,0.2266185125,-0.0092546091,-0.223606623,0.3740690908,-0.6401223812,0.6789140033,0.5181702358,0.3785000814,-0.5435221106,0.5415724858,0.8110967282,-0.320139898,0.0257852236,-0.9078836103,-0.4376745907,0.8337489296,1.2378536464,-0.7667749072,0.2326875958,0.7541620452,0.292175412,0.478212077,0.5466702444,0.8466598848,-0.2967041651,0.6349106057,0.0634153581,-1.025320477,0.5359663691,-1.7989292354,0.9718689514,0.7484308923,0.0223971852,-0.122011483,-0.1193624776,0.5914274134,-0.3719990089,0.3610381986,-0.157125969,-0.6338220342,-0.8280932414,-0.5299876914,-0.0465950967,0.2820367442,0.3403635969,0.9667409828,-0.0613568817,0.3436358119,0.1102751211,0.581974535,0.9760245,0.6773415757,0.6106113433,0.1331809794,0.297967893,-0.8609499201,-0.6417654047,0.2351485775,-0.7584136405,0.3090781346,1.246777222,0.3433706449,-0.5284610468,0.8342111273,0.8398630671,0.8203574357,-0.2180233907,-0.5541285991,-0.5895875945,-0.3962278079,-0.9930449727,0.3586468828,0.1048076861,-0.8205671357,-0.4494706954,-0.446597184,-0.7290576422,0.6954642046,0.7856174327,-0.5866774379,-0.8098294122,-0.6969565251,0.9403298319,0.3826078183,1.1783690521,-0.1875101671,-0.0127196465,0.4192591481,0.3296860908,-0.3119396723,-0.9599131746,0.5586797041,0.8615467333,-0.6065893596,0.1609925008,1.1365425478,0.9793314112,0.2687154604,0.5750741701,0.913566306,-0.0765923154,-0.6267175887,-0.4212820897,-0.525165369,-0.3342045511,0.0802967882,0.362939717,0.7748316723,1.2836042912,-0.4484613872,-0.5343965487,-0.2904692965,-0.9800553784,-0.0948662469,-1.31422629,-0.238909158,0.0711405207,-0.424942556,0.9439535051,1.2513952108,0.8645867115,0.8664513212,0.0700298546,0.2537453694,0.0007053494,0.4213850728,-0.3768545073,1.0887279607,-0.3518172718,0.1664251075,-0.6630301034,-0.4830660064,0.1347181014,-0.0194521783,-0.3118941499,0.2632790942,0.7138181396,-1.9248624072,-0.7284606369,-0.8402825899,0.8160104034,-0.4949547951,-0.4010560063,-0.8700307588,0.939292007,-0.5633798359,-0.4366743542,0.4574082727,-0.0730651465,-0.3076158369,-0.3379090786,0.2763993964,-0.80005798,-0.2170408448,-1.1148842252,-0.9745313315,-0.8249835341,0.7852813974,0.711985983,0.2250541514,-0.3380117602,0.4566717661,0.2540042659,0.5944154048,0.2398472824,-0.1533514057,0.0842889886,0.5095103322,-0.3246769545,-0.3632787673,-0.6937951189,-0.3889700645,0.6263442071,-0.653656521,0.9479275023,0.49462045,0.8603840687,0.1941237756,-1.0919240953,-0.5960570273,0.4529310348,0.3975503274,0.5129047076,0.7671725191,1.9205888144,0.5623126255,0.1678088587,-0.7709373733,-0.5424075063,-0.4723441759,0.0192440403,-0.3871319815,0.0847671567,-0.976042741,0.3704383271,0.6551566328,0.9231071687,-0.8936175284,0.9793667259,1.3626644342,1.6965240644,-0.3158244244,-0.1878625838,0.1199443413,-0.6999704337,0.3442891274,0.4906762901,-0.8713067637,0.9962404224,-0.5336545035,0.4485851042,0.0700057445,-0.4538050888,-0.4660951024,-0.3264020644,-0.2785696317,-1.0914303672,-0.2731887182,-0.0040470138,0.9713101037,-0.7399787408,-0.3921951123,0.4651286516,-0.0020684715,-0.1417872155,0.580926002,-0.555522847,-0.5800816555,-0.4442273292,-0.5441853217,-0.8417405329,-0.2854543089,1.1988487637,-1.1562003294,0.4559478513,0.065068647,0.6534869607,-0.7235451434,-0.3317079479,-0.1721972861,-0.0738130985,0.1411752939,0.2580531765,0.9873752642,0.3894784683,0.1786287719,-0.223457695,0.0053697762,0.0344829732,0.2730530001,-0.323141256,0.2128110633,-1.2141424084,0.5397076167,-0.5193174343,-1.2911579374,-0.3761724192,0.6121532589,0.0331940998,-1.1453844294,-0.1189231205,-0.4783268073,0.1968432346,0.3297493568,0.1916892046,0.4563495192,1.2044411475,-0.1705171911,-1.233689254,0.2010567431,0.3383313369,0.1047473652,0.9844664299,-0.4376893481,-0.1353310068,0.7549360137,0.2735755886,0.3599987191,-0.9052589025,0.4472764458,-0.9999612715,0.2180081871,-0.5985788134,-0.4468929042,-0.7058869939,0.5598809004,0.8599400472,-0.5296069937,-0.2737785855,-0.2229907071,0.7009936257,0.1205906948,-0.8852838437,-0.5859356036,-0.202789114,0.2756688965,-0.4499477903,0.4519487593,0.4409777025,0.5193571982,0.7633318739,0.6854372176,-0.0740333393,0.5127912662,-0.3527449017,-0.0464870567,0.9858592113,0.493957046,0.1849264978,-0.3575097448,0.2127083185,-0.7578495598,-0.2890457112,-0.6681761931,-0.6379321465,-0.1790941917,0.8836525343,-0.1865778661,-0.6822554574,-0.0193750259,-0.2266922409,0.8552645735,0.1967443048,0.2244230345,-0.1948992602,0.4075539139,0.7493358435,-0.2604620347,0.3168178731,0.8908836132,0.8051379382,1.0830043371,0.3922765955,-0.7774970181,-0.0180052661,0.0420736459,0.5649079637,0.7737748778,-0.3576404757,0.0659698889,0.9396404088,0.495671661,-0.0163380773,0.5865145344,-0.15744601,0.1678971064,-0.6066756734,0.4983759707,-0.3347079304,-1.0515525292,-0.2149787514,0.0099072639,-0.5087048793,0.2733687126,0.1330474615,-0.8212015232,-0.6097054885,-0.0523566296,0.585939206,0.7541622226,0.6251209866,0.2157748454,0.1093705124,0.8932834522,0.9066411339,0.7135716992,0.5090177641,0.1724372271,-0.567926227,-1.146850988,-0.4870237133,0.0510416243,-0.7826454884,0.7689195331,-0.9216287202,0.1695337863,0.6559454766,0.3962088347,-0.359200679,-0.0579560081,0.4825403081,0.6138511323,1.0141890248,0.1456785373,0.8033813883,0.4863777941,0.7845111755,-0.8804810226,0.1106326995,0.040883642,-1.198923649,1.4593126131,0.728789172,0.7121093643,0.373631327,0.0656808352,-0.4217399113,0.4433756965,0.98926513,1.0830231939,1.220693705,0.4394208455,-0.3522778803,-0.6979441103,-0.2498044045,0.2922525768,0.0279025223,-0.3058747285,0.1008069146,0.1223241289,0.8124378618,-0.2764495587,-0.3123338234,0.4971267471,-0.1101622305,0.3817440119,1.2929831175,1.1029061206,-0.293594031,0.7990446691,-0.455872268,0.3357352703,-0.1324273213,-1.0815038583,-0.7761863856,-0.3110179436,-0.5591850592,0.4964191472,-0.034988958,0.2300489347,0.5947606176,-0.972496011,-0.8865506382,-0.6461607376,0.1831696339,-0.5277057575,-0.9155716339,0.848973674,0.6747468227,0.1491177005,-0.3185973733,-0.3256761984,-1.4540007233,-0.5806820195,-0.5129155106,-0.2793471695,0.4217723725,-0.6034687556,0.161238546,0.5270598662,-0.100623719,-0.1684015428,-1.8060378375,1.1312878358,-0.0460705116,-0.8812148128,-0.350599331,0.7774696815,-1.2437372334,0.2900023929,-0.1215997123,0.0508239069,0.4748834543,0.3403066861,2.4545027764,-1.0878068413,-0.2798942165,-0.0365492877,-0.0634308,0.1493086699,0.2359433784,0.1968370671,-0.6253464457,0.1234473813,-0.4478826257,-0.9298516871,1.1885896375,0.4599734726,0.1435806837,-0.6316453984,-0.3653318842,-0.7001161736,-0.9224480615,2.1746824188,-1.0226683351,-0.0965868149,-0.5645819244,-0.4701732384,0.9137907972,0.1975992023,-0.5947606141,-0.0781721788,-0.900147734,-0.0733541233,0.7798455397,0.176285679,-0.2095936774,0.1045466267,-0.3162644706,-0.1813431711,-0.3788587687,0.8554760795,0.7171102456,0.5483971215,-0.1364940257,0.3432012848,0.2790023212,-0.6253019597,0.1669520767,-0.8823065934,-0.9485305216,-1.2515857605,0.4315397155,-0.2291108715,0.6506005316,0.4441151343,0.5614720839,-1.0865712929,0.5347708227,-0.6809531641,0.7183917588,0.9757421895,0.293589012,-0.402105492,-1.2125948332,0.5471827607,0.6952248692,0.385382309,-0.0917748048,0.5984345024,0.5013196992,1.1142514148,-0.4029470185,0.1668112915,-0.5164726495,-0.3137814464,0.6176746419,0.1366733927,0.143064461,-0.9571583849,-1.234921779,-0.4547484945,-0.7696079107,-1.0761617909,0.2933917288,-0.3858738149,0.1461081936,-0.6936669069,-0.9698200096,0.5759287927,0.3724066976,-0.2360124594,-0.119641717,-0.0696379039,-0.0142726982,-0.2046742805,0.2026437953,1.0125901029,-0.4432581007,0.6820977985,-0.1431961733,0.4448169149,-0.6944434634,-0.312252394,0.0897041013,0.0380904421,-1.3064089999,-0.3653229847,0.6520756245,-0.3173525604,1.2880371145,0.5098900739,0.4068601463,0.0276170188,-0.3819761015,-0.8641044582,0.9482581793,0.1330376808,-1.3559371723,0.6642737793,0.1624011534,-0.9716773498,-0.6000903017,-0.6903946043,0.7553651337,-0.186886212,-0.1986775595,-0.2842720153,-0.607892503,-0.7085501996,0.3932729987,1.1106794398,0.1549441526,0.7516168221,0.5511432756,0.048849974,-0.370831098,0.3859393147,0.0030171363,0.1636265114,-0.0822711855,-0.7546644062,-0.1194004489,1.2138179755,1.0224355521,-0.6499914398,0.7656390381,0.8646255776,0.2883700173,-0.0364919794,1.1202671134,-1.1513060217,1.2609284994,-0.569031508,-4.3728621417,-2.7236923343,-0.3468114032,0.645309637,-0.9095835968,0.2874293401,-5.5867627009,-0.6297069762,0.8683059785,-0.5481017903,-0.2252990872,1.6445576823,-0.78179469,-1.0248980152,-0.194757868,0.014914335,0.2586958268,0.5400697115,-0.0825761002,-0.2546046518,-1.3185600117,-0.0893158838,-0.1849063568,-0.4543651816,-0.6060757021,0.6428689467,-0.0580571155,0.7641627291,-0.7180051326,-1.3025762272,-1.190524632,-0.7946498018,0.5634400322,0.3954267543,-0.837425575,-0.0669145158,1.5736353282,-0.0151220273,-3.468673023,0.5453601659,-0.3339435368,-1.08805822,-0.1430437575,1.0807647296,0.4689248485,0.1215328181,-0.7085444072,-0.5580168085,0.296539093,-0.8581108581,-0.9828923494,-0.8267309951,0.4024190093,-1.0633993976,1.2685900386,0.8957994174,-0.1097969605,-0.1969082118,0.1485697848,-0.7175606765,-0.336018246,0.265363422,-0.4971482559,0.2619171367,-0.139211746,-0.2656185908,0.0818016297,-1.0297656125,0.6071590266,0.7531452294,0.6321154571,-1.1029227317,0.3466950331,0.8525732935,-0.3853124415,0.1204633545,0.5646199535,-0.7409326489,0.8638828628,0.8491718276,0.0183800206,0.3430033567,0.4618750166,-0.2434756825,-0.2883471857,0.6080220555,-0.817580181,0.570642494,0.4038370822,-0.8623581777,-0.7382296986,0.9635257919,0.1053040449,0.5976585292,-0.345477485,0.6802331515,0.0780228492,1.1748544834,0.0542342784,0.0212056448,-0.9799188929,0.7790918758,-1.5957048365,0.1793607291,-0.438352245,-1.1969680752,-0.2527760879,0.3202455458,0.062716206,-1.0025178854,-0.327417403,0.9202844675,0.0639970782,-0.5958104257,-0.6890323895,-0.8050298079,-0.7798733241,0.3534068706,0.1874002473,-0.7137165796,0.8605584595,-0.4583450661,0.4417746741,-0.2958982219,-0.8665631937,0.0823273903,-0.5264591867,-0.3728622474,-0.4076896518,0.9490103251,1.1335135676,-0.9549648391,-0.2741675316,0.2601951135,0.4839091766,-0.1550550969,0.587704689,0.76749148,-0.121309952,-1.5473053744,0.0686831544,-1.2861111963,-0.199787639,-0.8192052992,0.3428995177,0.2602067507,-0.3861011377,-0.4793718748,-0.7352064896,-0.4456296041,-0.583497001,0.4125387064,-0.2814480815,-0.2167412382,-0.1451728849,1.6869540439,0.9806916809,0.6494130632,-1.1357480438,-0.8602738015,-0.4386780752,0.6841848647,0.9937504625,-0.6944380073,-0.6386296752,-0.0786921374,0.676587016,0.2673153437,0.2211997549,0.4464279938,-0.6589181304,0.1720905012,0.7651856618,0.5768179822,1.024422129,0.7360747595,0.8767522436,-0.0120551386,-1.005196261,-0.3909257854,-0.3285429625,0.7671928413,0.9303021009,0.4020821411,0.3601832844,-1.4804638201,-0.3601371714,0.0262634336,0.1375326809,-0.2023281283,-0.7820216177,0.1124078554,-0.6380753295,0.794336429,-0.4850304007,-0.8869945391,-0.3944958751,-1.2321321717,-1.1799213519,0.077019707,0.3234524351,0.3620122269,-2.0058604162,-0.0042095775,-0.3106630837,0.4454383656,-1.1224584581,0.2873270751,0.5342987307,0.8843702219,0.2330508409,0.2640818075,-0.8708307199,0.8811580397,0.3893921618,1.0280427536,-0.016054564,-1.0369812654,0.3431857337,0.1986518624,0.1315814864,-0.9786133141,0.1762473381,0.7324830148,-0.7028854663,-0.6727411521,1.2740784105,0.0442915889,-0.987730134,-0.5674072226,0.7213109855,0.6547767233,0.6188275295,-0.3231997215,0.3118188934,0.5041573215,-0.1642453954,-0.8670022536,0.6469571938,0.7095930992,0.3968670676,0.1900644099,-0.6353613142,0.6330097352,-0.8286288111,-0.9980351857,-0.457555486,0.9987485101,0.3588314687,0.4475075614,0.5133475442,-0.1612852262,0.0842821214,-0.4493129966,-0.5684987059,-1.0187939965,0.7178058283,-0.8748712719,-0.1234340512,-0.777499028,-0.1578552362,0.8892763007,0.2337174918,1.5017972106,0.3825070021,-0.9586749288,-1.3708502047,-0.5393502898,0.5239162154,0.3895123537,0.3770777298,0.1424909358,0.1773058436,-0.459994538,0.1333323627,-0.1656820345,0.426879326,0.0028079328,0.7045684138,1.531956301,0.2578685385,-0.5998145805,0.341494195,2.5646722457,-0.5725820477,-0.5785369003,-0.2690267761,1.0775771484,-1.1986126752,-0.2838853017,0.0411961276,0.0178234663,-0.4670995874,1.3153254493,0.0862708961,-0.0123874625,1.0407036179,-0.9012020681,1.011273758,1.3696687619,0.1116628772,1.0313452569,0.0503916358,-1.0361608861,-0.1429611467,-0.263133121,0.7233914707,0.1170889786,-0.2044153843,-0.0972993463,1.0333124189,0.3674188292,0.0413296686,-0.0577361001,0.6852277101,1.6193278115,-0.616967,-0.5155717016,0.7840706074,0.0062952706,0.2215749175,0.3658263989,0.6946252938,-0.5798397289,1.1514644162,-0.3214975008,-0.5668731378,-0.3543519957,0.252547968,-1.4460342913,0.7120423711,0.6070845783,0.0458194212,-0.5917541329,0.4709404114,-0.3019378342,-0.6320876533,0.5486069639,0.1667084329,-0.1152926543,0.0045661997,1.0314327625,0.3621402943,0.3021290315,-0.1043441353,-0.2609089364,-0.8761882798,0.2089939097,0.3071854463,-0.5203805392,-0.5798144266,0.3257787302,0.2572707533,0.0431368623,-0.1959009272,-1.1424389806,0.131162286,0.5468074742,-0.001147694,0.4406852243,-0.4704812306,-0.164320402,-0.1579977953,0.4515025284,0.423900867,-0.0082046676,0.8214243284,0.1917146515,0.5036568132,-0.0570420061,-0.9071559404,1.2316758173,0.177440679,-0.3802878412,0.7061052983,0.4677891326,0.4065456862,-0.5636615945,0.2064934301,-0.5238076776,-0.2611416553,0.0112867506,-1.764845617,0.5182939506,-0.0677221821,0.3880079626,0.1317825881,0.581993191,1.052314309,-0.2354370393,0.203467527,-0.7444598393,0.41562479,1.3845479383,-0.7188586623,0.7960345634,0.7725436766,0.3171383203,0.3032626258,0.9921666664,-0.9422501054,-0.3702744779,-0.871963533,-1.0902272622,-0.2930700769,-0.9238638646,0.1765263822,-0.3943585421,0.450339276,-0.5906481174,-0.5198191832,0.1286589066,-0.1793588558,-0.4573288102,-0.5917487552,0.0197050271,-0.1712253872,-0.3990918247,1.0294200296,-0.1546194783,-1.2051228851,-0.018677502,-0.5262273218,0.3695322334,0.9303613349,0.3359833919,-0.1400754767,0.3487603454,-0.9013548522,0.0758425569,-0.3962776668,-0.4212786964,-0.8174090125,1.1081265545,-0.9808795528,1.0881598275,-0.3344165234,0.8318322178,0.6776181445,-0.1386000317,0.0969938264,0.201842605,-1.2028820283,-0.5091983305,-0.187026576,-0.6341072798,-0.0901981948,-0.359911475,0.553650374,0.5047853829,-0.3006121423,-0.7598462987,-1.0625988979,0.1071264281,-0.3154844697,-0.5053009188,-0.3030215585,-0.8987817158,-0.2512647123,0.8953537984,-0.8837172954,0.6659064594,0.8744813076,-0.4785771483,-1.0887183883,0.1996155534,0.8335273634,-0.7080228403,0.9821163074,-0.0524687851,0.6113584193,0.7095167083,0.0576465394,0.9112263687,-0.8839089143,0.9224326032,-0.2378607658,-0.6282434648,0.7115742315,-0.0530266153,0.1176859876,0.5049845689,-1.319983815,0.8504336075,0.4071063738,0.2745330234,-0.1915456066,0.2893920456,-0.3444063069,0.2180035775,-0.6517914396,0.8894316963,0.0866178109,-0.3351804371,-0.9634641606,0.5635592064,-0.0478115912,0.1432982966,0.9933781125,-0.774742981,0.1396582978,-0.9940959071,-0.4050217637,1.0568392792,-0.1624909972,-0.1253915877,0.5741424293,-0.4508658828,1.3089865753,-0.7357693152,0.8886021298,0.9757876143,0.8154990499,-1.1494403155,-0.390052439,-0.406980983,0.3070127928,0.3167521469,0.2177832722,-0.3114496395,-0.5105259417,0.5708794564,-0.0492451977,0.7064980675,-0.3487353061,0.35519845,-0.3473497491,-0.5177622889,-0.6700254509,-0.69232828,-0.0032733524,-0.5063630304,1.3229967536,0.2343221651,-0.2571064032,1.2591527677,0.2979428628,0.0058269423,0.8114018149,-0.3629674264,0.7920597546,-0.6981774145,0.3302498626,-1.0779578986,0.4020859065,0.5532409276,0.2292668765,1.0272251257,0.0956861574,-0.6937889721,0.6300220261,-0.3094304961,0.6478415631,-0.5374590424,0.825005807,-0.1463617636,-0.537245619,0.3092458491,0.1434909985,0.2117160659
   -0.8194708196,-0.3796660937,-0.5256940293,-0.0178630446,-0.3361103131,0.5962932148,0.1804943742,-0.9680210364,-0.7823896353,1.0464222577,0.5021461446,-0.0217741611,-0.3276534044,-1.396065318,-0.466367711,0.8235919698,0.082365922,0.2951158017,-0.389321939,0.6048806073,-1.8276380148,0.8204172529,-0.620121293,0.4297922612,0.6076893592,0.5519090315,0.0474956839,0.2332579978,-0.5833441412,0.3760598639,-0.0037532078,0.0578687032,0.7228527287,-1.2076585441,0.4192032387,-0.1778355595,0.0217067986,1.2369755077,1.3690486804,-0.0479941804,-1.0511343365,0.2495753586,-0.1509703467,-0.6290445044,0.0593528956,0.6163480732,0.5398001925,0.5433997273,-0.8925397659,-0.1956710697,-0.953929349,-0.5411551654,-1.1344275501,-0.5659534468,0.5662078932,-0.7945519202,-0.396215618,-0.1895408643,-0.1211975233,0.2601568476,0.2837171275,0.5776701472,-0.3813770351,0.3107361925,-0.6877546959,-0.2238451876,0.6650005823,-0.1231164025,-1.1596999675,0.879605407,-0.67954323,-0.8474357036,0.6093369058,-0.8498984011,-0.5730928201,-0.6399941071,-1.3074066946,-0.467522456,-0.0340941181,0.3059011146,1.1986497813,0.2226181339,0.7022848033,-0.5765640568,-0.9431282094,1.3135843138,0.1649398239,-0.0865887832,-0.7018792655,-0.6135120234,-0.793003497,0.4423055551,-0.845097722,0.2380301539,-0.1780977531,-1.2295923656,0.9346877131,1.1814911741,0.0659035513,0.4730926935,0.853752602,0.8521696266,0.515477191,0.6518934731,-0.4826691732,-0.895490579,-1.0969611813,0.0848133439,-0.4844068674,-0.8740434477,-0.0772892707,-0.3336084051,1.2685859963,0.5112405744,0.5865464271,0.5562897093,0.824655901,-1.0697668252,0.7445198449,-0.4833676617,0.8731293199,0.6841339498,-1.1390836719,-0.563663987,-0.5204455081,-0.789821696,0.0098713813,0.4088808697,-0.6005964578,-0.821672668,-0.5610451189,-0.0820619147,-1.4006815532,-0.7467163798,0.4479714572,-0.912164784,0.4544836419,0.0969916202,-0.2968250548,0.2696611624,-1.1174227584,-0.2594322722,0.66204076,-1.3505851302,-0.3423051936,0.365648295,-0.7354325749,-0.0519077425,0.6196719084,-0.2869173562,-0.1457710084,0.7529124327,-0.2918093769,0.0171800267,-0.846962197,-0.5140856875,-1.2049453211,0.1121741402,0.8842081471,0.8409424639,1.0389850477,0.292372402,0.6109257504,-0.8065358485,0.5524252184,-0.0318686651,-0.2381368082,1.3634634101,0.6822805145,-0.3509877154,0.5200724826,-0.7699513688,-0.5585389371,-1.3185705521,0.4397518554,1.1034753984,0.521451889,-0.2558514743,1.1314748807,-0.776971906,0.4325695933,-1.4137561101,-0.5435449495,-1.9915951669,0.1063638075,0.8585388031,-0.5656898435,-1.3503282881,-1.3516539507,1.1956932866,-0.0159992967,-0.2405715626,0.8235559263,-0.8337593505,0.6826493174,0.3254712203,-1.7456171973,-0.0610759559,0.395990811,0.2995533432,0.7973063235,0.2621954615,1.2085140769,-0.7934047718,-0.1543401712,0.5237233575,3.0500726448,-0.1816095141,0.6090407163,0.1551248451,0.3413828045,-0.1986072862,1.1470673721,0.6905685407,1.0491066934,-0.7353865377,0.3129905744,-0.102831601,-0.9175919834,0.1890080033,-0.1571534895,-0.8176157049,0.8315935551,0.0113467252,0.4467902136,0.5924630589,0.6494943502,-0.0215446358,0.8922015023,0.1093493197,0.2565010879,0.2959355133,1.3996953861,0.6227649887,1.0901918297,0.5615173667,-0.1584845514,0.0276165084,-0.4780340431,-0.9490190436,1.3157864306,0.5871838362,-0.7202481987,-0.4820764384,0.1086337043,-0.889898377,-0.4032397008,0.806345971,0.5199387686,-0.4489816861,0.2378503091,-1.2876719996,0.1727215367,1.199569697,-0.6200744679,-0.1258760571,0.4509583733,0.7625962936,-0.7041757832,0.4277111473,-1.1696111424,0.4117590608,0.3154881567,0.3798791557,0.6679182623,0.8268956184,-1.2646133159,-0.0669502246,-0.8417543374,-0.7097718034,0.4834984615,1.8443473154,0.5152527635,-0.3521118274,0.2509461917,-0.7108146076,0.3917768467,-0.6939074592,-0.2158115404,0.7895187594,0.6556848098,1.5934795163,-0.7538125538,0.6040585666,0.1574847451,-0.6167546051,-0.1981273215,0.2284314571,-0.3322826153,0.986093072,-1.0791502582,0.3029914143,0.8559119176,0.4833449523,-1.2908145664,-0.0319277191,-1.000660898,-0.3764110566,-0.3511625279,0.6009751165,-0.556855733,-0.0205346533,-0.2215564654,-0.9391255001,1.2160262462,-0.8462050722,1.0077465608,-1.0164177683,0.353865499,0.4322992103,0.2812500047,1.043723958,-0.3551180622,-0.941568467,0.4464571747,0.5902809767,0.3027371414,-0.2636736366,1.2028432039,1.0699381961,-0.677805621,-0.5452743555,0.4355556615,0.492371371,-1.1257699034,-0.5575340789,-0.4958942346,-0.260574541,-0.8251127415,-0.1809352636,-0.8047745519,-0.9473185789,0.8898818726,-0.5615919941,0.5659959301,-1.0511300655,-0.6406500883,0.6830199851,0.2374180183,-0.5468755347,-0.9909205145,0.1123162991,-0.2257322807,0.4963063352,1.000661822,-1.3256971004,0.6506982711,0.0643818984,-0.6455846858,0.2407769179,0.8388200067,0.4060636195,-1.0515752365,-0.2306530408,-0.1717323115,1.001233769,0.9501725871,0.1828470227,-0.3749263179,0.0580652909,0.3592282945,1.23035847,1.0123543143,0.4063953595,0.7071013043,-0.7497434805,-0.6864182189,-0.8473209376,0.7168509956,0.6345482129,-0.1895942922,0.263172427,-0.234273485,0.5913485565,-0.2422891316,1.3563021488,0.8138913249,0.0984946851,0.3477108553,0.8014224565,-0.9375040378,1.726522535,-1.3920426117,0.9831237704,0.6918998481,-1.0154905756,0.1178491933,1.0845751314,0.0341700585,-0.9308328262,0.9840707665,-0.2952609966,-0.1231227123,0.6695195404,0.469802766,0.6106620708,0.9564336227,-0.910091947,-1.025070098,0.0830131794,-0.0245945384,-0.2118219948,-0.7097945279,-0.2065470728,0.2056474541,1.468900303,-0.0138065292,0.1428446169,-0.2545428439,-1.427024277,0.4948326261,-0.1039637562,-0.689121834,-0.5221604234,0.8657701891,0.148097492,0.1353700317,-1.0767770774,0.2128830891,0.4466726087,0.8708985494,0.4896406001,1.0883288,0.3863054132,-0.1562725188,0.8123095671,0.4021957058,-0.7517694368,-1.0321483645,-0.8315510257,0.4577803552,-1.0791100966,0.6184597115,0.100676867,0.0795104289,-0.0572462081,0.8200351634,-0.2784241866,-0.3579406905,-0.5940144674,0.2932064264,0.2678560356,0.1539964956,0.3801381746,-0.835806187,-0.322564963,0.7150480973,0.7005057571,1.1198696348,-0.6033533562,0.5283217065,-1.1321591039,-2.2341835748,-1.3747064524,1.1279767593,0.0913147004,1.0133354418,-0.2574588839,-1.4444070932,0.5303782658,0.317050513,0.608994731,0.5000523782,1.9643896649,-0.0745681632,-0.8222002192,-0.4828251818,-1.0053240602,-0.3486984086,0.5710267252,-0.137379021,-0.5219943643,-0.6259396259,-0.3611895368,-0.3836890407,0.336167281,0.4189744159,-0.6565474275,0.549687647,0.6746480729,1.1372926947,0.3286306065,-0.3743177592,3.4757483819,1.1089013076,1.0603833894,-0.0900755601,0.0701397242,0.0995497206,-0.1288664016,-0.2411848493,0.19413939,0.3630565799,0.4839515188,0.6569939028,0.9819633053,-0.1702166523,0.6995079867,1.1153479039,-0.5020872487,-0.1149642181,0.2280749274,0.8883954397,0.0988175827,0.4588573562,-0.8090155047,-0.9115889767,-0.5123129852,0.6045688796,0.2515104601,0.1244171119,-0.1366492247,-0.9129777744,-1.2169586216,-0.2913858766,0.7419877282,0.5796726762,0.9719255467,0.1772319206,0.6570263429,-0.7944830673,0.1921730597,-1.4863119328,0.5678357159,1.1440237566,0.6440881944,0.2842558434,0.3477750971,0.385871443,-0.7369877512,-0.1357489472,0.6364981887,1.7816221723,0.1679626264,-0.2968474288,-0.9391750541,-0.8315070614,-2.1255519536,-0.9266908161,-0.2839690102,-0.3423424114,-0.0904018366,0.7799721289,-0.7984638119,-0.8574765601,-1.0453654109,-0.669326982,0.408511972,0.7792202602,-0.9399492848,-0.4687740778,0.6939113556,-0.1167248513,-0.2290542497,0.6552077276,-0.045534239,0.014000981,-1.1414140636,-0.1355844731,-0.4884949346,0.717480633,1.1031415584,-0.2363297361,0.1299475824,1.5339577627,0.7907126393,1.0849273771,0.3623994245,-0.5762154632,-0.8243773426,-0.0320071194,-0.53415245,-0.3502340762,0.062460013,1.5009107379,-0.2725711989,-0.3585817526,0.2109741461,-0.5258529765,-0.1855135947,-0.8576375173,-1.2986851575,-0.3677876977,-0.3107028551,-0.4579706797,0.5394275488,-0.1377952037,-0.4941929154,-0.6982420719,0.9938136351,0.8440957937,0.8477740134,0.4549926273,-0.3006049471,0.4543924306,0.7216971845,0.9924435909,-0.1963604572,-0.2068244698,0.0722735484,0.1458278667,-0.4854008046,1.1339224635,-0.5693971213,-0.4010079706,0.0087065873,-0.0174228778,1.1344761618,0.4821717767,-0.5373781849,0.5444422475,0.9976714036,0.6266639452,-0.1763541852
##end
biasActivation=0,1,1,1,1,1,0
[BASIC:ACTIVATION]
"org.encog.engine.network.activation.ActivationLinear"
"org.encog.engine.network.activation.ActivationElliottSymmetric",1
"org.encog.engine.network.activation.ActivationElliottSymmetric",1
"org.encog.engine.network.activation.ActivationElliottSymmetric",1
"org.encog.engine.network.activation.ActivationElliottSymmetric",1
"org.encog.engine.network.activation.ActivationElliottSymmetric",1
"org.encog.engine.network.activation.ActivationLinear"
