encog,BasicNetwork,java,3.4.0,1,1492088643485
[BASIC]
[BASIC:PARAMS]
[BASIC:NETWORK]
beginTraining=0
connectionLimit=0
contextTargetOffset=0,0,0,0
contextTargetSize=0,0,0,0
endTraining=3
hasContext=f
inputCount=10
layerCounts=2,4,4,10
layerFeedCounts=2,3,3,10
layerContextCount=0,0,0,0
layerIndex=0,2,6,10
output=0,0,0,0,0,1,0,0,0,1,0,0,0,0,0,0,0,0,0,0
outputCount=2
weightIndex=0,8,20,50
weights=0.5645634259,-0.5344795191,0.932224844,0.6724493396,-0.1166475438,0.4685603889,0.0269337154,-0.5228103968,0.0503232595,-0.1007383036,0.7206184507,0.4172789831,0.6034892077,-0.1191550653,0.3760609125,0.0341936828,0.0027034513,0.7101009076,-0.4049797141,0.5651375299,-0.2778155884,-0.651102164,-0.1848664178,-0.6035124757,0.9994855407,0.5579015363,-0.6126952419,0.4525695803,-0.8193960905,0.4563352151,-0.2052949438,0.0821224571,-0.6979078449,-0.7195596182,0.685006873,-0.6864746714,0.8874446426,-0.6207376973,-0.5866361612,-0.8556584432,0.1340119526,0.519501296,-0.5381066279,-0.4368350592,-0.6939435181,0.3874077177,-0.2529958033,0.1971224785,-0.9117960699,-0.7019198446
biasActivation=0,1,1,0
[BASIC:ACTIVATION]
"org.encog.engine.network.activation.ActivationLinear"
"org.encog.engine.network.activation.ActivationElliottSymmetric",1
"org.encog.engine.network.activation.ActivationElliottSymmetric",1
"org.encog.engine.network.activation.ActivationLinear"
