encog,BasicNetwork,java,3.4.0,1,1490652441908
[BASIC]
[BASIC:PARAMS]
[BASIC:NETWORK]
beginTraining=0
connectionLimit=0
contextTargetOffset=0,0,0,0,0,0,0,0,0,0,0,0,0,0,0
contextTargetSize=0,0,0,0,0,0,0,0,0,0,0,0,0,0,0
endTraining=14
hasContext=f
inputCount=10
layerCounts=2,4,4,4,4,4,4,4,4,4,4,8,5,4,11
layerFeedCounts=1,3,3,3,3,3,3,3,3,3,3,7,4,3,10
layerContextCount=0,0,0,0,0,0,0,0,0,0,0,0,0,0,0
layerIndex=0,2,6,10,14,18,22,26,30,34,38,42,50,55,59
output=0,1,0,0,0,1,0,0,0,1,0,0,0,1,0,0,0,1,0,0,0,1,0,0,0,1,0,0,0,1,0,0,0,1,0,0,0,1,0,0,0,1,0,0,0,0,0,0,0,1,0,0,0,0,1,0,0,0,1,0,0,0,0,0,0,0,0,0,0,1
outputCount=1
weightIndex=0,4,16,28,40,52,64,76,88,100,112,136,171,187,220
weights=0.8300918161,0.3317943307,0.6020025182,-0.8078972587,0.696431865,0.5171621361,0.1568610129,0.0347834124,0.9768712929,0.3315028055,0.7569730987,-0.2738108807,0.4527292571,0.8909486108,0.1392516004,-0.1366969904,0.6821493153,0.2231508407,0.4789886225,0.4749343442,0.4866184765,0.5828387829,0.8716797781,0.957126866,0.8958820645,0.0036149739,0.7712001231,0.2504113984,0.7624194776,0.5281988013,0.7224559915,-0.1330807277,0.8039520618,0.7576949579,0.2231713607,-0.940464908,0.8841435485,0.3955646961,0.3506729585,0.4545681578,0.3614204309,0.7822543832,0.9636401945,0.053237309,0.5740086375,0.7789311298,0.4827696183,-0.8986371075,0.3722671202,0.2130561099,0.2323815723,0.461021724,0.8582119755,0.7281545681,0.212138796,-0.9388629831,0.5061121925,0.0033618221,0.6921967521,-0.5082665165,0.4309751361,0.1584070146,0.1395205971,-0.5149964631,0.4368417775,0.7012404778,0.8260055097,-0.9472057164,0.6824923098,0.5779148151,0.7970422563,0.4129042363,0.8332921958,0.1373275442,0.7368476919,0.0044357323,0.8762778049,0.6165271946,0.2039821104,0.6954134031,0.3171726145,0.6160114935,0.8938184156,0.4348723935,0.6990356491,0.0450932554,0.9194876798,0.7270661894,0.3864235271,0.7579357124,0.8288854812,-0.7379388437,0.1717494402,0.0895819224,0.9765644851,-0.7864698134,0.71496814,0.8879258635,0.9592456081,0.7883955583,0.9762293403,0.7665245241,0.7292338455,-0.8277792023,0.8688223741,0.456031188,0.869311588,0.2816526228,0.783014812,0.7913274635,0.6315243804,-0.6523217227,0.6498705304,0.6940988722,0.7598760407,0.5048087164,0.1843959561,0.8157097048,0.7910541766,0.6213610233,0.5246934379,0.283699836,0.0702435377,0.1263994496,0.6764256178,0.7301678206,0.7425531766,-0.625960463,0.1171294943,0.0799160078,0.0920865034,0.1594717044,0.3168291964,0.1092028899,0.1389342175,0.3331717136,0.4585154366,0.4765256927,0.6838081881,0.1006251502,-0.8590642737,0.4680666153,0.7567646805,0.7908098765,0.5914557459,0.3047893572,0.6539384044,0.7078163741,1.1329432535,0.134169536,-0.5374537412,0.8329623868,1.0825376386,0.1019730349,0.2068491152,-0.1685673177,0.4409044026,0.4324115721,1.0464682517,0.8546841144,-0.6950693401,0.7831569763,0.4429701228,0.494814568,0.4956526044,-1.0636918683,0.9319974358,0.6768944935,0.1519814325,0.2766729082,0.553782152,0.8241953914,1.0571477453,0.4593071343,-0.439016391,0.6088661243,0.3370068904,0.5654746114,-1.0624736774,0.2179157345,0.7980773048,0.4566171231,-0.4360319422,0.8760854095,0.4557284253,0.8096051698,-0.6884726972,0.5833520577,0.6154735956,0.3139881099,0.2727698315,0.1547945258,0.2558443835,0.5252839064,0.0212694187,0.2701548844,0.7556694486,0.5652030852,0.1007617007,0.1982887038,0.4999402703,0.0282259097,0.0845604155,0.7753167872,0.2853049535,0.390166409,0.5318127192,0.6979181432,-0.3254985282,0.6706187733,0.6580726283,0.7242847228,0.5969549962,0.2734666267,0.1034035501,0.6891931332,0.2569226772,0.0013970794,0.4344534564,0.3061010476
biasActivation=1,1,1,1,1,1,1,1,1,1,1,1,1,1,1
[BASIC:ACTIVATION]
"org.encog.engine.network.activation.ActivationSigmoid"
"org.encog.engine.network.activation.ActivationElliottSymmetric",1
"org.encog.engine.network.activation.ActivationElliottSymmetric",1
"org.encog.engine.network.activation.ActivationElliottSymmetric",1
"org.encog.engine.network.activation.ActivationElliottSymmetric",1
"org.encog.engine.network.activation.ActivationElliottSymmetric",1
"org.encog.engine.network.activation.ActivationElliottSymmetric",1
"org.encog.engine.network.activation.ActivationElliottSymmetric",1
"org.encog.engine.network.activation.ActivationElliottSymmetric",1
"org.encog.engine.network.activation.ActivationElliottSymmetric",1
"org.encog.engine.network.activation.ActivationElliottSymmetric",1
"org.encog.engine.network.activation.ActivationElliottSymmetric",1
"org.encog.engine.network.activation.ActivationElliottSymmetric",1
"org.encog.engine.network.activation.ActivationElliottSymmetric",1
"org.encog.engine.network.activation.ActivationSigmoid"
