encog,BasicNetwork,java,3.4.0,1,1492019413588
[BASIC]
[BASIC:PARAMS]
[BASIC:NETWORK]
beginTraining=0
connectionLimit=0
contextTargetOffset=0,0,0,0,0,0,0
contextTargetSize=0,0,0,0,0,0,0
endTraining=6
hasContext=f
inputCount=5
layerCounts=1,25,24,28,26,24,5
layerFeedCounts=1,24,23,27,25,23,5
layerContextCount=0,0,0,0,0,0,0
layerIndex=0,1,26,50,78,104,128
output=0,0,0,0,0,0,0,0,0,0,0,0,0,0,0,0,0,0,0,0,0,0,0,0,0,1,0,0,0,0,0,0,0,0,0,0,0,0,0,0,0,0,0,0,0,0,0,0,0,1,0,0,0,0,0,0,0,0,0,0,0,0,0,0,0,0,0,0,0,0,0,0,0,0,0,0,0,1,0,0,0,0,0,0,0,0,0,0,0,0,0,0,0,0,0,0,0,0,0,0,0,0,0,1,0,0,0,0,0,0,0,0,0,0,0,0,0,0,0,0,0,0,0,0,0,0,0,1,0,0,0,0,0
outputCount=1
weightIndex=0,25,601,1245,1947,2547,2662
weights=##0
##double#2662
   0.2275842441,-0.5418350736,-0.4717133751,-0.5803005504,-0.5699418685,0.3084014598,-0.0614381144,0.1712159344,-0.7937306172,-0.7420625382,0.2562143349,-0.2216468735,-0.0238762549,-0.2445325987,-0.7428554768,-0.0197821525,0.730325154,-0.8756446359,-0.5549939297,0.441317775,-0.2606264407,-0.91394714,0.3478253252,-0.4890789068,0.0603992933,0.2264667316,0.9154196155,0.8602621913,-0.3796807595,0.9538191836,0.5027365653,-0.2573736025,0.9458926891,0.4257302982,0.0213881191,-0.5380109952,0.6140075653,-0.9246105635,-0.7437753817,0.0545970022,-0.5232386367,-0.0440181933,0.3251221782,0.1112979173,0.6672101952,0.4628271309,-0.4915846197,-0.6645159624,0.5635047144,0.6320188373,0.1178855341,0.6805652511,0.0629919664,-0.6884840243,-0.5537325418,-0.9386500194,-0.5812672477,0.4152718061,0.7032188554,-0.0983707556,-0.6949063419,-0.7334320248,-0.4738376105,0.9297299954,0.067449099,-0.1225984753,-0.4021744349,0.2506350966,0.6606948345,0.0813884142,0.2765416302,0.1229777858,0.6760825461,-0.1505064936,-0.5442458141,0.7358513886,-0.5958845194,0.4850699361,0.5230371197,-0.3846236171,0.1203208611,-0.214456519,0.3216823784,0.9928450466,0.1584980278,-0.5484102502,0.7191397954,-0.329179318,-0.3527670761,-0.253198448,-0.322357022,0.7023531226,-0.9254110619,0.5957562432,0.9927088025,0.9100860443,0.7239722689,0.7773651553,-0.1571816597,0.186923448,-0.6782839394,0.2326648576,0.9354463621,-0.7103845237,0.978083047,0.2479093224,0.2647438975,0.960410841,-0.3521873874,0.6209316841,-0.6714923724,-0.1420309801,-0.0183722377,-0.8183703199,0.581179019,-0.9521380045,-0.3343372958,-0.5393131201,0.4204235966,0.522201083,0.300883282,-0.8390326558,0.1847453394,0.838795687,-0.2064966956,-0.6735218916,-0.8042673117,0.3077880299,-0.6989409301,-0.945277455,0.9832275773,-0.397040592,-0.3204081682,-0.7931749374,-0.2643998913,-0.4716226355,-0.3364003232,-0.6971824907,0.6562309079,-0.8124648911,-0.5383867287,0.1309346036,-0.5740714437,-0.7751932832,0.2705250482,0.0859591568,-0.5278636689,-0.4552676108,0.6226080156,-0.4846957249,-0.5982820491,0.0750239253,0.7168306663,0.9034647127,0.1356663154,0.1336812106,-0.4603558955,-0.3135778646,0.8415007145,0.2951579635,-0.2524258879,0.766702141,-0.3252690279,-0.9330084194,-0.4739075907,0.9528491703,0.8080471917,-0.6450800108,-0.6078307465,0.3535173301,-0.0911740708,-0.9585865921,-0.8059964314,0.1952343148,-0.0669768678,0.5367980609,0.7165180295,0.4132626916,-0.671843708,0.2833033966,-0.7569147961,-0.5827800176,0.966685095,0.6019952018,0.3052460894,-0.871912252,0.7232513216,-0.2145473504,-0.94226373,0.5384903903,-0.0983894225,0.2386410504,-0.2790593455,-0.0330245784,0.1824817341,0.251171598,0.418347035,0.3431538281,0.9355110314,0.8149176032,0.8980924375,-0.2701510175,0.4161816568,0.3250013803,0.6855418415,-0.4976115548,0.0552839698,0.5561226061,0.6457399696,-0.9277345723,-0.1008324688,0.2811972181,-0.6836330358,0.7046574425,0.0249846536,-0.3321342914,0.4434316224,0.7983869879,-0.2781865052,-0.9603864643,0.0012020139,-0.4024734694,0.2537995793,0.7904025796,-0.8312762529,-0.5233627047,0.7473074731,0.7074524644,0.9688883372,0.5122272998,-0.6528380587,-0.5926756832,0.5195096364,-0.5616914549,-0.244436406,0.2909032997,0.7971778788,-0.4209048542,-0.6297299572,0.2339343335,0.1716855431,-0.2546213522,-0.0165253421,-0.9831599109,0.6248434279,0.508424115,-0.8980095739,-0.1658689494,0.0826569122,-0.0313005674,0.4698672185,0.9963328541,-0.7490958648,0.8329151129,0.9482611596,-0.2243320407,0.0595129601,0.7063898587,-0.7401706758,0.0133278796,-0.8834406511,0.8070349745,0.6349482968,-0.3891788711,-0.1835283643,0.5774474087,0.2084633163,0.2254655967,0.5365770661,-0.9632359292,0.724726332,-0.1543176612,0.7104369614,0.3997958429,0.8435254656,-0.5392626309,-0.7383328221,-0.1233506219,0.7454902539,0.2826257418,0.2940225953,-0.4362347039,-0.4440189366,-0.983504602,0.15226954,0.5048523755,-0.7743713813,-0.7659124648,0.7218732099,0.4106004789,-0.7281180163,-0.1521109242,-0.8196902695,-0.5784726239,-0.7703059552,-0.4619171315,-0.5903139563,0.9751734915,-0.4775152842,-0.6524901735,-0.4884730371,0.4220168185,0.068736238,-0.8869865556,0.4986003779,-0.0689444776,-0.7679812549,0.3253064938,-0.4818812601,0.779576578,0.7271590633,-0.9896080196,-0.0701278658,0.8657912902,-0.0837603858,-0.4018525007,-0.9831320476,0.6148845184,0.7616994432,0.8517984702,0.976670564,0.8550655584,-0.0817582344,-0.3491131712,0.4481279516,-0.5794438612,0.502654936,-0.4251009379,-0.9800829869,0.6440962362,0.3538013388,0.6436136878,0.3900630165,-0.0451013663,-0.5148223191,0.0783378663,-0.0319897574,0.3529398838,-0.6931644432,0.534764823,-0.9044872042,0.3012822091,0.7845327152,0.5207058041,0.8228478923,0.6311562635,0.5820037206,0.7249982548,-0.6754979264,-0.2556567158,-0.582042956,0.6657994506,0.9846315326,-0.3376680094,0.904519742,0.3157224222,-0.941091035,-0.4558116869,-0.744417686,-0.8254956174,-0.0024123106,-0.2295746948,0.5205793564,0.0002349751,0.4814546955,-0.0996290317,0.8260750278,-0.5095314098,-0.0299157614,-0.3670984168,0.756864901,-0.4711911939,0.1395350298,0.7505859272,0.520060609,-0.632261698,-0.4734322814,0.7161951256,0.7760120462,0.5931515814,0.5632935997,0.9914577416,0.1357096565,0.2061297997,-0.574288863,0.4389661708,0.691257975,-0.1461987816,-0.5004521018,0.5097366579,-0.6418310764,-0.2753996777,0.6852827805,0.3655487091,-0.6935616981,0.26056962,-0.5586707704,-0.6182487685,0.279958244,-0.0349891519,0.1906538889,0.738008307,0.6932653795,0.9985035732,-0.3585449352,-0.7248541397,-0.8418213691,0.137872217,0.3749993164,0.8505092219,-0.8478133552,0.1553009113,0.7705441596,0.5708095591,-0.4567287797,0.6809004995,-0.5406388492,0.0249941769,-0.2737234595,0.9275131554,-0.2505745545,0.2203336422,-0.8840793786,-0.3858278052,-0.3176030155,-0.822977927,-0.9937188627,-0.6902178685,-0.5641614776,0.0145906166,0.631363227,-0.7176345989,0.4179726829,0.7043135377,-0.9387177233,0.5260606878,-0.4422282124,-0.2984731309,-0.4819754072,-0.6199304176,-0.2270829452,0.5651795966,0.544183437,0.1754843017,0.8734099382,0.3445223618,0.1826123442,-0.8520184346,-0.873421428,-0.9420753589,-0.2506416708,-0.6571453011,-0.1592641898,0.2804254263,-0.328032971,-0.5071403326,-0.1634405365,0.4163578905,0.5862473027,-0.946660832,0.8901997042,-0.9472511073,0.0954407646,-0.9180423394,-0.6024323743,0.9050196295,-0.7344925444,-0.7880000537,-0.5199246486,0.0881702396,-0.6732835607,0.5855047067,0.5693645775,-0.0540934511,0.121577185,-0.0913352006,-0.7838857073,-0.110316981,0.319781478,0.6785110261,0.6947745258,0.0981478953,-0.6588679149,-0.5449270932,-0.0395565346,-0.5085391188,0.8305383151,0.561467477,-0.7238542849,0.3590826368,0.4513532035,0.5998161173,-0.0035579327,-0.123707042,0.2342435509,0.0940140812,0.8358647382,-0.9295033795,0.6697670156,0.5190203956,0.9255419857,0.8195420881,-0.5958397268,-0.7157650154,-0.8343463026,-0.60479224,0.3308345614,0.8050944826,0.838617736,0.7895134321,0.4114001946,-0.7375867329,0.0274609414,-0.0590621709,0.6135231834,0.3417892311,0.0052347234,0.4918288116,-0.7321061632,-0.4827500438,0.2949215551,-0.4334801149,-0.7936881286,0.8793122928,-0.3656778815,-0.8383853327,-0.5713002621,0.6223063384,-0.6073825433,-0.0289265132,0.808502005,-0.367876002,0.7362359096,0.3087308684,0.4801164375,-0.9671473624,0.0638095334,-0.6938108299,0.7142934708,-0.7913648683,0.3912915917,-0.3222115887,0.5263787943,-0.1071429016,0.4891935066,0.4778759347,0.5293204901,-0.5323191863,0.0225866889,-0.0865214921,0.6688894215,-0.065874107,0.5196183108,0.7105837304,0.9895003899,-0.988461436,-0.1068160329,0.3507047263,-0.1225640358,0.083837289,0.5987987128,0.0054934032,-0.4326102275,0.6765144492,-0.0734124867,0.0770095946,-0.9507437244,-0.7959542896,-0.18162123,-0.0349763939,0.6986460196,0.8469581745,0.8113994303,0.6717802863,0.3122225852,0.8890199757,0.8312604387,0.0869962544,-0.2819913259,0.3913755037,-0.6981696249,0.105604445,-0.4884407007,0.8696540458,0.3729223627,0.4159921614,0.3644885498,0.6406662513,-0.3874904791,-0.0017142742,0.0620614245,0.5186206057,-0.6224189092,0.1375993194,-0.9781362206,-0.7407492194,0.098611205,0.8660443844,0.8114154489,-0.699555797,0.3399755189,0.0999633527,-0.2042567278,-0.583677435,-0.4438216289,-0.0448320614,-0.9742918821,-0.9287737465,0.5134437292,0.0787530913,0.1240028188,-0.556632205,-0.0748356072,0.8758124847,-0.0208611626,0.6677793101,0.65449376,0.8609278603,0.400591803,-0.0896777462,-0.8808866437,0.4523945771,0.9141695035,0.8370744171,0.3107999814,0.9005834596,0.1323515467,-0.1710623182,0.5011628747,0.418345821,0.4275590491,-0.4352967674,0.5248063495,0.5979230314,-0.9716701906,0.5299999615,-0.8281271229,0.3391397321,-0.4223604792,0.1640807765,0.3307545476,-0.2877493723,-0.7941646744,0.515096343,0.9605692071,0.514417934,0.8365726848,-0.16951681,-0.2351037269,0.7080157843,-0.2436636762,-0.587306841,0.086577609,0.3334748417,-0.9660574233,0.0605470917,0.7324994047,0.8375504297,-0.8934894956,0.1207729921,0.9356307823,0.1665926931,-0.0833204403,-0.0434375656,-0.9517144658,-0.3929420455,-0.6437221807,0.0828222875,0.0479381767,0.0194726007,0.1691466746,0.1065279921,0.6134590353,-0.8228630819,0.9291239856,0.092252333,0.5823000252,-0.7762843413,-0.0269935409,0.5675157097,0.3502629798,0.6117337145,0.3981742179,0.4538097814,-0.1937764989,-0.3128915033,-0.4938157221,-0.3533271916,0.236578702,0.9643645648,-0.479818858,0.3327736892,0.1385994447,0.705891632,0.8596182226,0.1607347106,0.1985964897,-0.3364029061,0.4438825168,-0.916970976,0.0612579423,-0.6465041563,-0.8451568093,0.5793464163,0.3614078076,-0.7738313152,-0.4738444067,-0.9583400134,-0.1076967631,-0.5230758113,-0.2009510102,-0.6489311537,0.0548554996,-0.7330113201,0.1639411681,0.1171764341,0.9313210566,0.6658630286,0.7589134999,-0.96347222,-0.1005518192,0.4698518042,-0.5917732563,0.9403635133,-0.3310107696,0.2011148996,0.075051411,0.5058562228,0.4717411984,0.0717679681,-0.7088007165,0.4911874301,-0.5812149324,0.2124214933,-0.9420737217,-0.5868355973,-0.9182809742,-0.5319081434,0.787478825,-0.5035445102,0.4211723716,0.1084470701,0.5191846169,0.4038788908,0.2559922424,-0.0896509728,-0.1700712639,0.8576002073,-0.8281552523,-0.9127062337,0.1195714993,0.4956191146,0.7431005709,-0.1408511932,0.6370397959,-0.5246209811,0.4606902039,0.5596754739,0.4023162165,0.8382398834,0.176613074,-0.1196740818,0.5652515963,0.7733506978,0.3049473744,-0.9697006539,-0.072542007,0.1939400242,-0.8438136662,-0.2123238832,0.017795634,-0.2831722627,-0.9316701118,0.8287871872,0.6272381552,0.2438152183,-0.7761706512,0.0771971617,-0.009714135,-0.6784193282,-0.1289907465,0.8408515414,0.1164147201,0.059218427,0.8907872098,-0.1639958832,0.7526331613,0.0802535218,-0.0364102054,0.6433024348,-0.8853567207,-0.7787570467,0.0705934773,-0.7312411947,0.9879950555,-0.0654397665,0.7217338936,0.2943474941,0.6742367833,-0.3641676189,-0.6660857781,-0.16136392,-0.6362791798,-0.1920303963,-0.6051479787,-0.5194022837,0.9378918738,-0.8726680748,-0.0542355699,0.350631897,-0.5623428287,0.5656314317,0.5641428401,-0.1585650798,-0.9126212472,0.7927068995,0.0891662649,-0.63444538,-0.3812984907,-0.9730794409,0.8369075301,-0.6428437937,0.7604897858,-0.6483905841,-0.9468111289,0.6141383664,-0.7528619018,-0.5419305739,0.50634942,0.5102379644,0.8000202721,0.7937662013,0.8024230778,-0.9177174463,-0.4939776657,0.1892526855,-0.9984843441,-0.9648203042,0.565375284,-0.8460162231,-0.6867184584,0.0078303595,0.2250706269,0.2023183042,-0.4959086621,-0.0276672901,0.8415419983,0.0784820882,-0.1582402058,0.8063830132,-0.3838004557,0.5109442363,-0.6228543093,-0.4838731001,-0.8840148448,-0.70439809,-0.1799112864,0.6235111293,-0.7214783611,-0.9132817537,-0.4707343403,0.4883059913,0.2831720493,0.4068191432,-0.0927093419,-0.9368790395,0.2924398999,-0.0729982503,-0.1456653284,-0.4815408411,-0.4527095958,0.8026977477,0.9688868875,0.3233743913,0.5273122625,0.2831608909,-0.298967623,0.6612650908,-0.5564972562,0.5678796283,0.4115796108,0.188613611,-0.6148865906,0.7691434858,0.6541107282,-0.312032878,0.0128732236,-0.9720846399,-0.4055756203,0.9303579296,0.911103176,-0.7130039072,0.1289480758,0.6667401828,0.061589832,0.756678997,0.3672807244,0.7699588552,0.2079611897,0.5516286857,-0.2638127219,-0.7795455118,0.4346682891,-0.9585712354,0.8098229514,0.5950358923,-0.0606258948,-0.197013403,-0.026461448,0.4879203786,-0.1734331913,0.6615041986,0.010434511,-0.4946798966,-0.8626927414,-0.303545829,-0.4825618799,0.2688068242,-0.0148687327,0.5184334828,-0.5006871745,0.1329413319,-0.1921479589,0.588800035,0.9685586824,-0.1790777223,0.1509787289,0.3663941194,0.523057973,-0.8115979201,0.5263442657,0.7366936975,-0.6145221405,0.2132066346,0.3437833171,-0.5420431983,-0.0924942636,0.5044845648,0.6527400671,0.9367449357,-0.4135651539,-0.6616079615,-0.9899275945,-0.5085612479,-0.9032887227,0.3810553828,-0.3152603139,-0.8249608857,-0.8421246954,-0.0887966464,-0.7550783922,0.6861822046,0.7396134327,-0.6194461879,0.0095264278,-0.7925627751,0.8102383319,0.8110368183,0.8281849721,0.1721138329,-0.7813894065,0.4288653981,0.3088450908,-0.4176436723,-0.9246694246,0.4244474541,0.7747248933,-0.8809282396,-0.3341491392,0.7857654886,0.8450991612,-0.0040144096,0.8252546351,0.865271556,-0.0718665654,-0.7023277487,-0.5363377601,-0.406207739,-0.3643410511,-0.1376854618,-0.154772443,0.8758715123,0.7163778912,-0.3324902934,-0.4742600487,-0.2012525721,-0.9358563784,-0.1363514069,-0.91306379,-0.346960158,0.2310276748,-0.230996431,0.8437730401,0.9163202108,0.7153692315,0.623897556,0.2599203546,0.4695348894,0.0239428494,0.5071725728,-0.5238858823,0.9995029607,-0.5063297718,-0.2477951293,-0.9390541462,-0.3243922412,0.454159631,0.3943242921,-0.3105415099,0.3507540942,0.5828565396,-0.4625750511,-0.5926411369,-0.7564200899,0.6790824034,-0.4449107801,-0.5010410063,-0.8551057588,0.6833203719,-0.7104112109,-0.5267274792,-0.0792282273,-0.3292006265,-0.2728148369,-0.3752985986,0.0698283964,-0.70376231,-0.0704845948,-0.9581068815,-0.8895133315,-0.6479316141,0.8239563974,0.871386983,-0.0442696886,-0.3860555102,0.3607425786,0.1679127459,0.8930529048,-0.1087906828,-0.2528283257,0.1539375182,0.4713790822,-0.8697389893,-0.6031015173,-0.8213411189,-0.4109200645,0.8689559223,-0.400185521,0.6492900023,0.67611245,0.8635684437,0.2652527756,-0.7387158253,-0.5313610273,0.079616163,0.4037737799,0.4586413013,0.5153608791,0.7612002644,0.8142986687,0.1124328587,-0.7443163733,-0.2929085063,-0.2416675077,0.3782955603,-0.5411225915,0.7211941999,-0.826906461,0.1199226871,0.5163718828,0.7813366087,-0.0095761684,0.8025377259,0.8882579542,-0.2200192075,-0.2730651744,0.0080406662,0.3514158213,-0.8084659633,0.3194113774,0.8827567701,-0.6768962837,0.8662894224,-0.6788638785,0.4131757292,-0.1404702555,-0.5504780888,-0.2413765824,-0.2428050644,-0.3831517517,-0.9329893672,-0.2348402807,0.1419921238,0.8261007287,-0.5402602208,-0.3953966748,0.4975005266,0.0934124035,-0.2127475531,0.701594522,-0.8231729846,-0.9034237355,-0.6990637402,-0.3850063217,-0.6938311579,-0.7634804741,-0.082101431,-0.9975821918,0.4390186213,-0.156225353,0.6548863155,-0.8682419734,-0.4778141979,0.1816483343,0.0169422883,0.2137648139,0.8642439024,0.6259083266,0.3247047031,0.9998888151,-0.264079175,0.0043141462,-0.3028012869,0.2267385297,0.1112335041,-0.0908759943,-0.7036027583,0.5512234343,-0.5166569543,-0.8484204174,0.0944533656,0.4470301465,0.0128613498,-0.6634411794,-0.1397411205,-0.6352428073,0.1279792346,0.6184083534,0.4925522046,0.2539495192,0.9169736275,-0.0806171911,-0.740581894,0.2201087431,0.6091238569,0.0564798452,0.8718984299,-0.5536413481,0.1416725132,0.6349820137,0.0097515886,0.4684797191,-0.7028589025,0.2248224458,-0.9573015215,0.0127081871,-0.4243968134,0.2652790958,-0.8127651189,0.5580059004,0.9798940472,-0.7722541137,-0.6399866111,-0.7674910471,-0.1242613743,0.1524531948,-0.8358805937,-0.5790971836,-0.122693739,0.2707193965,-0.1683692903,0.5042256993,-0.1735983976,0.3785131982,0.6382912489,0.6411362176,-0.4797434193,0.6278786412,-0.6283579017,-0.028078463,0.9809097113,0.8213864008,0.1325234978,-0.7128723073,0.7618791935,-0.4511769348,-0.0911957112,-0.6655888181,-0.7187306465,-0.0659952213,0.6524555343,-0.0643300473,-0.5206054574,-0.0543584622,-0.3424672409,0.3579417547,0.2205396584,0.2431665145,-0.1616710906,0.5964359139,0.8846658435,-0.0641435547,-0.1140441269,0.8739854432,0.7978953601,0.8954716907,0.3958609705,-0.6037717381,-0.1913237461,0.1074547083,0.3614079637,0.2288002378,-0.5202834757,0.1526816389,0.9854964088,0.835434036,0.0848665691,0.6772180544,-0.04667449,0.3315100716,-0.5169464434,0.680281407,-0.4192303004,-0.8440740492,0.1881957286,-0.1512538561,-0.6012108793,0.718054895,0.0978336747,-0.7296650124,-0.5938464885,-0.2288031096,0.866849686,0.8678187863,0.7582074866,0.3019491622,-0.4201426076,0.678753239,0.9711300139,0.5927426992,0.5341155817,0.2701132271,-0.2852635818,-0.938762508,-0.5153735757,-0.1148628557,-0.0611824684,0.3106494775,-0.7110441602,-0.0949026937,0.7429744766,0.9831067547,-0.774252199,-0.0843535377,0.6276611481,0.685627696,0.7424124611,0.2889160373,0.9692858683,-0.5662950498,0.4174374859,-0.5993031026,0.1249612195,-0.0548415404,-0.720884769,0.8757064307,0.958941192,0.9892881589,0.1749408694,0.2973587552,-0.2595679113,0.6939872261,0.86130705,0.8320210339,-0.2247334128,0.1665303751,-0.2821743803,-0.7757440303,-0.391215342,0.5243861064,0.0490000423,-0.3813407285,0.1169264538,0.2261776289,0.9277075822,-0.1850610883,0.2318993946,0.5496348271,-0.0899641121,0.5037330744,0.4616766471,0.9194289506,-0.676495951,0.8567981691,-0.484590188,0.5593957407,0.0149611491,-0.9491792183,0.3456489234,-0.5325589436,-0.5423791392,0.6452471472,0.138781122,0.6803485563,0.8134241376,-0.812540011,-0.9521401582,-0.3428745552,-0.5095688114,-0.3623337575,-0.9143996339,0.7088930301,0.5536339627,0.1507517005,-0.655051937,-0.3794503808,-0.9426280769,-0.5557424995,-0.3176039906,-0.3638511695,0.0230838049,-0.4790933956,0.162410546,0.3390799462,-0.0911892486,-0.3022314628,-0.946442774,0.7433079158,0.3376475716,0.0636466016,-0.247516771,0.1243586899,-0.339152043,0.8136098073,-0.5476669027,0.5216855701,0.8709633743,-0.3029038707,0.6372940233,-0.5912790013,-0.5525059317,-0.1543852045,0.3877956704,-0.3955828385,0.407590828,0.5242843171,-0.5041729161,0.3852993013,-0.0518027057,-0.8975852071,0.6482741175,0.7838574726,0.0417787637,-0.804119936,-0.1541998842,-0.4095696146,-0.6921820615,0.1877279388,-0.7195593351,-0.0236202549,-0.2014939244,-0.0076753184,0.8680243172,0.1656927319,-0.6744516141,-0.0270566588,-0.762614294,0.0983293359,0.5737620197,0.125769519,0.1104203226,-0.4419032933,-0.1303804331,-0.3888686335,-0.4111252487,0.7997534232,0.4697602456,0.6031533715,-0.6016877757,0.1223960348,0.2659749774,-0.6065184597,0.0491208267,-0.8217708434,-0.7076545216,-0.8226337605,0.3154837155,-0.1387694652,0.8483005316,0.3539776343,0.5725845839,-0.9081962929,0.0641099027,-0.7491531641,0.5336404988,0.6655361895,0.005414262,-0.3857968983,-0.7984991532,0.7272413544,0.7198147129,0.276604184,-0.2995387248,0.4923705024,0.3823900742,0.8686868848,-0.0283450185,0.2656198852,-0.6404686495,-0.1661368,0.5298526419,0.2105491427,0.174188711,-0.1432070249,-0.963153279,-0.5289308945,-0.8110689107,-0.9771578847,0.0656857288,-0.3779495649,0.1658021936,-0.7959129069,-0.6022799196,0.4073747927,0.0320278176,0.0309747906,-0.012269842,-0.2760561839,0.0300233018,-0.2297762805,0.1054136253,0.9396718229,-0.4737525807,0.9008101109,-0.4124101733,0.5614343699,-0.5397809834,0.028180246,-0.0263098987,0.1141289621,-0.8478713535,-0.3461314247,0.6521488745,0.1663421896,0.8838527545,0.2331760739,0.6406061463,-0.1250889812,-0.4551823515,-0.4026233958,0.8399988043,0.6499097022,-0.8973995259,0.969605593,0.317514683,-0.5638553498,-0.4207363017,-0.4580277419,0.7668838837,-0.287854692,-0.4961096998,-0.3733614857,-0.5800704454,-0.5781114737,0.4987167287,0.7385475498,-0.2736227098,0.3197413021,0.4494537556,-0.173396506,-0.2837698239,0.2309422571,-0.1480828637,0.4409225114,-0.1430541987,-0.8810401562,0.2942213143,0.8448761131,0.5938686897,-0.8750194398,0.5371089581,0.9462895776,0.1223623373,-0.4902337394,0.8960267934,-0.6649420217,0.9565938594,0.9082723481,-0.7492397786,-0.8355666335,-0.2337614032,0.421069317,-0.6845555968,0.7476533401,-0.5287048337,-0.7501536962,0.5660419785,-0.2564477903,-0.6070929028,0.9066248823,-0.9460085704,-0.9371056952,0.6506418824,0.223094335,0.4837238268,0.3402180865,-0.0121430378,-0.6089525718,-0.9368322741,-0.200011047,0.4046528932,-0.9148105448,-0.1040164521,0.2906978363,0.0355088845,0.8380862491,-0.5340678694,0.8221651228,-0.970959632,-0.7387928018,0.9902879522,0.0262929911,-0.947513255,0.1147292342,0.5277167142,0.0180655427,-0.9385018895,0.4937799643,-0.7218273768,-0.86669097,0.0666594925,0.7752820992,0.3973908485,-0.9226380035,-0.9759444072,-0.7584994389,0.592433733,-0.7666858085,-0.2649872714,-0.7582153055,0.5764831521,-0.991624348,0.5981633358,0.7917119174,0.0059956195,0.1409110282,0.6430948344,-0.3881747949,-0.539527246,0.261648062,0.1510047625,0.3794529939,0.669993332,-0.2771965908,0.0176954293,-0.7242829821,0.912641657,0.7092052294,-0.321733848,-0.8319702517,0.1436827131,0.8667332935,-0.6039584415,0.0596528969,0.7091834735,-0.6724314141,0.5102068052,0.6280843076,0.5761669006,0.1243573567,0.5877150166,-0.3856510786,-0.3172096857,0.4554361355,-0.760345941,0.561996494,-0.2073835642,-0.6936261777,-0.5459036986,0.9132382719,0.3726557249,0.7030865292,-0.219637485,0.6942030139,-0.1841104212,0.959421213,-0.0781385404,-0.8611447739,-0.8477462529,0.7244765958,-0.9661238017,0.1268676091,-0.2889845246,-0.7147592048,0.0654990417,0.3374830754,0.056631726,-0.9302598054,-0.178384323,0.9006629875,-0.0462174422,0.1800458091,-0.9251844099,-0.8578579283,-0.8700754195,0.0261200406,0.0633280661,-0.775098442,0.8915885971,-0.0699032037,0.4623079241,-0.2664395969,-0.6409236737,0.1846138903,-0.0778478564,-0.5628881098,-0.2915050118,0.3463358547,0.7269655676,-0.9665628391,0.4902206284,0.7310131135,0.3926321966,0.2042315335,0.475816609,0.5278825,0.065536048,-0.883714744,-0.0787355956,-0.9510651963,0.655832441,-0.8483892392,-0.2858237847,0.1373217707,-0.6243819577,-0.5667218748,-0.6323957801,-0.4223526041,-0.2665300506,0.4333387064,0.0063499185,-0.4378761886,0.1408431151,-0.5312911314,0.5773515909,0.5093450632,-0.8855800438,-0.6987758015,-0.4653280752,0.7239466147,0.7218043825,-0.8028984873,-0.4726523952,0.2502258626,0.9876780848,0.5156458437,0.5514955949,-0.3416471262,-0.7316673848,0.0671315012,0.6602266618,0.1338369822,0.891188129,0.0336518239,0.3926502532,-0.4525611386,-0.141255141,-0.5861917054,-0.0526002425,0.5329810913,0.7399382609,0.7596434211,0.6743138444,-0.9819227001,0.0828438286,0.2572684768,0.3274338009,-0.0191076483,-0.9884530977,0.4821096954,-0.8234433295,0.723908149,-0.4223684007,-0.8717405391,-0.9735704351,-0.7891511717,-0.7369403519,0.258475707,0.7428018751,0.4960210669,-0.6227550594,-0.0558660575,-0.5406560837,0.5913249593,-0.9897014581,-0.3851169249,0.4470331057,0.8272807019,0.1000348409,0.0880888075,-0.9347467199,0.3727641997,0.1698241618,0.9581987536,0.066567311,-0.9893852654,0.4398482337,0.2677358624,0.2076967364,-0.7500383141,-0.0708746619,0.6924890148,-0.6918014663,-0.6206377921,0.7727225705,0.3389506143,-0.8684431836,-0.6735914018,0.7488789855,0.4413745089,0.711538164,-0.8144264847,0.8825856134,0.3440951391,-0.3478121154,-0.9779742536,0.6022441442,0.9929849392,-0.3005569896,0.1267624099,-0.1831710541,0.7355627352,-0.5476055311,-0.9555005457,-0.498402486,0.9877906509,0.7556814687,0.2641945118,0.4686344946,0.0415207738,0.2948852464,-0.4181589966,-0.6567424559,-0.9703564965,0.6186868907,-0.7563577519,-0.0633340512,-0.489493548,-0.1409083962,0.7362013007,-0.0302545082,0.898798273,0.1043382521,-0.8793869288,-0.7047082047,-0.6116502898,0.7420162154,0.5518123537,0.4609147298,0.2930909358,0.3042214686,-0.272706018,0.4311233627,-0.4447101595,0.350210576,0.0467024328,0.3784177793,0.9529754186,-0.1182393847,-0.6784864205,0.331137195,0.7392764156,-0.6198382077,-0.8173001195,-0.3170417761,0.7949572892,-0.9046608407,-0.3281543017,-0.0613228724,0.7148528315,0.2260029534,0.8725904145,0.9296662051,0.005442372,0.9897897779,-0.1676722336,0.840105598,0.4155315027,0.0251198772,0.8408882569,-0.1637153642,-0.9377460111,0.8897075509,-0.268072121,0.8227547207,0.3586728536,-0.3014938051,0.0807123465,0.0448514189,0.1884349892,-0.0572734214,-0.0315169897,0.2275769601,0.8784546515,-0.67219464,-0.6247197366,0.7859346074,-0.1076727294,0.3274064471,0.2669457281,0.9610608234,-0.9447404789,0.7225616624,0.1475134992,-0.7868110578,-0.3869449957,0.219954968,-0.9835441281,0.9583877407,-0.5955356617,0.3175551012,-0.0532894929,0.4850799114,-0.2242378342,-0.7529126533,0.7236496839,0.3432084329,0.1093235057,-0.2977318003,0.7864347625,-0.1013243457,0.0486471115,-0.0446721353,-0.5954469364,-0.5563809198,-0.0786873403,0.6213953663,-0.5010225392,-0.5108124266,0.6092787302,0.2743368333,-0.5086631377,-0.6155089272,-0.8837321506,0.105382366,0.6414074742,-0.387986694,0.4302240543,-0.5009487495,-0.674022922,-0.1346687953,0.6585529034,0.307305347,-0.440169072,0.9429513284,0.0103601715,0.2347720632,-0.2284400861,-0.7895097804,0.9394878173,0.011301433,-0.3915838412,0.5356775483,0.6354214026,0.3220662062,-0.3338351145,0.5382744157,-0.643611348,-0.5300264053,-0.0555958798,-0.9445250533,0.5319550906,0.0384108979,0.8171549626,-0.0006924119,0.926891831,0.768001989,0.0249729851,-0.216813753,-0.7689940893,0.4227893537,0.8493236007,-0.9269760319,0.766577701,0.6296860462,0.5401459507,0.5532866258,0.8428639464,-0.3171867454,-0.2330684779,-0.8458709693,-0.6189912622,-0.2394119393,-0.7642962846,0.3360939622,-0.6001485421,0.547550036,-0.3028281974,-0.7397438232,-0.4675631734,-0.1688647308,-0.1772977754,-0.3907702552,-0.1460699729,-0.7454261372,-0.2416826423,0.9967595496,0.1291190842,-0.9024578851,-0.177181377,-0.8064026818,0.5238070734,0.5485168001,0.7317653919,-0.9130464568,-0.019297869,-0.7831798522,-0.2832525231,-0.5427546668,-0.1186136964,-0.51348345,0.5354640329,-0.5917136328,0.9932938031,0.5008934862,0.5927481346,0.8805675141,0.2446672387,0.0451508264,0.0397599746,-0.9212390283,-0.3042143305,-0.825165666,-0.4946995998,0.28837145,-0.217407955,0.6631923984,0.7095457029,-0.4397276623,-0.6893382987,-0.8805568979,-0.1322165719,-0.5546163097,0.0992209212,0.0186854415,-0.6651038342,-0.0660188307,0.5415377984,-0.9030256602,0.7795506194,0.9896857876,-0.7301354187,-0.3882307851,-0.2488583666,0.4379753122,-0.8220791603,0.9912904324,0.0388638399,0.6876083393,0.7501091671,0.1036505394,0.6683902287,-0.9888169943,0.7841098832,0.087869167,-0.3981996248,0.6953738091,-0.1627685353,-0.1302967324,0.5048678393,-0.7176951686,0.6704369675,0.2356638842,0.2919521034,-0.3856396066,0.1801880456,-0.4420063069,0.2106166271,-0.3340355996,0.9168170139,0.0586509309,-0.4373437971,-0.8554825806,0.7538017514,0.2022130232,0.0993684406,0.9374161125,-0.606354981,0.4921203778,-0.8641645279,-0.121135911,0.7340115539,-0.3450289972,0.0052904123,0.5388670693,-0.35783296,0.0748438653,-0.4803748952,0.6528322098,-0.1977814458,-0.3126998729,-0.9220449951,-0.0177636442,0.8077925978,0.1860308728,0.2655830697,-0.0533100578,0.0824292773,-0.2476200121,0.4917715268,-0.1738174477,0.4770641475,0.0182890235,0.41703237,0.1695561805,-0.2253161341,-0.9674993709,-0.2833698096,-0.2660871372,-0.3768276554,0.7664689348,0.0792461651,-0.2396034032,0.5880938813,0.4658322228,0.2205331923,0.4747528293,-0.669781772,0.8430410046,-0.5273167745,0.2792686126,-0.8561568186,0.3611296565,0.6674949276,0.1761762515,0.8423966457,0.1387424074,-0.4436038521,0.6239460261,-0.2129554961,0.6564728131,-0.3038157624,0.975946557,0.067953334,-0.704554619,0.0328708491,0.4181222485,0.3666971459
   -0.6392954596,-0.4727130937,-0.5277293893,-0.3013739046,-0.6877461999,0.3055498548,0.1745818742,-0.6869619964,-0.5935629985,0.8492230977,0.8181790046,-0.0088961611,-0.4702036844,-0.7634299772,-0.1088724492,0.8490578898,0.315193922,0.3383833217,0.1285718434,0.6872366873,-0.4102034332,0.4940425329,-0.331564573,0.7924175412,0.8122448792,0.8171743851,0.0944589639,-0.0367460022,-0.2864001412,-0.1950463861,-0.2653099278,-0.4074411156,-0.5481305655,-0.1583898753,0.4098285187,0.4812555093,-0.2696886714,0.6682436889,0.9668882228,-0.2642348054,-0.7858689829,0.1167922786,0.3123116533,-0.261805596,0.4101930652,-0.7877140075,0.7846193733,0.8356952569,-0.9904537659,0.1715678387,-0.888207439,-0.6494000854,-0.8822079101,-0.5582174468,0.1989689848,-0.9797436098,-0.448661218,-0.2759469443,-0.5276402717,0.1816027676,0.2191766987,0.5294235872,-0.4208336047,0.1855912725,0.7188734648,-0.5342532676,0.6596276415,-0.0734598921,-0.8871843295,0.700759407,-0.48577523,-0.3645494435,0.2566783121,-0.7741047046,-0.4932099001,-0.7049460827,-0.8311531746,-0.5674253376,-0.1030065646,0.0935221146,0.9618967317,0.6915316339,0.814396367,-0.4936659064,-0.8502455294,0.9159136834,-0.2595103137,-0.2491230433,-0.5965273779,-0.7695938422,-0.6687708666,0.4541535551,-0.672443722,0.5777754339,-0.4654997531,-0.765476308,0.9162997131,0.8307709341,0.5142834713,0.7350790999,0.491800362,0.4909693066,0.991197431,0.5859108331,-0.5275978932,-0.8695415198,-0.2242209413,0.0310787135,-0.2192708674,-0.9232069773,-0.1096352707,-0.3183679051,0.9116085063,0.4395727344,0.4640464271,0.4499571193,0.6703966642,-0.6527648252,-0.4073308559,-0.0855136617,0.7814460699,-0.1888368941,-0.7279156719,-0.924199617,-0.8277635081,-0.915054286,0.5182309752,0.4744068097,-0.4325984578,-0.930624908,-0.5092028393,-0.1910141547,-0.7699384732,-0.6377641398,0.7525624572,-0.986060784,-0.1597738781,-0.0668623798,-0.2134750548,0.1555001972,-0.9970301184,0.5368706078,-0.45764564,-0.8298686502,-0.3781993186,0.2043367654,-0.4732683148,0.0630265391,0.6600984709,-0.4439963214,-0.0976100432,0.3710625075,-0.3810378769,0.1178531067,-0.9333186674,-0.4131492171,-0.9869530011,0.0115010602,0.8370021471,0.8244064639,0.4652847977,-0.124544078,0.6464650904,-0.7297765985,0.6523634968,0.0796186245,-0.3185511282,0.7806075529,0.4291273861,-0.3728897954,0.8168658394,0.4256854604,-0.6140935675,-0.9196085521,0.3716539354,0.2694993776,0.6064172246,-0.1202083911,0.5239193479,-0.9131575808,0.9570089149,-0.8960574411,-0.5572556295,-0.9660198377,0.4157663675,0.9483348031,-0.6987684835,-0.9845428081,-0.2361289331,0.831996229,0.0650797033,-0.1400040426,0.8742404263,-0.2325613505,0.5971963174,0.3168927003,-0.6575674373,-0.2861905959,-0.204235189,0.1101767032,-0.0401892541,0.7321869815,0.9726148269,-0.7131227718,-0.1368191712,0.2200934375,0.9352218856,-0.0826770341,0.9381532363,0.0545573251,0.3589518045,-0.6384165662,0.4020394617,0.7626791807,0.5692506934,-0.7262922081,0.230636104,-0.5775112042,-0.6873427034,-0.4002813323,-0.2550312751,-0.6150750345,0.9090028351,0.0987223284,0.4722986188,0.5424746537,0.4966163694,-0.5341415254,0.9721515023,0.1411474893,0.7946942911,-0.0601424623,0.9574157829,0.8247572918,0.7876428593,0.5438693459,0.9703390702,0.1797377484,-0.6233499181,-0.6398978399,0.817115941,0.757074665,-0.4384335683,-0.5341244384,0.2659020835,-0.9373176005,-0.33878933,0.3498313554,0.6380857686,-0.0785796861,0.3882970191,-0.7864193596,0.0454687867,-0.0810304694,-0.5326783079,-0.6273760635,0.3938439575,0.1421910072,-0.8895699997,0.4985611473,-0.5475652823,0.4561090608,0.5412104267,0.9218860913,0.8530893823,0.9758018684,-0.8855453209,0.0021616954,-0.5945167124,-0.8036093034,0.3337078365,-0.0773025411,0.3345517785,-0.1675148274,0.2969491917,-0.6868646076,-0.2497766733,-0.7794188192,-0.4387491654,0.9773426794,0.6261004348,0.2562962777,-0.5587976838,-0.2675384334,-0.4540160549,0.0164381245,-0.1533650614,0.8563479371,-0.0888566153,0.642833152,-0.9329542582,-0.1650011257,-0.0295360824,-0.6716460877,-0.2553665664,0.1445152409,-0.553296018,-0.8237759366,0.2623143521,0.3001891165,-0.3582790034,0.2268302267,0.4124324146,-0.9447380001,0.7192443262,0.0078696148,0.9700538108,-0.3690726427,0.0854383694,0.1370249703,0.6532575879,-0.0867873316,-0.3529270622,-0.644876677,0.4519899247,0.8196636071,0.6070434666,-0.075441627,0.9515901723,0.6058445257,-0.9821119462,-0.2148388259,0.4110256519,0.477592041,-0.9887429434,-0.8879696085,-0.8085246538,-0.0537619106,-0.6008203223,0.5678119806,-0.8901188335,-0.7076626484,0.9181084134,-0.8481281541,0.8364820901,-0.8099293287,-0.7772020083,0.8543846679,0.2393155479,-0.6140838547,-0.3338485145,0.0309763391,-0.3636628695,0.3689953352,0.524111822,-0.8854711004,0.7169941111,0.1586118984,-0.9538986858,-0.3683910821,0.2068280067,0.7785504593,-0.8352532365,-0.4405812008,-0.4232162315,0.847093269,0.8722435871,0.4292661027,-0.7492298179,0.8352937709,0.3788027145,0.85189799,0.9354159699,0.2172348795,0.5474832747,-0.6632899805,-0.0561319789,-0.8623459376,0.6461815252,0.6952612929,0.2848042078,-0.0263269026,0.172192595,0.4698470861,0.0105811292,0.9852656488,0.3975383249,-0.2062377949,0.4223138553,0.8545224565,-0.7109489786,0.904502695,-0.8814449664,0.9491873,0.7669319889,-0.8433625756,-0.3013052771,0.8929630064,0.1053338985,-0.8432148262,0.8119427665,-0.1667019966,-0.2976970428,0.4603405996,0.302534766,0.43681713,0.4008357123,-0.6139649122,-0.885378098,-0.2037317406,0.1426734616,0.15984331,-0.1299391679,-0.0233949928,0.9481220141,0.808577423,0.1068979508,0.7672706265,-0.1556386143,-0.5854677133,0.2691146261,-0.2128283162,0.2865536092,-0.7480877034,0.1352536254,-0.213524258,-0.5566516483,-0.738307807,0.0044839691,0.6884338791,0.5801161798,0.1897045201,0.43005712,0.3373246632,0.5743653436,0.3731725671,0.4494126258,-0.8437212768,-0.9814203645,-0.5965087461,0.0472248256,-0.9918608598,0.2039722115,-0.302658973,0.8119922689,0.1823059731,0.9252701982,-0.3089227162,0.0165231495,-0.5466895926,0.1589963464,0.4020661156,0.2585359156,0.4796111346,-0.690846827,-0.4834282334,0.8823248473,0.1730878371,0.6848057948,-0.589711593,0.2872092065,-0.7872726335,-0.3698563741,-0.9326444323,0.7777179926,0.1103427004,0.778606407,-0.0916439239,-0.6407280584,0.6033665158,0.5217795478,0.8113237658,0.1541874182,-0.1279375358,-0.459297198,-0.3696471844,-0.7175542166,-0.4920244401,-0.0397692205,-0.1222728949,-0.5387501058,-0.6927220043,-0.4529466659,-0.3834297192,-0.8075146608,-0.280805199,-0.1917755791,-0.4802591775,0.389059487,0.9648607129,0.8661239447,-0.2871754735,-0.3686017592,0.8194301707,0.8518700576,0.9581254694,0.6219259999,0.450771559,0.1552809706,-0.0654710891,0.2352450707,0.37171414,0.7290488999,0.2620934388,0.7935286228,0.1980660253,-0.3874706523,0.9394353083,0.9125885289,-0.7029657191,-0.5185745285,0.1028109274,0.6071129693,-0.2945167405,0.4396636858,-0.8704458151,-0.8442408967,-0.5989372352,0.4859938796,-0.1631792798,-0.0251861786,-0.3414432247,-0.2181575143,-0.7545911853,-0.3100589566,0.2847194274,0.2490416414,0.5562742377,0.7477082598,0.5481943429,-0.6606376273,0.2291676997,-0.9293356691,0.8743497159,0.9030015547,-0.08739018,-0.6139816378,0.3540440971,0.488978163,-0.7193608312,-0.4870909472,0.0277248639,0.162139439,0.587739548,-0.1097192688,-0.3382067341,0.2421768114,-0.6910756935,-0.3705328161,-0.1374757302,-0.3630725314,-0.1887231166,0.7336300489,-0.9130964423,-0.8757246401,-0.6633998313,-0.3144232892,0.303563892,0.604955295,-0.9247377552,-0.5472470282,0.7756273748,0.1577971487,-0.5248962741,0.7611709776,0.095847761,0.087194981,-0.8577839836,-0.0426140539,-0.5432168546,0.599508713,0.6333932576,-0.1609239761,0.1231995824,0.9875667975,0.9328943301,0.9646740023,0.2115075621,-0.7764104432,-0.9900679676,0.1495047102,-0.29875789,-0.3550083262,0.204466013,0.8981307727,-0.3840819809,-0.6182242252,-0.5127215795,0.2687532079,-0.1846791383,-0.1504990609,-0.4860983543,-0.2605263677,-0.1830516295,-0.5092823949,0.6719212736,0.0304687963,0.0025890846,-0.5996947023,0.9100286003,0.6989778181,0.8416498534,0.9475231873,-0.1315790655,0.1395323506,0.3524519045,0.7998815909,-0.5956037372,-0.2536404122,-0.1773870316,0.0322153667,-0.5074333846,0.9275199931,-0.444956555,-0.5619722307,-0.1492254475,-0.5379666415,0.7342101618,0.7417564167,-0.6777601049,0.3182903275,0.8864132212,0.8634086952,-0.2924342652
##end
biasActivation=0,1,1,1,1,1,0
[BASIC:ACTIVATION]
"org.encog.engine.network.activation.ActivationLinear"
"org.encog.engine.network.activation.ActivationElliottSymmetric",1
"org.encog.engine.network.activation.ActivationElliottSymmetric",1
"org.encog.engine.network.activation.ActivationElliottSymmetric",1
"org.encog.engine.network.activation.ActivationElliottSymmetric",1
"org.encog.engine.network.activation.ActivationElliottSymmetric",1
"org.encog.engine.network.activation.ActivationLinear"
