encog,BasicNetwork,java,3.4.0,1,1492093018145
[BASIC]
[BASIC:PARAMS]
[BASIC:NETWORK]
beginTraining=0
connectionLimit=0
contextTargetOffset=0,0,0,0
contextTargetSize=0,0,0,0
endTraining=3
hasContext=f
inputCount=10
layerCounts=2,4,4,10
layerFeedCounts=2,3,3,10
layerContextCount=0,0,0,0
layerIndex=0,2,6,10
output=0,0,0,0,0,1,0,0,0,1,0,0,0,0,0,0,0,0,0,0
outputCount=2
weightIndex=0,8,20,50
weights=0.0113447306,0.8002067951,0.1897589982,-0.750408106,-0.605132587,0.1496996535,-0.6024751648,-0.1449163158,0.4054243267,-0.6420030983,0.9342890977,-0.5553919817,-0.5174573683,-0.272053404,-0.2987151062,-0.7605470811,-0.2374399556,-0.319173945,-0.3009253694,-0.1717975641,0.8967743208,-0.5582617719,-0.5338022047,-0.6048116605,0.2282933683,0.8374271361,-0.983976554,-0.1510762199,-0.548940488,0.2880219057,0.4860802846,-0.4335838426,-0.7515210498,-0.904055587,0.358999343,-0.0276936432,0.7244358315,-0.2463447259,-0.6763193388,-0.1873887908,0.3889938106,0.0185548508,-0.1487996608,-0.1658256571,-0.3270288342,0.1411417881,0.5331693674,0.0596488099,-0.2209770705,-0.4150455968
biasActivation=0,1,1,0
[BASIC:ACTIVATION]
"org.encog.engine.network.activation.ActivationLinear"
"org.encog.engine.network.activation.ActivationElliottSymmetric",1
"org.encog.engine.network.activation.ActivationElliottSymmetric",1
"org.encog.engine.network.activation.ActivationLinear"
