encog,BasicNetwork,java,3.4.0,1,1492087122307
[BASIC]
[BASIC:PARAMS]
[BASIC:NETWORK]
beginTraining=0
connectionLimit=0
contextTargetOffset=0,0,0,0
contextTargetSize=0,0,0,0
endTraining=3
hasContext=f
inputCount=10
layerCounts=2,4,4,10
layerFeedCounts=2,3,3,10
layerContextCount=0,0,0,0
layerIndex=0,2,6,10
output=0,0,0,0,0,1,0,0,0,1,0,0,0,0,0,0,0,0,0,0
outputCount=2
weightIndex=0,8,20,50
weights=0.9224003782,0.7927201198,-0.2052659984,-0.6520532894,0.0643286831,-0.3903093668,0.7500951039,-0.995727323,-0.3984213921,0.7338704761,0.2069287218,-0.6959304252,0.5254531182,-0.0364666658,0.0869737472,0.7911075548,-0.2189931407,0.4602193885,0.3385219138,0.6457940298,-0.2876701586,0.3608844242,0.3682356029,0.1975495004,-0.8394509664,-0.2039615971,-0.6779512192,-0.2247859838,0.77347234,-0.1998417745,0.1056940004,-0.8641089351,0.9981515445,-0.3301454178,-0.5843153459,-0.9544076469,-0.0983537554,0.6897150699,0.3276874867,0.9594338617,-0.2985041474,-0.2545680656,0.7583316952,0.2565874302,-0.8942680763,0.2399331882,0.0701480046,-0.1949206575,0.369083061,0.6631194064
biasActivation=0,1,1,0
[BASIC:ACTIVATION]
"org.encog.engine.network.activation.ActivationLinear"
"org.encog.engine.network.activation.ActivationElliottSymmetric",1
"org.encog.engine.network.activation.ActivationElliottSymmetric",1
"org.encog.engine.network.activation.ActivationLinear"
