encog,BasicNetwork,java,3.4.0,1,1499389647161
[BASIC]
[BASIC:PARAMS]
[BASIC:NETWORK]
beginTraining=0
connectionLimit=0
contextTargetOffset=0,0,0,0,0,0
contextTargetSize=0,0,0,0,0,0
endTraining=5
hasContext=f
inputCount=5
layerCounts=1,24,34,24,14,5
layerFeedCounts=1,23,33,23,13,5
layerContextCount=0,0,0,0,0,0
layerIndex=0,1,25,59,83,97
output=-0.2972882222,-0.2631655589,0.7143140124,-0.5156287465,0.5685471281,0.680087559,-0.7986891801,-0.7610723317,0.6650008979,0.7527531262,0.7343655477,-0.7104766449,-0.7667034845,-0.6831606888,-0.7804338443,-0.2580495916,-0.8297104319,-0.7657295157,-0.6577220012,-0.0685701599,0.6885988484,-0.8194916339,0.6764232471,0.2556536195,1,-0.9680193417,-0.9983716142,0.990982806,0.652739054,-0.9619878166,-0.8039710473,-0.8313064632,0.9873120648,-0.9022845294,0.8437024023,0.8500005051,-0.8448353825,0.7785619961,0.9762521347,-0.9843548651,0.9992028062,0.4140145218,0.781952255,0.9736072015,0.998757474,0.5386529964,-0.908821696,-0.88547229,-0.983908656,-0.4846121007,-0.9303456538,0.6122856614,0.997222217,-0.9800546576,-0.9857384048,-0.8134768968,-0.8208658878,-0.8945545747,1,0.7016305914,0.9945977862,-0.9011123083,-0.8787890807,0.7584899971,0.6732371803,0.3252027066,0.6926504884,-0.8997746491,-0.6786400272,0.4485355607,0.8022618203,-0.4269806174,-0.9735632916,0.8417212255,-0.9126016201,-0.7125241853,-0.4773972851,0.6742172441,0.9311244596,0.9759796903,-0.8648589584,0.6457699877,1,0.2950798958,0.5049656159,-0.1924971802,0.2679336876,0.4183055548,-0.2386695909,-0.3708563075,0.4640402837,0.329711469,0.3585511792,-0.0156433167,-0.3416370559,-0.263327399,1,-0.3659860771,-0.3947235508,-0.2627490414,-0.3547643185,-0.2565841657
outputCount=1
weightIndex=0,24,806,1598,1920,1985
weights=-0.1592105665,-0.1041633332,-0.1550504861,0.1440559469,-0.3441835462,0.0540668121,-0.0520657048,-0.1492927058,0.0974211299,0.1379968268,-0.0449826457,-0.186537718,0.1687713525,-0.0222109217,0.0624524205,-0.2282803912,0.1024102838,-0.0712277271,0.1130188496,0.0869024002,0.1860768766,-0.137263331,0.0970317758,0.2240351333,0.8915586906,-0.2978117293,1.0849668363,-0.8986957255,1.089248423,1.1903436669,1.0334436276,-1.9082121174,0.5073995004,0.235069239,0.1734798802,1.2403921664,1.7865203058,1.1659227118,1.4771579215,-1.8101574813,-0.7215139384,0.6343318632,0.3760682886,1.4057028726,1.0909316394,-1.4225148822,-1.1022109951,-0.3242803231,0.8199139037,-0.7766168247,1.0894259626,1.3113247658,-0.3680106715,1.5464894077,-0.0432288668,-1.0273427361,0.5855451067,1.7191211648,1.6312947227,-1.6813119344,2.5959770658,1.3260219026,0.6463090148,-0.3854848448,0.0616579321,-1.4838734233,-1.2540295883,0.345408428,0.3263158769,1.7344955338,0.5671434976,1.625754975,-0.6359258092,0.1238410127,0.1702701371,0.4048994259,-1.6766966923,1.5326482252,0.9538308491,-0.8864704656,-1.5768616315,-1.3443112603,-0.4428941653,0.7838754005,0.8956031608,1.1277769537,-0.4213926752,0.9957046204,-0.9422058015,0.5070009895,-0.7929355128,0.9952639264,0.2677937571,0.5510390675,3.2011474468,-0.4445546399,1.7336165351,-1.1920992068,0.1231120427,-1.4120465274,-0.1611553865,0.0516235904,-0.6416214768,0.5006261661,0.3263003646,0.3754087838,-0.4827453685,-0.0297034121,0.0579968752,0.0140280328,-0.2315578183,0.2089439813,0.8984921159,-2.3133943617,0.050826672,-2.3039958811,0.5070894263,1.9333145848,0.3030463571,3.6018444014,-0.5092528254,-0.9913065603,0.1796843094,-0.7384834511,1.2310669425,1.7129915189,-0.8330994193,0.5428950366,-1.6087200633,1.6626774559,-0.6410920737,-1.2247178027,0.629565968,0.2577548678,-1.1453016179,-0.0324432195,-0.7532053611,-0.6495029758,-0.9861044514,-0.3588787274,-0.9432696515,0.1194714543,0.7409936896,-1.1237049228,-1.9616097789,-0.7555380247,-1.1712637085,1.2997642412,2.3086098743,0.1382691138,0.7686851598,-0.3959216167,-0.0089763864,-0.8383600491,0.184983854,-0.209089215,-1.751274363,0.3672974268,-0.6563648997,-0.8963633346,0.7630868836,-0.1098248338,2.1828336884,-0.6138556271,1.6375580296,0.4632081957,-1.4499781392,-0.4441741314,0.1799584824,-0.4947003057,0.2110860462,-0.1037458456,-0.1933738745,0.8171111307,-0.114213511,-0.3443465392,0.1443181629,-0.6213783883,-0.8155199663,1.0476281253,-1.0453825231,0.4292898246,-2.9384209638,-1.2468496621,-0.3123978168,-2.2779141993,0.0714945555,1.3714788803,-0.7587892526,-0.5204605972,0.2749385273,0.3674362553,-1.6389479439,0.8819610555,-0.5544040938,-0.232594008,1.4405557841,-3.3153413835,1.2735878666,1.6112423862,-0.1085903288,0.0343945752,0.1505065963,-0.1545163305,-0.5019111767,0.5852919964,0.6112600031,1.1528794321,-0.0731746812,-0.5751179054,-0.0964612054,0.8107984657,1.2128640944,-1.33549984,1.6104624603,-1.2294359564,-0.0582246597,0.8649719611,-0.0454832452,0.3038587789,-0.2772825337,1.2137671689,-0.5565457833,1.1435999058,0.2654097421,-1.042864386,0.1962753784,3.0138136243,-1.2198730439,1.8041205327,-0.7170481888,1.2407441182,-0.7827734752,0.7398276977,-0.1692445714,1.1815281869,0.5930736846,-0.4298265866,-0.2715134319,-0.7996055129,1.1540241026,-2.2884134078,0.4975429361,1.2645640651,0.2391242202,0.7360072426,0.3994384852,-0.1542424699,-2.2105263743,2.2821141787,-0.5870676184,0.8112009637,-0.0822472288,1.2390345928,-0.4536701836,1.2702196159,0.5811929481,-1.4325621029,-1.0198557978,0.5871924698,-0.6221345863,-1.557058353,0.8230748294,0.7238401619,1.5110770413,-2.2265746118,0.444189995,0.7301014925,0.3651808001,-1.364551533,0.1105008733,0.4089359375,-0.5289028361,-0.5285316827,1.1132116473,0.1332699443,0.8859553478,-0.230616857,0.7875349586,0.835510197,0.2706307697,1.3605116486,1.6844237007,-2.4954488216,-0.7791350889,-1.0880476585,2.2402775035,-0.1579672188,0.1096356536,1.0992348252,-0.9630461734,0.1267700439,0.990583094,-0.6449332791,0.1084286822,2.8214600845,0.7166387015,-1.7439274915,1.2500433471,-0.7198060768,1.1690256002,0.6391613506,0.8034946906,-1.6812634385,-0.7372420752,0.8102053323,-0.9532221972,-0.1827014473,0.2039908073,1.0145145236,0.310628212,-0.6847487042,0.0263629825,2.5672033675,-0.443160745,-0.2835413986,-0.2493617387,-0.5148602275,-0.336884821,-0.5540061409,0.4556188039,-1.2963465238,-0.1735753343,0.0182618361,-1.5808006584,0.4145110453,0.7553412035,-0.4185053129,0.1831782477,2.5679848769,0.9994745132,-0.7653056566,-1.6432195971,1.290880868,-0.9916148599,-1.4521450507,-0.8887098195,1.2794949882,-1.3817144479,1.0682160012,-1.1331131677,-0.0697989121,0.0461239193,-1.5825362953,-0.6087557799,1.210564912,0.3144201067,-1.7928464287,-0.5876885431,-1.0771114181,-0.4650482291,1.6193927165,1.4392818415,-0.0177731536,0.3412667753,0.5807285117,0.7717222341,-1.0161342856,0.9166901011,0.1179830847,-1.0154326317,-0.2268034057,0.5228203268,-2.094089398,1.870515988,1.5035339608,-0.5832790147,-0.2477243864,-1.6519460379,0.0716190578,-0.7578972531,0.5924213657,-0.5628100747,0.5418243679,-1.7765891975,0.7145629026,-0.9266688866,-1.5974376951,-1.8261227113,0.3944828413,1.2559459267,-1.2765787546,1.4840447003,0.6027910444,-1.4820468616,2.3367500174,0.2409244041,0.5161871606,0.5786530851,-1.2626815679,0.3789584509,-1.645870496,-1.1331389891,-0.9399588763,-0.9219331577,0.0492146248,-0.7284590258,-1.2412386434,-1.6681766434,-0.7341822899,1.1263715823,-1.3776604004,1.2044450549,0.185720284,-2.1031004394,-2.7882047641,1.4293075831,-0.0958410286,-0.1467515648,0.2010579442,0.5518243848,0.9175406012,-0.2376439881,0.1403129493,-0.4892666002,1.0913390303,0.6741069734,0.8936239302,1.5661241486,-1.4934140393,-0.8016343156,-0.5144403965,1.1678866776,0.4543714522,-0.7043438834,0.8563355404,-0.9244271428,2.1200486288,2.0276010072,-0.0156244511,0.8398007311,1.7818417072,-0.0231204416,-0.7180561837,-1.2092020947,1.8812579249,-0.7800545263,-0.7337372755,0.3470254495,0.4002205698,-0.9336220022,-0.2874019343,-0.9702029019,-0.5323050975,0.2476829854,-0.6043116521,-1.2792508217,-0.8076686759,1.1892418496,-1.8569861154,-0.5174509572,-0.3341606569,-0.2535760527,2.9502859484,0.6861659618,-0.4755738186,-0.2721690767,-0.6701952925,-0.5845934093,-0.8538981609,0.7590573182,-0.0284527742,-1.8539800983,-0.7501982349,-1.117004141,-2.318114774,0.1609675078,0.9642695105,-2.0868650671,1.7437637104,-2.8155048574,-1.3972777897,0.1096444899,1.0288468375,0.0154601562,-0.5782650636,0.5150982634,-0.8875988504,-0.7270782935,-0.9037728443,0.4488475639,1.5403979413,-0.5685541349,-1.7962113314,-1.0831748542,0.2478034027,-0.4973426433,1.0252742464,-0.1878954391,-0.0999947456,-0.590995092,0.5944167238,0.5092410112,-0.1684786291,1.1071066179,-0.1509007435,-0.9398053517,0.9223104672,-0.6429848512,-1.1497821771,1.18705115,-1.2062837451,1.5379704133,-0.9352821108,1.0220447029,1.7079451857,0.4193931979,-1.8196208441,1.3702692404,-0.8548706928,-0.9315638418,0.3811584613,0.158761767,0.921756926,-0.557173663,-0.277762042,1.4518523041,1.1851266554,1.3347000888,-0.265883719,0.442066499,-1.9773135618,-1.1453162953,0.7669041894,-0.1914810914,-0.6987543319,0.7990944791,1.6519410069,-1.5271021449,0.5870733457,0.7344254594,-0.7295528818,-1.4223150814,2.4947470147,-0.1291305825,1.77376897,-1.8957107917,0.8219079191,-0.4958318875,-0.2251632684,0.6828301253,-0.0322839215,0.3069183782,0.3089555508,0.0878281448,1.0922345237,0.1700575999,-2.1408528467,-0.2636101011,0.5126397127,0.0418304112,-1.7225797088,0.1363096484,0.2740549101,-0.6148565776,3.0071266703,0.8286071557,-0.2714255711,-0.947466628,0.7859491961,0.6823847816,-0.9216057822,1.2589422009,1.507123405,-0.8041928134,-0.1574493254,-0.4632493568,-3.1909398424,0.8600776729,-0.0351478481,-0.784259572,1.8093448336,-2.6549138159,-1.5259998374,-0.8588930694,-0.4268033731,0.5126359905,0.3029794694,-0.1223938438,1.0285133695,0.7955680539,-0.2212648478,-1.3846756712,-1.8020064453,-0.6541460478,-1.4178249839,-0.6646064072,-0.4225351826,-1.5125037259,1.4967774268,-0.0086201857,-0.840083909,-0.4189825977,1.0177872527,1.4067097446,-1.0212492288,1.7605680579,-0.1445690989,0.4117953341,0.8646501578,-1.9552728298,-2.2459821754,-1.930327907,1.1096605766,-0.3765653568,1.8803056026,-0.6580476273,-0.2259991777,-0.8558550589,0.7635776622,1.6680964782,-1.0417383567,0.3377002502,0.0408949791,0.010363693,-1.0510813413,-1.6435053826,0.1256850948,0.4784719939,-0.8931279322,0.4105769702,-1.5396419145,-1.3041826851,2.346531254,1.3733728462,0.7343171578,0.3820752928,0.6687218564,-0.7986225247,-1.0299204692,1.0699255234,0.3075804106,-0.288221611,0.4453036861,-0.2421513379,-2.3561953209,-0.3569922954,0.556542959,-1.8353798331,0.183461855,-0.7137282779,0.5213199739,-0.7267024602,0.5994120651,0.2244650584,-0.1026591735,0.3453788612,-0.7851893275,-0.1726596051,0.0182021791,0.3644080946,-0.1439237104,0.8021818125,-0.7386126014,-1.8539428155,-1.0909700228,-0.9507914933,1.5401760716,-0.8129139817,0.0876622434,0.749068287,0.8664639276,0.3232998432,-0.9965016535,1.5718612381,-0.8034061198,-1.2970468046,0.8934532476,-0.0546842513,-2.1479263365,-0.1334915677,0.8756604406,1.3660268763,-1.1202748313,0.6278471306,0.916144912,-0.7316526227,-2.7145326543,0.4003167649,0.3760833461,0.0762351719,0.9019653333,0.7791236616,0.8597076283,0.5168369323,-0.989443126,1.3209776791,1.4308063622,0.9992170746,2.6966892143,0.8697757673,-2.0439146333,0.1797978905,-0.0562625996,0.3580902979,1.0416920408,-0.6568327079,2.3191253735,-0.2558157986,0.6935324079,0.0256395183,-1.6174522627,0.366881324,0.6309525474,-0.944640995,1.174052275,-2.8482039611,0.6835734007,-2.3610466768,-0.0839168468,-0.3448267454,0.8767742846,-0.9098526142,-0.434099534,-0.0075023935,0.2818991337,-0.6228597565,-2.1524391224,-0.4434795167,-0.6046091814,1.2324026683,-0.6946762925,0.290311765,0.5914451072,-1.6900549882,-0.0299708438,0.3705605676,2.2056502124,-0.5099791004,0.2453333331,0.244424657,-1.2428504503,0.3751182803,-0.7826385486,-0.9736746744,-0.586356778,-1.6142981987,-1.2984923495,0.8624882444,-0.2593795842,0.5888109995,-1.8026896675,0.27214435,0.5204831696,0.3686702431,-1.0207217432,-1.6262037393,-0.9555926284,0.0867544267,-0.1754701278,-0.3793334453,0.7900300026,-0.1653902747,-0.2858073446,1.2132193656,0.9576494654,1.4884471113,0.9871914127,0.2307279065,-2.4325875372,-1.2077120393,-0.7769486239,-1.1190518093,-1.8236763962,-0.578077251,-0.4796209242,-1.9706539921,0.8712686961,1.1344390504,-1.0502936335,0.088342024,0.7823065808,0.4691042162,-1.8202200866,1.4204353201,-2.104233108,0.2583764216,1.5754929228,-1.2027330633,-0.4335362984,-0.6012683679,0.6492958277,-0.2080629591,1.4377230657,0.8737074575,0.2316821305,0.2661759867,-0.775230268,0.1294467905,0.4215567548,1.5575847657,-0.0737415215,1.4544007029,-1.1265280878,-1.3820155134,-1.1539255796,-1.0012640486,-1.5953344204,-0.4471620158,0.5397569547,-1.2771447109,0.7178664629,2.3857221815,-0.5923824532,0.1027230512,2.9369615029,-5.1806909665,-2.2249292526,0.1730392673,16.3371234725,0.5601338508,3.0631159322,-0.4422170322,-7.2200028014,5.0383037272,6.7438326115,-34.3920935144,0.7128210274,0.8975503583,11.1852524799,-0.8135587598,-3.1181781894,-5.8916953359,5.5619971473,2.1236708649,-6.0681305886,5.8531281702,-6.4613373607,-19.1498274084,-5.5418054435,68.8117754412,11.9818278951,-99.6579745716,-12.7473439999,64.9923722161,-287.6313295436,660.0954921308,41.0005491856,12.8035370971,-140.7953758583,-13.5885820137,-388.0047647463,129.952630645,-21.0515018031,-891.2700777782,-175.7075692229,185.5786329934,231.7334806725,341.2239126031,291.224723232,-54.5716438749,-29.4872434364,-301.7294776093,-4.9203783207,10.0914414767,18.4389867095,-6.2475552339,-2.7963251667,-0.5857653653,-0.9785383731,31.8116274201,-7.777803974,-11.3180172326,9.584779594,5.8835723485,29.1473153606,-13.5049778735,-22.1811566854,391.6702760686,-2.993525736,3.6814250671,7.3095127418,-3.9806176965,15.5712568147,-10.3491306002,-7.8485289692,-464.2564085718,-12.9376311625,3.4965940306,1.006069604,6.2360107196,-0.4038512816,-3.9287337816,5.0571058316,1.6038704693,0.3311363517,-1.3051660088,-0.7842959844,-0.1990947457,0.7154398861,0.5001178722,0.4261435989,-4.3541582683,4.9649918071,-0.7443474234,2.2008896804,-1.1451956069,0.6586640341,0.6141004259,0.3854800299,3.2117943315,4.602414544,-16.6007875779,4.1739430531,-14.4946294517,10.8996725115,-5.2330457867,2.2126667233,-4.2993157367,-11.9992191465,0.2888167612,5.5580480123,-9.2839051356,1.8558814041,-11.5207709613,-3.5810725483,-5.4731323967,1.8338720185,-1.039612032,24.7281110055,-3.4643293312,-5.5149829782,-6.0798370962,4.0331130453,1.6429581213,1.2514538664,0.213766739,-1.7401556673,-0.6051394866,1.1433070506,-1.6616994235,-5.1327050102,-0.1532592174,0.1707381291,0.0662665356,-8.4585534138,1.1730788586,-2.5333177561,12.8561325754,0.4091147565,5.2449056335,6.8204778116,-1.5051224693,-3.8753337664,1.5710389439,5.1188225533,-2.7877827534,4.8711403982,0.7758256033,-0.9671182828,-3.2780991613,-3.5595518925,3.9785240974,-1.8237910971,0.3609467149,-5.6329246637,2.7322408217,2.0732976906,0.7892190389,6.3268671386,1.9925743111,-0.2181329345,-1.5120902758,-1.0789811219,1.1761153113,0.1164838041,-0.8358831399,-4.4445888021,4.1306499912,-2.3173697292,2.9365123327,2.3471577212,0.9057435363,2.6348813556,0.1565504735,-7.2422845665,6.9177444065,8.1023856223,-1.6314193864,-7.3579940259,4.2602296392,-0.8549793176,-0.5614900385,4.822621202,7.2086140665,-5.420092547,2.2683927799,-45.2180128447,-7.1811937648,-4.2554242046,-1.4049029398,3.8008584721,-9.3974968101,-12.6889540257,-3.5916169651,-6.6346474969,-10.4359938658,-2.3775839716,3.2573562322,-1.0534906356,2.315183836,-2.7459875439,6.5092853791,0.7354636854,0.7848628747,0.8294630157,5.5711251877,9.3607486669,1.3757588891,2.5850562101,-2.1395718246,0.7163983983,-1.2803816612,1.3693932549,6.8063573831,0.5192735076,-0.3375748411,4.7250582859,4.4500811821,0.4690784911,0.1245500446,-0.7679189718,0.8763418131,1.0636116968,-9.028285944,-3.3599780226,-0.9046781294,2.3379540737,2.307362117,3.6651958571,-5.5207145209,3.538097167,0.8182331769,-1.5549708172,-2.0105443897,-1.2765995882,2.0089294584,0.2823409893,4.5534644995,9.4922304583,2.9632252631,2.6481340753,2.6240911977,-0.7474715692,-0.7380586428,-0.252837324,-1.7434956753,4.3961282001,1.3097120425,0.8923983445,-4.0667491631,4.4453472778,9.5750457801,-1.7533954978,2.2103170587,-0.0531980596,0.8310010999,-4.8397656169,-0.6377630024,5.8012175238,-1.724351373,4.5189618425,3.6138859188,-4.5941987828,0.0184219553,3.2256588054,0.100056937,-4.1796394208,10.3781200284,2.4436954081,-5.2935252635,4.9196327117,2.0906082276,-9.1472551921,9.2881822723,12.6987117219,-9.0056316973,-16.9803220305,5.0207836899,-6.0074648426,-5.7942209652,-8.5506649232,-12.034040043,-6.0605205874,-3.7942129696,-27.617063985,5.3695148523,-16.2184104308,-3.582034378,6.2298577191,2.3450890865,8.5034441285,1.5033450497,6.3591846472,5.8316110099,-5.1725044355,3.7620737989,2.9320323019,-2.4317622371,-2.4826650587,1.7798326223,3.8111206534,-0.9531348029,3.8312822429,5.7611763663,-0.0688696594,3.6038050773,1.1138454149,-3.8038477718,-0.5180529011,0.7356627018,0.7927770504,-2.5033066666,1.4932223279,-1.928616154,1.6690935823,-3.9680630534,1.0945037081,-0.4406646993,0.4631149957,2.8643546023,-18.4216721933,-1.8448537262,-3.3153570556,8.935761213,-7.1478546611,-1.2745513926,-8.3075045351,-2.7181661381,4.85863029,0.0529954062,0.4299229875,1.6713566371,5.1362649807,-1.3165413507,-5.4857078374,21.5329782686,-1.1984490464,2.9853089416,-2.4154012997,3.0414566976,-1.165795015,-55.5788162186,4.5679204974,-4.9155814845,2.5419596141,50.3740494935,9.1925675968,-4.2932009797,-4.4259489449,-1.4906169917,-13.3719236356,-28.6767414192,-5.2565104422,25.3584378103,-2.5289265356,-0.4028605289,-12.32997558,-5.0888954449,-5.9573833928,8.0319182676,6.1972636947,4.8998176624,2.0315536712,-8.8928272544,-16.8363000819,54.7326094483,-324.2945202921,10.7945194839,5.4281447083,27.8706398155,-6.0619530423,658.4378432771,-5.243079766,-19.7199332081,88.3632784702,28.2624305743,189.9291857278,10.6154559281,-57.9759167424,-17.0395552662,-1025.8296959626,2.4487914409,14.188271623,127.246727898,144.1854331053,86.7997458552,264.9683122862,-0.9991332683,179.9040592125,-0.1799501921,-0.8475890853,1.9260454667,-2.0776031631,5.6188990388,0.5399521444,-1.698206194,3.8385000258,0.7466729164,-4.9744312565,-2.9362756062,2.2391122984,2.9987609714,-10.7765411299,-0.0773494145,-4.8465015232,2.4149828457,1.8174793047,-1.1916397215,-5.0684230153,-4.6187323446,-1.0308049843,-0.9944597357,1.9164858683,-3.76976775,0.9362791386,0.3994866144,3.5652467744,-2.5679232933,-3.8256103553,3.3123409922,-2.7085592587,-4.7171270725,-3.6631733945,0.6392352073,-2.6454941078,1.1142135837,4.394245837,1.0779136998,3.9104174793,0.588876376,-4.9827244166,-2.8607608687,-4.5143101277,1.0844539456,1.1843498998,14.2132107571,-1.1084370003,3.525155143,0.5550636756,3.97957667,-2.7491896945,0.5163686268,-1.9754692461,-0.6912792597,0.6663895273,-10.8129399772,0.5959070856,-6.6428115432,3.0211677914,-27.9048638009,1.8580821355,10.9420806799,8.8373973183,-3.0786397593,1.0317675964,6.6364433724,-5.5006054231,-7.6312070036,5.6317608059,6.0674046357,-2.2024552485,-22.9323706832,5.299901006,3.9551481115,-489.1863821369,-8.3604863294,-5.884818917,-7.4115693738,-54.4642811043,453.2336330547,19.2368118945,5.8859916159,-1.394531932,-48.9706625649,6.1100195662,738.0415227159,22.9891791938,-8.0720897219,-16.0675283065,3.5649191037,-11.4904779567,139.5108521199,-14.8156020567,5.2935670105,-10.1720626773,0.3368664419,-1.457274494,3.7046091735,7.0141937492,1.6653473331,-2.1959236661,1.417805018,1.0538880414,-1.5009376997,4.0315377508,5.3683260613,0.440165085,-1.9803481683,-0.8304365156,-0.9018884157,4.4073133,3.5246806802,-0.2349079993,0.8324689167,0.4427952162,-1.1680348961,-1.7676319474,10.6801157213,2.8931799607,4.5807419196,2.348990938,-6.8787853581,0.8526369685,-2.6742257701,-0.3717247859,-4.0110958449,-6.5162011565,-1.2374458129,-8.0713484771,-9.3524658714,-3.6123133275,-1.5138579382,-12.0561562017,-26.4725015337,-3.2452757639,1.0881383952,-2.561992095,4.9757915038,-2.3098908196,2.1310285206,1.6262168567,1.7372567142,0.8809702937,-20.3374777183,5.0787469852,19.4810639483,-6.1516498451,-1.7325759777,-1.7769659736,2.3051086699,1.5725904943,7.2620984903,3.0939479982,-5.3103495231,-7.6958819379,-7.5831414336,-9.2476036885,3.1617158806,-1.12844466,-4.6913208284,0.3541072399,-4.537760201,0.7153740319,6.7572996546,-0.3663116716,2.8268641396,2.8346088033,-3.1057098288,3.1449945002,-5.5752817148,-4.4563596864,-9.2757623486,-14.2107989028,9.423482645,3.3850441843,9.7705445667,8.2959759881,-3.1710382253,-8.1934766836,18.72450988,5.5024365256,10.8935750546,12.3901996022,12.3080622417,0.2034014258,-1.5551368699,11.5755174058,6.9604383286,1.6938722625,-5.2830316364,-1.3337176479,1.8550803087,0.102105772,3.202942065,-4.8917825884,1.3043029797,-4.3250337196,-1.3602272615,-2.6412848307,-6.0006764608,-0.2057556181,1.9981388393,-0.6042514016,0.624015304,-0.8517694211,-1.9683074756,-2.6703940569,-7.8141790202,0.5214003143,1.2623171332,-1.5390673083,-3.0801588793,0.3714189096,-1.9893451044,1.6010083659,10.8023405411,2.9280705149,16.5707773305,18.0820966091,-3.2758114911,-3.0147563878,-0.788570428,-3.401732294,0.027963346,-5.2217748181,-17.2778101016,0.8693960805,4.6761211636,4.3406849301,6.6537597267,1.7868540172,8.1521292495,-0.7479025401,5.208141981,-2.0468312766,11.456074517,-6.2533250101,-2.1973652638,7.0692380225,1.5449524697,-4.0405930171,4.1876424681,4.092575406,4.7755839993,-1.8487787928,4.7416655762,-5.6016339774,-2.3819637673,-0.3540235317,11.382843555,-2.8327347633,-2.0337096591,3.1182965053,-2.5505515202,-6.4297227035,-0.2178049058,-3.5586398569,-0.3309491249,0.3450386958,1.1828768964,7.5149108035,-1.4941957989,3.6397417131,-0.2419902205,13.3192403529,8.1811388393,-3.0177942231,11.8941679745,300.4989826777,-5.201830556,111.3640554714,7.7966640207,-4.0083230593,-16.1935801365,5.7288337014,-22.5215254544,2.9165004598,0.0259131347,-14.4367053748,12.600474196,-5.001397239,10.382527998,12.5212785945,17.9061991191,3.5421805846,-10.6417961487,5.103630812,6.3041386053,31.1169759495,4.647721233,-6.8437792768,-14.3065734682,-9.3624727985,-28.1641734973,2.9169891182,5.5552427142,21.1537351369,-28.3784864567,6.6755541114,48.7587207795,83.715122236,-12.0016031541,-125.6028729415,-0.3101500455,5.660296308,35.9007582436,-8.1081297043,-18.2596531568,98.7662852636,2.0890811425,-8.2888854113,-25.4271327207,-39.4364728593,-14.7279782002,-6.808580493,-8.7463023127,-3.6517296598,-6.2930332687,-4.9746864499,33.3891188338,1.7228571968,-4.8848118911,7.4341704507,7.5995222295,-7.0000621322,9.4229856446,1.0612535085,-6.0737951366,29.256601508,5.3709236021,17.6937188651,9.4982260884,-0.6153542615,-4.1874469612,8.790674779,2.4100889869,-5.2901618809,-5.7125089574,4.1600893784,1.4965193234,-2.254829418,-3.9459242368,8.2544901514,-0.6917816633,4.2026177338,3.1209168577,-4.3958874098,2.4992421341,2.6496767241,-4.3406497678,-4.2186607006,4.0030029959,6.9698101442,3.9502659531,-4.2217934954,0.7329562723,-0.5530674768,7.7208932793,3.8021747863,-1.1181011739,-3.9676461693,-0.0152785253,1.3485540026,3.809447741,4.1854946099,0.4555717016,-1.1205177156,2.0373610233,1.6001142596,-1.1979088127,-4.0276323284,-2.5259878533,-5.2380826906,5.5558492842,-0.9646671487,-2.495875968,-2.8279601203,-3.5693319974,-2.5197057889,2.8488999214,2.8897833549,0.4677492049,-1.1541410564,-1.1202134182,-0.7748184936,-2.6792554003,0.6378850051,5.6578689863,-4.4677179,0.6862352472,1.9165352642,-3.4113834558,-4.4150083936,12.186845628,0.7832165081,23.11597843,0.9217206841,-6.5519559198,4.7941923733,1.2397176206,-1.117897126,3.2341662875,7.6772897226,2.7230457431,7.7068898795,-4.2515748459,5.4170402047,3.978864667,-0.8951248387,1.1319651063,4.7313793183,2.2234094851,-3.638169586,2.141840221,0.7345695994,-0.294951782,-3.7184489651,1.6626374344,-4.6369178076,0.2565943147,3.8510736705,64.1094972346,-2.5035308261,-37.1471291924,579.401796341,12.5927520123,1.1630697539,-19.0933586284,36.4345565666,-40.7880075724,-4.2301630069,219.4160918213,-1.0270076965,9.1445275443,-8.1328334539,-4.8797360409,5.4359476718,1.560686435,0.0199902583,6.4517829004,21.0554268279,15.4576701369,-2.8643352479,3.6262275224,2.5597702507,-5.340651416,5.1756724112,2.4025176292,5.7428096786,0.8457460797,-12.9984687925,-7.2962454367,-21.9438691256,-4.390767996,-9.2132053991,-8.8276395329,3.5478306806,6.8225692637,-7.4691210311,9.954604589,-5.9117269127,5.0748336491,4.4453999073,-2.9474384449,4.501322242,-3.4290531909,6.6014151913,-2.2909559127,3.3120670597,5.8945179351,0.7616239559,-4.6929395891,0.3324698158,-4.1673341937,0.357130207,-1.1928625726,5.7211749902,3.6449095005,0.3760266811,0.7688961409,21.250950097,1.5111470498,-3.0638829636,3.6356096077,2.62541867,-21.2369024713,4.0787106808,-17.487445975,-1.159615714,4.6666934075,12.274482141,-1.6801819951,1.7281002851,-5.1590920692,2.3445786495,0.5104285608,-0.3154297459,-3.0843554652,-6.2281367085,-1.2922041501,-4.4547977503,5.8128064764,-0.8157069796,-5.4644602495,11.5680447539,0.7420314415,9.3196116572,4.2160578382,3.8572416714,6.1736164733,4.6435268975,6.1155472429,-0.0000977513,-8.8409122389,-1.5697993656,-10.5730510249,2.4655107415,-1.2484228895,-0.4323032855,3.4559875112,-2.1461624937,13.9482759121,-13.7351619365,7.9460596724,5.4069637769,4.785497654,3.5497402308,-7.3207867685,2.7629740464,-40.4819827477,-8.6296178647,7.7955732551,9.2574031353,-2.7362264336,3.3880996743,6.868237568,8.4722055499,0.593408789,0.4228965718,2.6781122806,-0.5859820952,-7.1830401747,1.4287029489,-6.4883863165,1.5792541843,-0.4016579918,-9.234325134,3.0703643749,11.1382750112,4.2501023502,1.6973562861,6.5141587558,1.7973798616,10.1861055499,2.9816779087,-5.4439492006,3.2866226813,-6.7161983465,1.7600999768,3.1229053163,-6.5237715616,2.1981509601,4.5753190662,-2.1121029624,17.5580331561,-18.8216032914,-8.6380156885,-2.9558238411,2.8694573077,17.597922267,-0.0799717624,24.1599025705,-0.5374548167,-2.5514869545,-10.921098397,2.0254601798,-6.6137327921,-1.1919784558,-2.3927964209,-2.4838986009,-1.9484565698,-2.9050613413,0.4331660806,0.6687901518,-7.5759011788,6.5467339851,-2.8209730939,-2.247414612,-7.1828657866,-0.2242114568,-9.3968779313,-8.8391352283,-175.2300109288,18.3339681617,-9.5158070072,-2.7300677955,6.4198608888,-7.8134220478,-12.2445249962,-5.0889804597,12.0855923243,-4.8336163328,-15.3881672014,-4.5337250859,-1.496500451,-2.533392963,24.590798263,-2.9834080068,2.477354728,-2.4679109367,3.793017267,-7.9478191443,1.7951657093,0.3256067429,1.170918562,1.089653368,-10.970007775,-7.0180816028,4.3416945701,3.2007065454,-7.5814012065,-6.6452136883,-0.6762560304,4.4116706279,0.46388387,-4.7075903069,0.645202298,-4.5944574423,-3.5487198179,5.12143042,-3.3034566772,-0.7996985052,-7.7955775487,3.8358030985,1.6500162038,-2.1283284746,-1.4510027697,-4.0679450264,-0.1799096374,-3.2214243968,-5.3474267713,-0.4339513681,3.6293003157,-5.6170845015,0.9164071444,0.5348269146,-2.9444065955,4.0356049099,-3.626849052,-9.2941702654,-0.1702135065,-6.5262330166,0.1492248355,-1.4208463698,-2.0537589989,18.6762334584,-1.3521363839,-9.3159370249,1.1302636725,4.4155651297,-1.861577417,-2.6152553385,2.1574639559,-1.3349233161,-2.2115569229,-3.5615938421,-2.8682282032,5.9303879493,0.8104474749,3.38976013,-1.5923124735,-6.4973448218,6.3223755865,-0.4922017692,-2.7694084598,1.8731211089,35.2716699872,2.4643812367,-5.9149481354,-9.781600404,3.4146034906,-4.6720362131,-3.4158451733,2.7490665591,-12.0965265753,-3.1111166241,8.5791767321,-1.5516526453,5.2260687697,5.4020597148,10.0527860565,36.9245081804,-2.4702574688,4.7545746966,6.6162123113,64.3070247111,9.1022701408,2.9910933394,-16.277796806,15.1010737945,19.6907032697,7.6200905901,2.3313395304,4.3681244004,0.4698227863,-1.5204261875,2.6761211132,5.2857651419,0.1393999703,-8.799838075,2.812600135,-8.0248276536,4.3559149244,1.5105190744,1.9971814366,-2.4672514838,1.4882691246,-3.8533815814,8.6665834339,1.1389792563,8.6896246781,0.7621541264,-6.9784744717,-1.4668763009,-0.3963006977,-4.2738650696,8.8173622054,-3.3344215351,-7.556967221,-0.5488361319,-2.1447435904,-0.6836225079,-5.4880379598,-1.9879384554,-2.8663662585,-1.9310750312,-1.0618721234,1.4502458461,3.8487876316,-3.2077898422,-2.7140233779,-1.3889700946,1.7416955432,1.8365635605,-4.4517052785,-0.6532120876,3.2029761694,0.0205274609,0.4611939572,-1.523706227,-3.0593700395,-0.151729016,2.5618359014,0.4977662046,-3.7840699635,-4.2621013471,-1.2281036442,3.629411044,7.4534063142,-3.9863917439,-2.7610706088,0.3461442682,3.381255664,4.7287128112,-5.1157695749,-4.7899409877,-4.9087311043,-4.2666900968,-6.471452403,2.5728299529,2.6156836457,-1.4426445059,-0.9031413326,-1.551890871,-3.057794951,-1.6902996541,-0.7938308835,1.3206756907,3.258386821,4.4307725797,2.9807635567,-2.1848724967,-2.3593898691,-3.5883050655,5.3915253629,2.2325464062,5.8896852763,6.1155627719,10.4017278129,-3.4562741892,-5.2358009802,-3.9513401149,1.5065965899,-0.604460166
biasActivation=0,1,1,1,1,0
[BASIC:ACTIVATION]
"org.encog.engine.network.activation.ActivationLinear"
"org.encog.engine.network.activation.ActivationElliottSymmetric",1
"org.encog.engine.network.activation.ActivationElliottSymmetric",1
"org.encog.engine.network.activation.ActivationElliottSymmetric",1
"org.encog.engine.network.activation.ActivationElliottSymmetric",1
"org.encog.engine.network.activation.ActivationLinear"
