encog,BasicNetwork,java,3.4.0,1,1492646391514
[BASIC]
[BASIC:PARAMS]
[BASIC:NETWORK]
beginTraining=0
connectionLimit=0
contextTargetOffset=0,0,0,0
contextTargetSize=0,0,0,0
endTraining=3
hasContext=f
inputCount=10
layerCounts=2,4,4,10
layerFeedCounts=2,3,3,10
layerContextCount=0,0,0,0
layerIndex=0,2,6,10
output=0,0,0,0,0,1,0,0,0,1,0,0,0,0,0,0,0,0,0,0
outputCount=2
weightIndex=0,8,20,50
weights=-0.4721876234,0.1564847276,0.5208169168,0.277161437,-0.1317075712,0.4554549918,0.634273868,-0.7924762395,-0.8743352932,0.1721203891,-0.9652169271,0.2620487053,-0.2540300107,0.9866454582,-0.0659584656,0.2376228839,0.7249643527,0.7816101197,-0.7765542518,0.2541651852,0.3965124703,-0.3023764877,-0.7792849673,0.4655304507,0.5235081794,-0.9743334204,-0.7355836703,-0.3143835652,-0.8036682389,-0.6640552823,0.2766426365,-0.1854138116,0.5829166557,-0.2501509683,0.3595554934,0.678603586,-0.9199150802,-0.112331964,-0.4933501881,0.8142498935,0.390058923,-0.1971051088,-0.5287684804,-0.8310683147,-0.704125861,0.4533897992,-0.6580279993,-0.6627988765,-0.1711316647,-0.7602408476
biasActivation=0,1,1,0
[BASIC:ACTIVATION]
"org.encog.engine.network.activation.ActivationLinear"
"org.encog.engine.network.activation.ActivationElliottSymmetric",1
"org.encog.engine.network.activation.ActivationElliottSymmetric",1
"org.encog.engine.network.activation.ActivationLinear"
