encog,BasicNetwork,java,3.4.0,1,1499299219053
[BASIC]
[BASIC:PARAMS]
[BASIC:NETWORK]
beginTraining=0
connectionLimit=0
contextTargetOffset=0,0,0,0,0,0
contextTargetSize=0,0,0,0,0,0
endTraining=5
hasContext=f
inputCount=30
layerCounts=1,24,34,24,14,30
layerFeedCounts=1,23,33,23,13,30
layerContextCount=0,0,0,0,0,0
layerIndex=0,1,25,59,83,97
output=0,0,0,0,0,0,0,0,0,0,0,0,0,0,0,0,0,0,0,0,0,0,0,0,1,0,0,0,0,0,0,0,0,0,0,0,0,0,0,0,0,0,0,0,0,0,0,0,0,0,0,0,0,0,0,0,0,0,1,0,0,0,0,0,0,0,0,0,0,0,0,0,0,0,0,0,0,0,0,0,0,0,1,0,0,0,0,0,0,0,0,0,0,0,0,0,1,0,0,0,0,0,0,0,0,0,0,0,0,0,0,0,0,0,0,0,0,0,0,0,0,0,0,0,0,0,0
outputCount=1
weightIndex=0,24,806,1598,1920,2310
weights=##0
##double#2310
   -0.7260021101,0.7882319325,0.2954921542,0.0660125399,0.8084653815,0.869701508,0.7036698703,-0.4602348835,0.4467461641,-0.5271291863,0.0897179855,0.2605250154,0.6790976463,-0.4187366203,-0.0669441021,-0.2472385999,-0.881806702,0.3103118688,0.8232539009,-0.7858086676,0.2279739745,0.4784729753,-0.3055360275,0.5150953475,0.8769545785,0.9963237281,0.0697151828,0.3959524652,-0.3481942479,0.1311706492,0.3018686615,0.3495631829,-0.8140131068,-0.6199933255,0.7804168137,0.1219333046,-0.9426810709,0.0169052282,0.745831598,0.5065644561,-0.4967839171,-0.7687925264,0.8615693236,-0.5828087985,-0.7551261695,-0.0453736068,-0.0685845815,0.788866015,0.8406299883,0.5719665121,0.270642405,0.310529832,0.9811586612,-0.0783993598,-0.6138664743,-0.6114587079,0.8409518931,-0.3696569432,-0.0027833661,0.6773451392,0.6378527065,0.7835732542,-0.8337142897,0.0709449545,-0.3686605125,-0.9967583701,-0.4044694502,0.7226350259,0.1695840759,-0.2019563237,-0.2951190507,0.4323468091,0.1842630679,-0.4483898731,0.9867510375,0.1536533789,0.1222505707,0.4458199551,0.6179399457,-0.4231612883,-0.5750114523,0.5515133752,0.0729164899,0.0385575589,-0.1114790465,-0.8379968214,0.3427090569,-0.8989134885,-0.2946226434,-0.9162996721,0.4374503805,-0.2064577988,0.690502369,0.8264074862,0.5620333596,0.2958733706,0.170940158,-0.3386665362,0.2084344517,-0.4449596916,0.2202843495,-0.491997648,0.9469165899,0.2276940117,0.1231036269,0.2111808431,-0.4895184133,-0.3022282721,0.9244673307,0.0492925948,0.1871908567,-0.0102944073,0.2822355627,-0.1994407261,0.7612341769,0.4123863922,0.0111364655,-0.7229536816,0.1966504101,-0.9432195612,-0.2823888901,-0.9739770691,-0.5475836396,-0.3276941476,-0.1552107415,0.6082940328,-0.0455340737,-0.2016642585,-0.8985970713,0.4280425121,0.0005348949,0.789063916,0.55294015,0.6385036162,-0.7925518378,0.5170764988,0.7369631878,-0.6231752485,0.9136333821,0.2504354515,0.5723925891,0.3782491721,0.720802616,-0.3699507722,0.4106998003,0.6251149863,-0.6088030256,0.1438018083,0.9432672381,-0.9844155344,0.0498464956,0.9247948653,0.6351262199,0.5332370982,0.3945195508,0.9239119241,0.153936166,-0.9498101535,0.7664347067,0.5721542755,0.3590627946,0.9088974756,0.8119123484,0.3836632137,0.7507135326,0.2512091795,-0.1532163352,0.5361705033,0.4119360275,-0.5881925226,0.7023378161,0.2683069778,-0.71841256,-0.8105241389,-0.0589177133,-0.7681563332,0.3491627532,-0.9264524733,0.8825867564,-0.0559908165,-0.0908335795,-0.7655409937,0.0316293666,0.9766829457,-0.6621284474,0.2226557898,-0.6883614287,-0.6604250721,0.4607863387,-0.9467806233,-0.2826702768,-0.6743820473,0.2199356906,0.6361021228,-0.571562279,0.400298918,0.1536183556,0.8103612311,0.6764778289,0.9988459887,0.9221319403,0.2962122894,0.3676564827,0.6327739751,0.0172705597,-0.3929778221,-0.0737669202,0.8075457109,0.5846359013,-0.7263124425,0.0981928286,0.3537719355,0.4275040832,-0.8440128069,0.7776427061,-0.3648726631,-0.7945451446,-0.2083856983,0.4918576868,0.2574296812,0.6854714982,-0.4817420447,-0.3554646532,-0.6928971435,0.2521924242,-0.0262163775,-0.7953291153,0.8096762788,-0.6220324269,-0.3919818338,-0.2553952254,0.8528058272,0.0866882054,-0.5791602729,-0.17944828,0.4491760495,-0.4234285004,-0.6873438737,-0.2608261302,-0.9912848223,-0.922943761,-0.8883941632,-0.7697158085,-0.5655354363,0.9484176819,0.3490264076,-0.2870120806,-0.655392285,0.0052072061,-0.8907854136,0.9769485977,0.5459491915,-0.1840687407,0.7020389315,0.3872484762,-0.182727201,-0.8688021005,0.8776574181,0.9763283082,-0.9584769946,0.2090046759,-0.6106552093,0.4704281454,-0.0394875484,0.1711074312,-0.3696975565,-0.0378164259,-0.5433303971,0.6579116413,-0.3628785013,-0.3911554278,-0.6340118117,-0.7143099378,0.5543887266,0.8452498647,0.4118202019,0.1682106117,-0.9406156562,0.5497328229,0.0718255588,0.5687539716,0.7300781875,0.755554668,0.0600808318,0.141210324,-0.6514953688,0.7277580028,0.5050523405,-0.6014241884,0.1957148689,0.6550394562,0.5931798925,-0.2515278175,0.1628694927,0.6698899906,-0.7660919761,0.2501769374,-0.9856159971,-0.5287907486,-0.1187504834,0.6444386131,-0.6309330026,0.931374401,-0.2829622812,-0.4654354877,-0.4832842407,-0.0474624826,0.5070259454,-0.0719855609,-0.3856627384,0.9693008195,-0.7257498703,-0.5630481053,0.8444383358,-0.7655225272,-0.6671581947,0.0369578343,-0.4574048769,-0.3598274055,-0.7339721283,0.7381335628,0.2217880988,0.7158494507,-0.083616836,0.9304224607,0.4445042202,0.2564511579,0.4817457763,0.6912436738,-0.8355812003,0.213071121,-0.7255970469,-0.7076390647,0.6924380179,-0.3966052424,-0.5240478991,0.0483759304,-0.6005621668,0.0363983634,-0.451004255,0.3769667953,-0.987474429,0.9062037408,-0.3176902172,-0.3998920484,0.6163952741,-0.2101853327,0.599745462,-0.1666960239,0.0522126991,0.3061576193,0.5178992159,0.4033610948,0.8444655209,-0.0796510464,-0.507472557,0.6780020218,-0.60045151,-0.958161755,-0.4906095633,0.2977270941,0.139545375,-0.4971781124,-0.7596437578,-0.9562250851,0.8203783704,-0.5693724502,0.0517593559,0.872294887,-0.2858867948,-0.4966523815,-0.6149068372,-0.9880929201,0.7622964482,0.4954393444,-0.3946966587,0.7941313807,-0.896673238,-0.8196941423,-0.4967307707,0.1480965228,0.3232247434,-0.3572664821,0.4525185098,-0.6246460148,0.4167275567,-0.9469202611,-0.5765083304,-0.1807146217,-0.0569106367,-0.2780895155,-0.2163987357,-0.9293928863,-0.367336697,-0.0683191246,-0.6862963862,0.1130073081,0.2379562877,0.8609474452,0.2954321369,0.0246058076,-0.595752358,-0.3595458984,0.1033998693,0.6150943541,0.1279412729,-0.0221192268,0.9721690528,-0.5588817141,0.3827530988,-0.2276115671,0.7865879644,0.5692126925,0.6605895156,-0.8427617023,0.6795007196,0.5007766808,-0.2013960728,0.0616938516,0.088086996,0.2789895186,-0.6010418508,0.8328499872,-0.1129735092,0.5710772017,0.6967669698,0.0779713598,0.1408871137,0.0352351606,-0.7795401771,0.3584030544,-0.9055480314,0.3996025854,0.2323815981,-0.4152075236,-0.7001847759,-0.643438575,-0.4759041478,-0.2264904307,0.0280537263,-0.7571210811,0.2465117568,0.0833858878,0.2017858651,-0.1437459859,-0.912389668,-0.2663399326,0.0061924408,0.4521076471,0.4186091427,0.1729283599,0.1461396096,-0.1058900282,-0.744115016,-0.1809549905,0.3865896873,-0.8295280914,0.8805793332,-0.860163351,-0.5029862316,0.4309473651,-0.7721035399,0.451795161,-0.7883162331,-0.1979713178,0.9580214703,0.8371742064,-0.7566662682,0.7720497171,0.559248998,-0.0080200901,0.0636420989,0.2413107571,-0.5693996664,-0.9166240371,-0.7407108194,0.3486640595,-0.7144743078,-0.3920767644,-0.7075031273,-0.2129353502,0.8712792621,-0.9530766765,-0.023408967,0.8882323911,0.176829954,-0.1659172545,0.553669252,0.088886386,0.0803927526,0.9519072692,-0.4662140233,0.1942999371,0.788969666,-0.1029519123,-0.0134679621,-0.380432904,-0.6930191546,0.3129361561,-0.1931478972,-0.726726026,-0.5597168381,0.7204459321,0.1269866425,-0.2806744337,-0.4020934679,0.8299682797,-0.0232295521,0.5821857076,0.5378990959,-0.4947383746,0.6183172435,0.813087748,0.2560722626,-0.9109549922,0.1174881935,-0.6673557516,0.6306636503,-0.3914832807,0.5667591251,0.4413740467,0.0274414868,0.973274638,-0.7637523268,0.745990046,0.9245784503,0.7831683614,-0.1670432622,0.3945199752,-0.0376690219,-0.6445720099,0.4274670858,-0.6569192648,-0.0672635528,0.8033415746,0.8356024467,-0.6249177145,0.5373231555,0.6144397027,-0.4884851166,0.9083983993,-0.0304861887,-0.3682318487,0.5117241843,-0.6790597552,-0.8640121023,-0.0327314156,0.0157513698,0.615377282,0.5274619893,0.777284859,0.3899315611,-0.7367963074,0.2323284733,-0.4733325465,-0.4119053556,0.0719383314,-0.0814906701,0.2033562665,0.9564407836,-0.5810785449,0.9289371498,0.2690367461,0.1968912597,0.7609502594,-0.0745643484,0.119640751,0.4039509049,-0.2744845203,0.2820119523,-0.3784725669,-0.783046239,-0.0711683981,0.1226128388,0.5009628372,0.6732369194,-0.0855596075,-0.5760680973,-0.2275576498,-0.1624034348,-0.447035291,-0.9374356226,-0.1701154218,-0.0444835469,-0.1422651462,-0.195199088,-0.4998375026,0.1550309536,0.9045364669,-0.8494422555,-0.1346835573,0.1189604333,0.8586235686,-0.9760479168,0.6342775636,0.5110378449,0.0687686774,0.8913767573,0.6668242395,-0.2625108711,0.3098068662,-0.8668889019,0.9778913534,-0.0354255087,-0.7017714343,0.8225004662,0.2619880234,-0.3097548468,0.2449605959,0.8230105504,0.6884181459,-0.0873896774,-0.9880102236,-0.6881756666,-0.703224478,-0.4771749048,0.605544116,0.7758420735,0.9948237357,0.7584074292,-0.1917354698,0.6845350817,0.1336462814,0.827675182,0.5948890832,0.1373001821,-0.5808885505,0.1135422493,-0.4142769727,0.6338383453,0.6287838398,-0.1716652767,0.1816030202,0.444293767,0.8609081936,0.6725199241,-0.1719431505,0.0839759849,0.4671189857,-0.8328892717,-0.5501196436,0.0682112516,0.6442771985,-0.5087896982,0.4041652765,0.7892998594,0.3890419776,-0.7310479927,-0.6275733407,0.0815212005,-0.9201196272,-0.7268593981,0.0189540271,-0.341279054,0.1912304803,0.8120749312,0.8589725153,0.2972431807,0.785520655,0.9926278301,0.4347286864,0.3746072518,0.0057087994,0.6089080939,-0.3396561695,-0.5620154001,0.4097861806,-0.1424373602,-0.9897318606,-0.1018153427,0.8658256983,-0.633269682,0.5481121229,-0.5602724495,-0.6562249936,-0.726935797,0.3483417007,-0.473120688,-0.7796820776,0.2090201294,-0.353110985,0.6868182353,0.1656836676,0.1107034006,-0.1789037606,-0.5076191238,0.1255535133,-0.1667354081,0.7882229505,0.8734833009,-0.070721841,0.8389679734,0.9055655898,0.6841804996,0.8339752127,-0.3802327268,-0.5613524886,0.9827445704,-0.7497139195,0.362678971,-0.1967913068,-0.8229724885,-0.9958601281,-0.8645474948,-0.5334395004,0.6736194478,0.4909725378,-0.0650838786,0.7438585346,0.5503264025,0.6042276031,0.1640002797,0.1269240574,-0.6843008654,-0.4760199292,0.502821705,0.6070219731,0.5739917421,-0.400943138,0.8472782452,-0.7676730092,-0.0282721123,0.6485258718,0.3444544147,-0.7405639572,0.6630928768,-0.6476204272,-0.8456843606,-0.9998485779,0.3281710707,-0.2072049329,0.997941787,-0.2602320926,0.1133658053,-0.3191070415,-0.4507531529,-0.2554865402,0.9567860673,0.4038100682,-0.084363674,-0.0064188167,-0.5083223921,-0.2145223554,0.8345638129,0.4482399682,0.8868737675,0.5206543159,-0.8060384688,0.6499283422,0.1866437505,-0.5608597213,0.4614474953,0.5074415432,-0.105389132,0.941707606,0.1514286414,0.1926248711,-0.2909951331,-0.952586726,0.2905071544,-0.4324257512,0.779051282,0.5203659105,-0.5806911625,0.9889774611,0.1797097823,0.2216924782,0.8403781455,0.0336916248,-0.2355272915,0.5068769343,0.3092652905,-0.1882754961,-0.9728410382,0.7228216874,0.4362718377,0.4809530942,-0.4139638151,-0.4185343217,-0.6288073325,0.232047747,0.1130098931,0.2441353934,0.2581884576,-0.8965035787,0.3061428597,-0.9770181039,-0.9875589272,-0.0526090484,-0.3443500663,-0.5948865792,-0.8462026351,0.7811134832,-0.9050022642,-0.3569708649,-0.3379537101,-0.4413599415,-0.7529410268,0.7895630901,-0.3454240933,0.5046014493,-0.9365190746,0.5381408444,0.0327828956,-0.0710082313,-0.763999819,0.5269325012,0.108335127,0.1219150059,-0.8364953287,0.3117481939,-0.7352730081,0.4072160834,0.2278529947,-0.9655471663,0.7766771334,0.0928014413,-0.9694326568,0.4509152726,-0.7943912193,-0.0475506092,-0.067902787,-0.7229597774,0.7261964258,0.7238391238,-0.8440638985,0.5543409275,-0.9193567564,-0.7773457541,0.0915971262,-0.087888446,-0.3346511078,-0.1625023409,0.1752962862,-0.3535778696,0.3244615255,0.0772078317,0.6959872958,0.9037688792,-0.7171038699,-0.214163823,-0.8156473896,-0.1626942023,0.3282303655,0.0068371988,-0.2066436993,-0.9691225449,-0.3373431311,-0.6358338861,0.5430648706,0.5209768795,0.0885540443,-0.2672141486,-0.2934773656,-0.2751165798,0.4245275612,0.0673722803,0.3528635519,-0.7059480595,0.957954974,0.212553458,0.3991981803,0.2811134521,-0.002569676,0.374695812,-0.049418998,-0.0197868471,-0.7482684096,0.7261858485,0.0901413462,-0.3402987818,-0.2739194382,-0.7178284986,-0.4383063124,-0.6624212076,-0.2532586314,0.1636426528,0.3833748046,-0.1285924315,-0.2792059705,-0.2436928926,0.3500908523,-0.5530878008,-0.9204647578,-0.1624361084,0.245076334,0.0335455961,0.8577663733,-0.3495314332,-0.341262125,-0.1802462109,-0.1808449225,-0.3181298861,0.9492369002,-0.7338793711,-0.1376392889,0.4403389827,0.9336013471,-0.2562272751,0.214120135,0.1851281837,-0.3139506272,0.306370372,0.9438863276,-0.1323350107,-0.0451716183,0.1389339919,-0.1713107112,-0.3344729315,-0.1799724622,-0.0513542785,0.4887660821,-0.2584603917,0.8432006409,0.4321235649,-0.2300096872,0.6835261684,0.817486021,0.8829368392,0.0307883461,0.2376970104,0.435471211,0.7273384896,0.7878187138,0.3930004888,0.4250704815,-0.9774299133,-0.4479397681,-0.2527662099,-0.6619753931,-0.4606713383,0.3279471843,0.9528778382,0.3264999311,0.0624664613,0.7109067441,-0.9375163973,0.0520768691,0.4794852117,0.5558004577,-0.2048006436,-0.1249556623,-0.46911982,-0.1623736441,-0.2796045619,-0.0003629852,-0.6737251158,0.8031112716,-0.0549184284,0.7693234968,0.6935919627,-0.8810971672,0.3815365231,0.9633683783,0.006837528,-0.9103576353,0.0346177661,-0.3663513208,0.9891935512,0.0439722671,-0.8132353928,0.1322527124,-0.3217949475,0.4839313372,0.0773174989,-0.2204666962,0.7299772811,0.1266310794,-0.8550329996,-0.863622272,-0.4873583424,0.6811685696,0.4497597966,0.8038149715,0.851210395,0.0353763185,-0.9426757684,0.1822724682,0.1744916516,-0.2824955585,-0.3298084637,-0.1634844416,0.9716188903,0.1266835013,0.2674818697,-0.8153824839,0.8093923284,-0.7421114608,0.7364602209,-0.4167451425,-0.8797369,0.1373236579,0.1442218979,-0.1944771379,-0.0982455686,-0.5015045414,-0.3788747786,-0.5229246526,0.2902650526,-0.8781716879,-0.3367359821,-0.5437674217,0.4532365258,0.7402248891,-0.0788271058,0.1559328663,0.9730348378,-0.0397902859,-0.7506107248,0.3701694663,-0.6750517828,0.6092891629,-0.9140204301,-0.3974574386,0.7257553825,0.2361723901,-0.8045269847,-0.4980036351,0.6089125789,-0.4262742663,-0.2919521873,-0.6351350167,0.4978262173,-0.2614849855,-0.485852399,0.2116353056,-0.5640267497,-0.6724219523,0.8820639953,-0.4001087524,0.5411204636,-0.9305975534,-0.2067023358,0.8483801391,0.446579723,0.1616275014,-0.0994608059,-0.5586287986,-0.433023388,0.4528181904,-0.2554557012,-0.3245511464,-0.5784067753,0.6851076632,0.3341931998,0.3895237672,0.2507589787,-0.9177508794,-0.5002408612,-0.3617772897,-0.0057660254,0.4895153354,0.8220885463,-0.3403678739,-0.7728959759,-0.2668709761,-0.0117188266,-0.1857986568,-0.7775731303,0.2779643334,0.3105644046,0.9565934691,0.2307876926,-0.3440414762,0.4093599878,0.7872290135,0.6426369233,-0.7745037126,0.9838774824,0.4566111006,0.0540472363,0.8688554849,0.068064464,0.7340022379,0.8468308747,0.2720347527,0.0164214301,-0.6508745211,-0.0518227904,-0.1347920444,-0.620776838,-0.6704872338,0.4315863018,0.938788752,0.8320695553,0.4355109156,0.4186116936,0.9078116129,0.8080312248,0.1281807639,0.3692359261,0.4887314117,0.4052320942,-0.1316779666,0.9470198734,-0.462253194,0.5085450438,0.0812108442,0.8888538244,0.0721532501,0.6770346609,0.6142903271,-0.7472717701,-0.575635865,-0.7778294012,-0.4422458124,-0.9257181667,-0.1547011679,-0.3674129434,0.2839935082,0.2139579691,0.3377232747,-0.3278344553,-0.5929614712,0.3573815083,0.1310736936,0.2536728717,-0.6033933188,0.6693582151,-0.4668907889,-0.5867385642,0.3002399281,-0.3761610224,0.4833743444,0.7402008671,0.3374051832,0.2369332049,0.8739085493,-0.8652303651,-0.4254085896,0.0792238769,0.7298373696,0.8038784614,0.9741694945,-0.5180983755,-0.0235946416,0.8837989671,-0.8793327156,0.6159329681,0.7461233965,-0.7002029785,0.3504626103,-0.0288007126,-0.394914388,-0.5561681866,0.4319442447,-0.9076500487,0.5942196499,0.8271237141,0.2356506893,-0.4517502509,0.7306756027,0.4969407123,-0.9329406332,0.2890299343,0.0120302355,-0.4924066116,-0.4755100318,0.3907516284,-0.7526404708,-0.4628672614,-0.1634840484,0.5699185414,-0.2537505803,0.9921072964,-0.9540060056,-0.4225605114,0.4097662828,0.7823221235,0.1734305432,0.4617094271,0.0470313768,0.0554922946,-0.0417753585,-0.7079886316,-0.0904993953,0.5878229794,-0.5583410764,-0.4297363452,-0.5849104528,-0.0835351484,-0.6294208733,0.2428227193,-0.6281212123,-0.0409899174,-0.2878007009,-0.8798411578,-0.3003947314,0.4716283107,0.3033695432,-0.2675958928,0.6613088965,0.056600656,-0.1632920902,-0.4577641239,0.5083004323,-0.6397063841,-0.1485990956,-0.8705534226,-0.4045787603,0.1168888193,0.5242656645,-0.5626186735,-0.526682266,0.3918584679,-0.6990691963,0.883174787,-0.4499472039,0.6300303896,0.0606916716,-0.7722093975,-0.6842599844,0.1738413774,-0.605235406,-0.1628392694,0.5024047467,-0.6841366798,0.707798467,0.8858509941,0.2581101609,-0.9815408975,-0.9289708749,0.4903279164,-0.3023184954,0.5301441687,-0.5787469469,0.3982283757,0.023476996,-0.2617263263,0.3944967897,-0.7604323963,0.7882825438,0.7623689349,-0.4326652808,0.4378231404,-0.6854948907,-0.7787657023,0.1032039005,0.2432332626,0.7642997843,-0.1798210871,-0.7869155115,0.2603733073,0.0266343537,-0.6467569275,0.3896314049,-0.2736576649,-0.8056386455,-0.582613657,0.3078772373,-0.8762061555,-0.6706461357,0.7175140941,-0.5228458391,0.8730986871,0.6994464289,0.1335675631,0.1235522268,0.5578234378,0.073728291,0.0358927612,0.9232568928,0.8925954781,0.3820352813,0.1319998389,0.7739562218,-0.3811328848,0.9065389882,-0.7592136267,-0.3720289843,-0.5530400734,0.3775922342,0.9488959611,0.4803084484,0.3357186722,0.627344844,0.1560912123,-0.6363413737,0.0947354274,0.9073179942,0.4834356394,0.1729734168,-0.2768447625,0.0335647182,0.8522686122,-0.2687790489,0.6441504163,-0.2748247437,-0.1270670026,0.6922377078,0.8866706817,-0.7398413372,-0.2082493907,0.2211601309,0.440253256,0.9245089462,0.9897544474,0.0499266677,0.6320149889,0.0241071316,-0.1680456196,0.2824454353,0.1452881335,0.5575831915,-0.760383506,-0.657733635,-0.5628191319,-0.4926610944,0.2922024971,-0.7046419856,0.5769297823,-0.0967115021,-0.9704738949,0.0506420046,-0.7739573405,0.9724209223,0.5501106541,-0.3934063431,-0.0207110641,-0.5243877529,0.2146717552,-0.5154859316,-0.0750858328,0.0060489834,-0.998366562,0.0671499862,-0.3029156196,0.0004139137,-0.1357630559,0.9006865176,0.5192010212,-0.5881003139,0.0459926991,0.8439241752,-0.2817458301,-0.0915531197,0.6338909097,-0.8278677735,-0.235509313,0.0091622082,-0.6411839729,-0.0795182136,-0.074883608,0.0351382916,-0.086798062,-0.6054295879,0.0865840682,-0.2585795923,-0.93882706,0.2898922033,0.8165280311,0.102505096,0.1421472618,0.4963778032,0.8315422301,0.8182198175,0.4908425401,-0.2471633007,-0.850200021,0.7571830575,-0.4952266218,-0.9636127961,0.8468958258,0.5532611706,-0.1849154882,-0.3448227757,0.9606640474,-0.2617847224,0.5135210011,-0.2110634542,0.0004204006,-0.2363875697,0.7417766274,0.8609584311,0.121353272,-0.9368429806,0.2078453861,0.4847929446,0.1079059582,-0.1956472326,0.1663443146,-0.6071345462,-0.9445088927,-0.134692559,-0.5287918096,-0.9577774272,0.2395322385,0.825512128,-0.5572122003,-0.1831928359,0.741876853,0.0420329713,-0.853682555,0.7437466493,-0.9652817896,0.0432476337,-0.8572435276,-0.2542439014,-0.4548736132,0.6078857822,0.4960939028,0.6092572053,-0.9618429144,-0.6465341028,-0.0002223912,-0.493081361,-0.8139946972,-0.2104647613,-0.6816631841,0.8680903844,-0.9886513164,0.7025183677,-0.7919761122,-0.3685007077,0.566256768,0.2090058016,-0.5478991909,-0.7072001287,-0.5878725505,0.313017863,0.2145404392,-0.4276184976,0.3778688499,-0.8480840332,-0.7532302575,0.9113978809,0.0274547938,-0.4115772635,-0.8470024855,-0.7794468623,-0.542678667,-0.5293684736,-0.3094705934,-0.3764700191,0.6901168942,0.3649337658,-0.3184020265,0.0078400119,0.6906121247,0.0124609471,0.9571182537,-0.2485620793,-0.3229522413,0.8240087672,0.0050561945,-0.9154052938,-0.4313778077,-0.9739809942,-0.264674025,0.4542277569,0.4964251408,0.077395119,0.3630962404,-0.2689136479,-0.8351952535,-0.2263311382,-0.2925828064,0.2683286971,0.2107174784,0.3722084946,-0.9511100934,-0.8117015642,-0.2986522952,-0.7202773503,0.4811613279,0.1919176166,0.8922082742,-0.2489692472,0.5426728928,-0.1258375086,0.5974039687,0.4501392222,0.0555337259,-0.11785681,0.9330280307,0.6648405471,0.4150980695,0.0301932065,0.1983317525,-0.2041650753,0.8975227641,-0.5878365392,0.1762830111,-0.8596696511,-0.6469288399,-0.1976558423,-0.3516580016,-0.4172736864,-0.6747989473,-0.9496647729,-0.4508456695,0.5765102801,-0.827254074,0.1831356854,-0.2631028577,-0.5703777693,-0.970957324,0.2943648642,0.8779384969,-0.231873872,-0.615099079,0.4370024455,-0.6131808791,0.8340682728,-0.0239658287,0.3076817407,0.0001880012,-0.0630367366,-0.3454122362,0.8456947859,0.54218272,-0.8357136111,-0.6588041638,0.9981611666,-0.6201687076,-0.0067309958,-0.5713941606,-0.6458748741,0.6497778883,0.3493028964,0.7065925704,-0.9173566903,-0.1630128452,0.7224855155,0.750264706,-0.3646612376,0.7874159465,-0.5981911232,-0.6089323885,0.1478351198,-0.2458356499,-0.8014092451,-0.1003766265,0.2926454916,0.7160016122,0.2323639293,0.1889914987,-0.1272025191,0.8582513997,-0.943239062,-0.386015762,-0.1554703361,0.7583019144,-0.8780038179,0.2504628493,0.5044692274,-0.5636777243,-0.9162369275,0.9866442283,0.3171210632,0.1611820888,-0.7360243358,-0.8675703025,0.015930446,0.8713653772,0.5352103561,-0.387932796,0.1861360954,0.7493790785,0.5426956031,0.1592729141,-0.5278009914,0.3659600421,-0.9315957956,-0.4476894636,-0.1912423042,0.9005856295,-0.5637407236,0.2559546636,0.7552311835,-0.4917167006,-0.9682892429,-0.4381709732,0.4068853279,0.5221336908,0.7255006335,0.7188609668,-0.8559351921,0.2454196755,-0.4596299585,-0.8610463071,-0.9779263096,-0.304079076,-0.5596948053,0.6207448461,-0.7793575996,0.1702845532,-0.3131431967,-0.2288628797,0.356335722,0.4880006871,0.4436754569,0.1838000958,-0.5090589779,-0.0437324715,0.2255544395,-0.7184628425,0.727582711,0.7585460092,-0.0485726509,0.2250220859,0.8002143696,-0.2325964732,0.2874001099,-0.1247265743,-0.1840258643,-0.3502685942,0.9202037485,-0.4546007548,0.4827224841,0.0656226689,-0.7996523892,0.113448321,0.8303025612,-0.3029342952,0.788983446,0.6270338315,-0.616426785,-0.8399070466,0.9246393202,0.8307366058,0.6641436909,-0.6097341168,0.2985431064,-0.4640546127,-0.8099270926,0.6275759128,0.730555767,0.1858627633,0.0955054472,0.9089963684,-0.9404807845,0.1404118468,-0.1536619837,-0.4085224855,-0.6730900124,0.0743780101,0.1703225593,-0.1298704741,-0.6063959723,-0.1032118384,-0.5821097345,-0.8409510351,0.7210638368,0.7096997264,-0.2305229452,0.5332634354,0.5496186216,-0.0960960701,-0.2596850599,0.2620419213,-0.2049809879,-0.1029714095,-0.497741046,0.7425254742,0.0872729668,0.0692466362,0.3558431001,-0.6013772866,-0.8619106545,0.1560149577,-0.345083725,-0.3992871545,0.3421266658,0.9743524365,-0.8490332369,-0.3289119011,0.1171775603,-0.6176197499,-0.5721354973,-0.6003708524,0.586924517,-0.9318312699,0.6748577246,0.7028966951,-0.5405006399,-0.7888075974,0.5084614694,0.7340568975,-0.3544647604,-0.8284787402,0.9337327768,0.95761349,0.8436674549,-0.4113940549,-0.6497757743,-0.6516398901,0.3386217207,0.9351716299,0.3674853425,0.2664774049,-0.5953095538,0.2090711802,-0.4677556064,0.8034560295,-0.6195572446,0.0286736175,-0.9674705172,-0.0548284538,-0.1680335992,-0.4102174523,0.785661909,-0.2656145855,-0.5451222848,-0.8513415604,-0.3456183366,-0.8992409207,-0.5286364888,-0.3727702291,0.2022248812,0.1265307401,0.8486607418,-0.3286626628,-0.0909365157,0.4386812695,0.2129070111,0.6828821806,0.5774552079,-0.9285022317,0.5147400995,0.4860186673,0.5250688385,0.7230801397,-0.8779663999,-0.5002183685,0.4353701821,-0.6136978586,0.1160303261,-0.5281780547,-0.9205876188,0.1086526897,0.7286061682,0.9308202191,-0.2995762347,-0.2209683511,-0.7744953784,0.2305172705,-0.647515002,-0.076569106,0.242194224,0.635308417,-0.6826309636,-0.8744944612,0.9995772735,-0.260858807,0.415071257,-0.1096745742,-0.7413878929,0.7300437418,-0.251437833,-0.6358977062,0.0702984747,-0.8485856801,0.2542562626,-0.3557323752,-0.0610660547,-0.4485370639,-0.8409817059,-0.1530704698,-0.7847964462,0.2632633305,-0.0750478488,-0.6002736927,0.2121895409,0.107195827,0.6211101275,-0.2748262744,0.418229863,-0.5039136188,-0.0144703948,0.8182360889,-0.8853998833,-0.4012083617,-0.1206814812,-0.5683945925,-0.7149827308,-0.7080191761,-0.9627850158,-0.237471361,0.7781150349,0.3985224973,0.8769606607,0.8285324176,0.2671816445,0.8060460384,0.5247267476,0.9558463384,0.5735681598,0.8222661858,-0.7036166162,-0.5133309947,0.7590241091,-0.4007307107,-0.3242487473,-0.1753267312,0.5274707756,0.5450786054,-0.9155193129,-0.0769435941,0.4336999362,-0.770026969,-0.9797612094,-0.3425577529,-0.2580747458,-0.2965439636,0.340767786,-0.2198664353,0.7766931935,-0.3655754907,-0.9659168094,-0.4779837994,0.1681728462,0.80603582,0.9705522946,0.6941929807,0.6660646857,0.0514434589,-0.0625931948,0.1889800012,0.0514839439,-0.955975025,-0.6877523429,0.8598866518,-0.8654286333,-0.3492415068,-0.1195766759,-0.6324710895,0.1534736277,0.6274942337,-0.5945631637,0.6748183076,0.1676216513,0.3119455734,-0.7800983166,-0.855540693,-0.2430378606,0.3361228552,-0.5543935576,-0.5061961549,-0.7274868133,0.8341004408,0.6655160857,-0.333564643,0.8021559341,-0.1645741507,-0.5245404394,-0.7297634911,0.7727690097,0.6362914476,0.1753416301,-0.7534991822,-0.480316271,-0.6724408799,0.4527275762,-0.8121355627,0.1563191378,-0.1879174773,0.997424216,0.2074579856,-0.7397721237,0.4601771608,-0.1245860437,0.1556590617,-0.9074295845,-0.5498424865,0.63571101,0.1889472122,-0.7610278595,-0.6488430814,-0.3651370159,0.2489656934,-0.2973732794,0.1338688096,0.3447484263,-0.4051225005,-0.3858155513,0.3724910802,-0.1904712181,-0.9421875857,0.9853400288,0.022405572,0.3424563793,0.7672005746,0.3278585357,0.6152447349,0.3398493785,-0.3488975271,-0.8079170282,-0.1148646072,-0.7455233046,0.127863288,-0.4392798868,-0.3251970543,-0.5493526522,0.5499210842,0.7470361236,-0.8448321127,-0.8313931744,-0.3019822971,0.0507115086,-0.1472683399,-0.2260342282,0.1669919735,0.958257984,-0.9264913662,0.2525948937,0.3357215298,0.5175802612,-0.1784546995,0.3662470673,-0.5399653129,0.8957041851,0.1088145485,-0.0615465199,0.5128109862,-0.7301938473,0.8828008778,-0.7644789581,0.037496643,-0.7413377462,0.2089285716,0.1018235324,-0.2153550564,0.1562958874,-0.7115589833,-0.8252104183,0.7529793471,0.8510702779,-0.3557130687,-0.3704555995,0.8325795252,-0.4735034365,-0.1266480842,0.6435677119,-0.8183558292,0.2340050295,0.1590327502,0.1706918811,-0.7765437761,0.9944588398,-0.922151846,0.2859936564,-0.0256482986,0.9201564553,-0.2713382385,-0.2027328148,-0.9720974739,0.1830124976,0.9234727842,0.9213317693,-0.2726361258,-0.7473270253,-0.2390883117,0.6269232264,-0.1131514581,0.0432193511,-0.7666070083,-0.6730321975,-0.7663466789,-0.6532352249,0.8007458088,0.4951796056,-0.4290357464,0.2277155627,0.9418829604,-0.7854463604,0.2601488504,-0.7967563659,-0.9578016767,-0.063026017,0.65070729,-0.9104565341,-0.4721907564,-0.7440815489,-0.1410871594,0.068696874,-0.3576463597,-0.8378689379,0.4549924616,-0.0055306249,-0.2340487721,-0.9632180873,-0.5268751884,0.9182335663,-0.3284052008,0.2850309174,0.0879438614,0.9159096047,0.6568409734,-0.4382965416,-0.0996629021,-0.4231274318,-0.0991593043,-0.5461286144,0.1559910592,-0.4232125541,-0.5308717382,0.7258499389,0.3551105485,-0.1660342575,0.7607645595,-0.732408956,0.9542547196,0.7448456098,-0.0478535958,0.6110857066,-0.9362445294,-0.4124390966,-0.9503084735,0.4199155955,-0.0608877144,0.3383090033,-0.9435248833,0.8928199012,0.2293938942,0.80749081,0.303584126,-0.5327398767,-0.7963045614,-0.2149837486,-0.2125319951,0.2086179613,0.6191877562,-0.5222714953,0.539291541,-0.8467583832,-0.6651994056,-0.4202818727,0.4133375071,-0.3926531903,-0.427623009,0.9253583862,-0.6064204467,0.8320435056,0.420397036,-0.1767057664,-0.0881604929,0.0023673659,0.2877492127,-0.0038184856,0.0771792204,-0.646478408,-0.963747687,-0.7705876818,0.5805510044,0.7079726634,-0.3549789037,0.2278786509
   -0.0135491358,-0.3181318581,-0.8600355778,-0.9135621452,-0.2081679507,0.4083426939,-0.3596878556,0.281027337,0.7456684938,0.943423955,0.8200547876,0.9701576095,0.7766923271,0.3353755432,-0.6312367841,0.7183199868,0.4352946153,-0.586879742,-0.8618330756,0.9726353707,0.0216405479,0.2824808264,-0.9218205361,-0.310710623,0.9278477506,-0.1034060203,0.401895619,-0.4831305915,-0.7413293167,0.8442784685,-0.1813963329,-0.8802990448,-0.0861030088,0.3891552317,0.1896240883,-0.1586583872,-0.6025121309,0.4675105289,-0.5407655859,-0.5945250803,-0.1080297569,-0.6818316766,-0.7170465026,-0.2697396601,-0.1513553102,0.6858447462,0.5091339301,-0.3255265761,-0.8022080567,0.6826484496,-0.5085601185,0.5656167647,-0.5544859785,-0.3695834317,-0.689241904,-0.0240533248,-0.2147035378,0.8107739078,0.1973958099,0.2940443772,0.9757727941,-0.8143712679,-0.2379938657,-0.7913754599,0.3353094756,-0.6245299985,-0.0846473048,0.5760085162,0.7784312366,-0.8177651537,-0.3871305576,0.8754059871,0.588252362,0.1986717075,0.1427628478,0.3681189136,0.4289038511,0.2846257904,-0.2639254463,0.3300716534,-0.822804204,0.4174552127,-0.8702691128,-0.4102423407,-0.0580197854,-0.0920133751,0.1619531621,-0.5321804227,-0.7934282388,0.6829514056,0.5312592563,-0.2077643542,-0.1035539606,0.6649993763,0.2876442873,0.4314974187,0.5597928853,0.1708412863,0.9738883957,0.3761252076,0.5918671437,0.5745762825,0.2623472884,-0.4994881557,-0.2477392188,0.3225249266,-0.6259216824,0.4684886147,0.996358374,-0.3513909362,0.1383945152,-0.6591699099,-0.6970380876,0.0873103827,-0.2210856247,0.6147851268,-0.8439492913,-0.0142879724,-0.6104777417,-0.1996661973,0.2834825831,0.8816960984,-0.6130422037,-0.1586320328,0.4486394059,-0.4832127716,0.0769657849,0.3932426532,-0.12013128,-0.6837806101,-0.9976962454,-0.7885918607,0.1684278086,0.3983242173,0.1810735627,-0.2333635497,0.1090872267,-0.6304134038,0.6539566738,-0.5573818675,0.0541202574,0.6601007645,-0.878087421,0.6597019409,-0.6929273711,0.2583154631,-0.948955678,0.4405391271,0.9376204052,-0.8247928408,-0.681984883,-0.9840748922,-0.1047388672,-0.1210263946,0.7492529048,-0.1068352995,-0.4146719401,-0.1054321249,-0.0548727928,-0.6661937511,0.1907287659,0.0053352991,0.9782378793,-0.8521053667,0.1235919748,0.4274725766,0.1062184576,0.5997657818,-0.286523838,-0.3959177413,0.3282681029,-0.7384681481,-0.7332146976,0.0966900713,-0.4795538754,0.5943342043,-0.9877184353,0.9410682825,-0.9962326894,-0.9367601671,-0.4734693747,0.5344260044,-0.2037500733,-0.871937098,-0.0738626943,0.7164820957,-0.8971782131,0.8110900108,-0.75819206,0.0312665381,0.2668946698,-0.0586211357,0.9505603974,-0.7979223041,-0.9202189851,-0.050840618,0.5945017771,-0.6371261942,-0.3411511124,0.7425768051,-0.8199850212,0.7390960298,0.5268522937,-0.6391571116,-0.9673446968,0.4320879713,-0.585401791,-0.5250233577,-0.6194471269,-0.2321941987,-0.0707078799,-0.499651074,0.9863629949,0.8069829853,-0.6923000897,0.0734985563,0.5382609567,-0.4616829687,0.5195409141,0.3545781594,0.6882744199,0.4597852845,-0.617769453,0.1794802799,0.6839328236,-0.5727165088,-0.7974430406,-0.5144621197,-0.4084433519,-0.0618406869,0.0294835634,-0.7679301175,-0.6311306314,-0.7067299073,0.4158416593,-0.9390817555,-0.3412510293,0.8074004892,0.713869258,0.3844757963,-0.9735850748,0.6961897495,0.5184264431,0.0491038297,-0.6518159758,0.7215621346,-0.6204442157,0.2775444363,-0.9686736933,-0.1055897754,0.651324341,-0.8439649059,-0.5650919897,0.599596509,-0.6532259273,-0.2166926204,-0.3117817707,-0.8106546148,-0.5928041693,0.2407924144,-0.9689984157,0.6838794644
##end
biasActivation=0,1,1,1,1,0
[BASIC:ACTIVATION]
"org.encog.engine.network.activation.ActivationLinear"
"org.encog.engine.network.activation.ActivationElliottSymmetric",1
"org.encog.engine.network.activation.ActivationElliottSymmetric",1
"org.encog.engine.network.activation.ActivationElliottSymmetric",1
"org.encog.engine.network.activation.ActivationElliottSymmetric",1
"org.encog.engine.network.activation.ActivationLinear"
