encog,BasicNetwork,java,3.4.0,1,1499298285890
[BASIC]
[BASIC:PARAMS]
[BASIC:NETWORK]
beginTraining=0
connectionLimit=0
contextTargetOffset=0,0,0,0,0,0
contextTargetSize=0,0,0,0,0,0
endTraining=5
hasContext=f
inputCount=5
layerCounts=1,24,34,24,14,5
layerFeedCounts=1,23,33,23,13,5
layerContextCount=0,0,0,0,0,0
layerIndex=0,1,25,59,83,97
output=0.5922314584,0.594478986,0.8078069257,-0.7105666705,0.7801730343,0.5838522039,0.2121860043,0.8051818231,-0.6871501513,0.796554703,0.8390836037,-0.834343254,0.0538515597,-0.9037268249,-0.3653273222,0.6563489834,0.7919607741,0.4989624785,0.6408930974,0.7953848409,-0.4694110361,0.8416011164,0.3873903435,-0.7826956219,1,-0.9671813993,0.9967698437,0.9320261405,0.907685063,-0.8785532541,-0.918895819,-0.8409941319,0.9305865857,0.9520363922,-0.8450666297,-0.929240497,-0.9662152288,0.8953995149,0.8699457685,-0.8607263463,0.9979411965,-0.3179629231,-0.8765212969,-0.9304648683,0.9969645882,-0.7646648425,0.9437729039,-0.9517832647,0.940604601,0.8698788525,-0.9140048994,0.7683981182,0.8633158503,-0.9417680194,-0.921882524,-0.9545315187,0.7947227028,0.886450979,1,0.5765297834,0.9323957842,0.7927205856,-0.7104985135,0.6432872275,0.5479943191,0.5472626222,0.3885665889,0.7398835695,0.5174371115,0.8512919346,0.4955497883,0.1637590647,-0.8421270056,-0.6578255476,-0.0492179029,0.036221818,0.7950856565,-0.1531168209,0.2001967358,0.8818023542,0.2985702467,-0.4077922919,1,-0.0062580254,0.3025949565,0.1616734365,0.0307723163,0.0467859291,0.1393355595,0.223681361,0.0518372496,0.0282827961,0.2874578734,0.0178750982,0.124221895,0.1722011789,1,-0.0052222313,-0.0601949815,-0.0501059976,0.0405882144,0.123878555
outputCount=1
weightIndex=0,24,806,1598,1920,1985
weights=0.0407894335,0.0958366668,0.0449495139,0.1440559469,0.0558164538,0.0540668121,-0.0520657048,0.0507072942,0.0974211299,-0.0620031732,-0.0449826457,0.013462282,-0.6312286475,-0.0222109217,0.0624524205,-0.0282803912,0.1024102838,-0.0712277271,-0.0869811504,-0.1130975998,-0.0139231234,-0.137263331,-0.1029682242,-0.7759648667,-0.5084413094,-0.4978117293,0.0849668363,-2.0986957255,-0.110751577,-0.6096563331,-0.9665563724,0.6917878826,0.9073995004,-0.164930761,-3.4265201198,-0.7596078336,0.7865203058,-0.2340772882,1.0771579215,-0.8101574813,0.0784860616,0.2343318632,0.9760682886,-0.9942971274,4.0909316394,0.5774851178,-1.3022109951,0.4757196769,0.2199139037,0.0233831753,1.8894259626,-0.8886752342,0.0319893285,-0.4535105923,-0.0432288668,0.5726572639,-0.2144548933,-0.2808788352,-0.3687052773,1.1186880656,0.5959770658,1.1260219026,0.0463090148,0.8145151552,0.2616579321,0.1161265767,0.9459704117,-0.254591572,0.5263158769,0.3344955338,0.1671434976,0.425754975,-0.8359258092,0.1238410127,-0.4297298629,-0.5951005741,0.3233033077,0.5326482252,1.3538308491,-0.2864704656,0.8231383685,0.4556887397,-0.0428941653,0.1838754005,1.0956031608,1.1277769537,-0.2213926752,-0.0042953796,-0.3422058015,0.7070009895,-0.1929355128,0.3952639264,-0.3322062429,0.3510390675,-0.1988525532,-0.4445546399,0.1336165351,0.2079007932,0.9231120427,0.3879534726,1.0388446135,-0.3483764096,0.5583785232,-0.6993738339,-0.6736996354,-0.6245912162,-0.8827453685,-1.0297034121,0.0579968752,1.2140280328,0.7684421817,-0.1910560187,-0.5015078841,0.4866056383,-0.549173328,0.4960041189,0.3070894263,0.3333145848,-0.0969536429,-0.1981555986,0.2907471746,-0.5913065603,-1.0203156906,-0.3384834511,0.0310669425,0.1129915189,-0.8330994193,-0.2571049634,-0.4087200633,0.2626774559,-0.8410920737,1.1752821973,-1.170434032,-0.1422451322,-0.5453016179,-0.6324432195,-0.9532053611,-0.0495029758,0.6138955486,-0.7588787274,0.0567303485,0.1194714543,0.1409936896,-0.9237049228,0.4383902211,0.6444619753,1.2287362915,1.0997642412,-0.0913901257,-0.8617308862,0.7686851598,-0.1959216167,0.5910236136,0.3616399509,-0.015016146,-0.809089215,-0.351274363,0.5672974268,0.7436351003,-0.6963633346,-0.0369131164,0.2901751662,0.1828336884,0.7861443729,0.2375580296,1.2632081957,-0.8499781392,-0.0441741314,0.3799584824,0.9052996943,1.6110860462,0.0962541544,1.4066261255,-0.3828888693,1.685786489,-0.3443465392,-0.8556818371,-0.4213783883,1.5844800337,0.4476281253,0.1546174769,0.2292898246,0.2615790362,0.1531503379,0.8876021832,-0.4779141993,-0.1285054445,0.5714788803,0.2412107474,-1.5204605972,0.4749385273,0.9674362553,-0.6389479439,-0.1180389445,-0.7544040938,-0.832594008,0.0405557841,0.6846586165,0.4735878666,1.0112423862,-0.5085903288,-0.1656054248,1.3505065963,0.6454836695,-0.1019111767,-0.2147080036,0.0112600031,0.9528794321,-0.0731746812,0.0248820946,-0.4964612054,-0.3892015343,-0.9871359056,-0.93549984,-0.5895375397,0.3705640436,-0.6582246597,-0.3350280389,0.9545167548,0.7038587789,-0.2772825337,-0.5862328311,-0.1565457833,0.3435999058,0.6654097421,1.357135614,-0.2037246216,0.2138136243,0.3801269561,1.0041205327,0.8829518112,1.8407441182,0.6172265248,-0.0601723023,-0.3692445714,-0.8184718131,-1.2069263154,-0.6298265866,-0.0715134319,-0.1996055129,0.7540241026,-0.6884134078,0.6975429361,-0.3354359349,0.4391242202,-0.2639927574,-0.0005615148,0.0457575301,-0.6105263743,0.8821141787,-0.1870676184,-0.1887990363,-2.0822472288,-0.1609654072,-1.4536701836,-0.7297803841,-0.8188070519,0.3674378971,-0.0198557978,-0.0128075302,0.7778654137,-0.957058353,0.4230748294,0.3238401619,0.7110770413,-0.8265746118,0.244189995,0.3301014925,-0.2348191999,0.235448467,0.7105008733,0.2089359375,0.4710971639,0.4714683173,-0.8867883527,-1.0667300557,-0.5140446522,-0.230616857,0.5875349586,0.635510197,0.6706307697,-0.0394883514,0.4844237007,0.5045511784,-0.3791350889,0.3119523415,-0.1597224965,-1.1579672188,0.7096356536,0.6992348252,0.0369538266,-0.0732299561,0.390583094,-0.8449332791,-0.4915713178,0.2214600845,-0.2833612985,0.8560725085,0.6500433471,0.4801939232,-0.4309743998,0.4391613506,-0.7965053094,0.1187365615,-1.1372420752,0.8102053323,-0.9532221972,-0.5827014473,1.2039908073,0.0145145236,1.110628212,0.3152512958,0.0263629825,-0.6327966325,0.556839255,-0.6835413986,-0.4493617387,0.2851397725,-0.536884821,0.2459938591,0.6556188039,-0.0963465238,-0.1735753343,0.2182618361,0.4191993416,-0.3854889547,-1.2446587965,-1.2185053129,0.9831782477,0.1679848769,-1.0005254868,-0.3653056566,-0.0432195971,0.290880868,-0.7916148599,-0.2521450507,-0.2887098195,-0.3205050118,-0.7817144479,0.4682160012,-0.5331131677,0.1302010879,0.4461239193,0.8174637047,-0.0087557799,0.810564912,-0.2855798933,-0.3928464287,-0.5876885431,-0.0771114181,-0.0650482291,-0.5806072835,-0.1607181585,0.1822268464,0.3412667753,0.3807285117,0.1717222341,-0.6161342856,-0.0833098989,-0.4820169153,0.7845673683,0.7731965943,0.7228203268,0.905910602,-0.329484012,-0.6964660392,-0.3832790147,0.1522756136,-0.8519460379,0.2716190578,0.0421027469,-0.0075786343,-0.9628100747,-1.4581756321,0.6234108025,-0.0854370974,-0.7266688866,0.2025623049,1.3738772887,0.1944828413,0.0559459267,-0.0765787546,-1.5159552997,0.6027910444,-0.8820468616,-0.0632499826,0.0409244041,0.1161871606,-0.0213469149,1.1373184321,-0.0210415491,0.154129504,0.4668610109,0.6600411237,0.6780668423,-0.7507853752,-1.1284590258,-0.0412386434,-0.6681766434,-0.9341822899,-1.4736284177,0.2223395996,-0.3955549451,0.385720284,-0.1031004394,-0.9882047641,0.6293075831,-1.6958410286,-0.5467515648,0.6010579442,1.1518243848,0.3175406012,0.5623560119,0.3403129493,0.7107333998,-0.1086609697,-0.7258930266,-0.7063760698,-3.0338758514,-0.6934140393,-1.0016343156,1.0855596035,-3.4321133224,1.6543714522,-0.3043438834,-0.5436644596,-0.9244271428,0.9200486288,0.4276010072,-1.6156244511,-0.7601992689,0.5818417072,0.5768795584,-0.9180561837,0.5907979053,-1.3187420751,-0.7800545263,-0.5337372755,0.7470254495,0.2002205698,-0.5336220022,-0.6874019343,1.0297970981,-0.5323050975,-1.1523170146,0.7956883479,-0.8792508217,-0.6076686759,-0.0107581504,0.9430138846,-0.7174509572,-1.5341606569,-0.8535760527,-1.4497140516,0.8861659618,-0.4755738186,-0.0721690767,0.1298047075,-0.9845934093,-0.2538981609,1.1590573182,0.3715472258,0.9460199017,-0.3501982349,-0.717004141,-1.118114774,-0.2390324922,-0.2357304895,-0.8868650671,0.3437637104,-1.0155048574,0.2027222103,1.1096444899,-0.9711531625,-0.1845398438,-1.1782650636,-0.4849017366,0.5124011496,-0.7270782935,-0.5037728443,-0.9511524361,-0.0596020587,-0.3685541349,0.4037886686,-1.0831748542,-1.1521965973,0.3026573567,-1.1747257536,0.2121045609,0.9000052544,-0.590995092,-0.8055832762,-0.8907589888,0.6315213709,0.5071066179,0.8490992565,-0.7398053517,-0.8776895328,0.3570151488,0.6502178229,-0.01294885,-0.0062837451,-0.4620295867,1.2647178892,0.0220447029,0.1079451857,1.0193931979,0.5803791559,1.1702692404,0.5451293072,1.2684361582,-0.2188415387,0.558761767,-0.278243074,-1.157173663,-0.677762042,-0.7481476959,-0.6148733446,0.1347000888,0.734116281,0.442066499,0.6226864382,0.8546837047,0.1669041894,-0.5914810914,0.3012456681,0.1990944791,-0.3480589931,-0.9271021449,0.3870733457,-0.2655745406,0.6704471182,0.3776849186,-0.1052529853,0.0708694175,1.97376897,0.3042892083,-0.3780920809,0.3041681125,-0.0251632684,1.4828301253,0.1677160785,0.7069183782,-0.4910444492,0.0878281448,-0.9077654763,-0.0299424001,0.4591471533,0.5363898989,1.1126397127,1.2418304112,-0.1225797088,-0.4636903516,0.2740549101,-0.0148565776,-0.5928733297,1.0286071557,0.5285744289,-0.347466628,1.1859491961,-0.1176152184,0.0783942178,-1.1410577991,-0.092876595,0.7958071866,-0.1574493254,0.7367506432,-0.7909398424,0.0600776729,-0.4351478481,0.815740428,0.4093448336,-0.0549138159,0.0740001626,0.9411069306,-0.4268033731,-0.0873640095,-0.2970205306,0.0776061562,0.0285133695,-0.0044319461,0.5787351522,0.4153243288,-1.0020064453,-0.8541460478,-0.4178249839,0.1353935928,0.9774648174,-0.3125037259,1.2967774268,-0.0086201857,0.159916091,0.7810174023,-0.3822127473,-0.3932902554,-0.6212492288,-0.8394319421,0.4554309011,0.2117953341,1.0646501578,-0.1552728298,-0.0459821754,-0.130327907,1.3096605766,1.0234346432,1.0803056026,-0.2580476273,0.3740008223,0.3441449411,0.9635776622,-0.3319035218,-0.6417383567,-0.0622997498,0.8408949791,0.210363693,0.7489186587,-0.8435053826,-1.2743149052,-0.3215280061,0.3068720678,-0.1894230298,-0.3396419145,0.0958173149,0.746531254,0.7733728462,0.3343171578,0.1820752928,-0.1312781436,-0.3986225247,-0.0299204692,0.6699255234,-0.0924195894,-0.288221611,-0.3546963139,-0.6421513379,-0.7561953209,0.2430077046,1.556542959,0.3646201669,0.183461855,-0.7137282779,0.3213199739,0.0732975398,0.7994120651,-0.5755349416,-0.1026591735,0.3453788612,-0.7851893275,0.0273403949,0.6182021791,0.3644080946,-1.1439237104,-0.3978181875,0.0613873986,-0.0539428155,0.1090299772,-0.7507914933,-0.0598239284,-1.0129139817,-0.3123377566,0.549068287,-0.3335360724,-1.2767001568,-0.3965016535,-0.4281387619,0.7965938802,1.1029531954,-1.1065467524,-0.4546842513,-0.1479263365,1.6665084323,-0.5243395594,0.3660268763,0.4797251687,-0.5721528694,1.116144912,-0.7316526227,-0.9145326543,-0.3996832351,-0.4239166539,0.8762351719,0.1019653333,0.5791236616,1.0597076283,0.1168369323,-0.389443126,0.5209776791,0.2308063622,-0.4007829254,0.6966892143,0.2697757673,-0.4439146333,0.3797978905,-1.2562625996,0.5580902979,-0.1583079592,0.5431672921,0.1191253735,0.5441842014,-0.1064675921,0.8256395183,-0.4174522627,0.366881324,0.2309525474,-0.144640995,0.774052275,-0.4482039611,0.8835734007,-0.5610466768,0.3160831532,0.6551732546,0.4767742846,0.4901473858,-1.034099534,0.5924976065,0.8818991337,0.1771402435,-0.1524391224,-0.2434795167,-0.6046091814,1.0324026683,-0.4946762925,-0.909688235,0.3914451072,-0.8900549882,-0.2299708438,-0.4294394324,0.4056502124,-0.5099791004,0.4453333331,-0.355575343,0.7571495497,-1.0248817197,1.4173614514,0.0263253256,0.813643222,0.1857018013,-0.6984923495,0.2624882444,-0.8593795842,-0.8111890005,-0.6026896675,-0.12785565,1.5204831696,0.3686702431,0.7792782568,-1.2262037393,-0.5555926284,0.0867544267,-0.5754701278,0.2206665547,0.5900300026,0.2346097253,-0.0858073446,-0.3867806344,0.1576494654,0.4884471113,0.1871914127,0.0307279065,-0.4325875372,-0.2077120393,0.4230513761,-0.5190518093,0.1763236038,0.221922749,0.5203790758,0.0293460079,0.4712686961,0.7344390504,-0.6502936335,0.088342024,0.7823065808,-0.9308957838,-0.4202200866,-0.3795646799,0.295766892,0.6583764216,0.1754929228,1.1972669367,-0.2335362984,-0.6012683679,-0.5507041723,0.1919370409,-0.5622769343,-0.5262925425,0.8316821305,0.6661759867,-0.575230268,0.9294467905,0.4215567548,0.5575847657,-0.0737415215,0.8544007029,-0.7265280878,-0.7820155134,0.0460744204,-0.4012640486,0.4046655796,-0.0471620158,-0.0602430453,0.3228552891,0.3178664629,1.1857221815,0.2076175468,-0.2972769488,0.1369615029,1.4193090335,2.9750707474,-2.2269607327,5.5371234725,1.1601338508,9.8631159322,6.9577829678,-4.4200028014,1.0383037272,0.7438326115,-43.1920935144,3.1128210274,9.4975503583,2.1852524799,-0.6135587598,-2.5181781894,0.7083046641,14.5619971473,-0.4763291351,1.3318694114,-0.5468718298,-2.2613373607,-15.3498274084,-0.3418054435,71.8117754412,-1.6181721049,-100.6579745716,0.0526560001,74.3923722161,-284.8313295436,667.0954921308,44.2005491856,20.0035370971,-145.5953758583,-9.5885820137,-400.6047647463,119.952630645,-12.0515018031,-909.0700777782,-181.9075692229,182.9786329934,223.1334806725,343.0239126031,282.224723232,-55.5716438749,-18.6872434364,-314.3294776093,2.6796216793,8.2914414767,9.8389867095,0.9524447661,4.2036748333,20.4142346347,4.0214616269,41.0116274201,-0.377803974,-0.9180172326,4.984779594,6.8835723485,20.9473153606,-33.5049778735,-15.3811566854,378.6702760686,3.206474264,-5.1185749329,-1.0904872582,-2.3806176965,10.5712568147,1.6508693998,1.1514710308,-477.4564085718,0.4623688375,3.4965940306,-0.793930396,2.0360107196,-0.8038512816,1.4712662184,-0.3428941684,0.0038704693,-0.0688636483,0.0948339912,1.6157040156,2.0009052543,0.7154398861,2.1001178722,-0.5738564011,-0.9541582683,-0.2350081929,-1.7443474234,0.0008896804,0.0548043931,-1.5413359659,0.6141004259,1.7854800299,1.6117943315,1.202414544,-9.6007875779,2.7739430531,-9.4946294517,7.4996725115,-6.4330457867,-3.9873332767,0.3006842633,-18.9992191465,-7.3111832388,-1.6419519877,-6.6839051356,10.6558814041,-10.5207709613,-1.7810725483,-8.6731323967,-2.5661279815,-2.039612032,30.9281110055,-3.0643293312,-1.1149829782,0.3201629038,2.6331130453,-2.5570418787,2.8514538664,-0.786233261,-2.7401556673,-0.8051394866,-0.0566929494,0.7383005765,-10.1327050102,-3.1532592174,-1.2292618709,2.2662665356,-6.6585534138,-1.0269211414,0.0666822439,11.8561325754,-0.1908852435,-0.5550943665,-0.9795221884,-3.9051224693,-0.2753337664,1.1710389439,6.3188225533,-0.3877827534,0.6711403982,-0.2241743967,0.4328817172,-1.4780991613,-1.7595518925,-2.8214759026,-0.0237910971,-3.2390532851,-0.0329246637,0.9322408217,0.8732976906,0.9892190389,-0.8731328614,-2.4074256889,-3.2181329345,-1.1120902758,-1.4789811219,0.9761153113,4.1164838041,0.5641168601,-1.0445888021,2.1306499912,-1.9173697292,3.3365123327,2.5471577212,-0.2942564637,1.2348813556,1.7565504735,0.5577154335,1.3177444065,-1.2976143777,5.9685806136,-0.9579940259,9.0602296392,-1.6549793176,-6.1614900385,3.022621202,2.6086140665,1.579907453,-1.9316072201,-55.2180128447,2.4188062352,-3.6554242046,-2.4049029398,-1.3991415279,-2.1974968101,-1.4889540257,2.2083830349,-10.2346474969,-9.0359938658,-0.1775839716,6.4573562322,-2.6534906356,3.915183836,0.4540124561,4.3092853791,-0.8645363146,-0.0151371253,-1.9705369843,1.3711251877,11.5607486669,9.1757588891,-0.8149437899,-0.5395718246,2.3163983983,-0.4803816612,-0.2306067451,7.8063573831,2.1192735076,-1.1375748411,1.7250582859,2.0500811821,-0.9309215089,3.1245500446,0.2320810282,-3.9236581869,-0.7363883032,-6.228285944,1.8400219774,-2.5046781294,3.7379540737,-4.492637883,6.4651958571,-1.3207145209,2.938097167,3.8182331769,-0.9549708172,1.9894556103,2.7234004118,0.2089294584,0.8823409893,-1.6465355005,-1.7077695417,4.3632252631,-0.1518659247,2.0240911977,0.4525284308,-0.7380586428,-0.652837324,-4.9434956753,0.7961282001,-0.2902879575,-0.1076016555,-1.2667491631,-3.5546527222,4.1750457801,1.2466045022,-2.7896829413,-2.2531980596,7.4310010999,-1.2397656169,2.5622369976,9.6012175238,1.275648627,0.3189618425,-2.5861140812,-3.7941987828,2.4184219553,0.2256588054,-0.299943063,-0.7796394208,8.1781200284,1.2436954081,-6.2935252635,-2.2803672883,-2.3093917724,-1.5472551921,0.0881822723,-2.7012882781,-18.4056316973,-36.9803220305,-0.3792163101,-4.6074648426,-8.3942209652,2.6493350768,5.165959957,2.5394794126,-3.5942129696,-33.617063985,0.3695148523,-11.8184104308,-0.782034378,0.2298577191,2.1450890865,4.7034441285,5.1033450497,-0.0408153528,8.6316110099,-0.5725044355,0.3620737989,1.7320323019,-1.6317622371,-0.8826650587,0.7798326223,3.6111206534,-0.3531348029,-0.1687177571,-1.2388236337,2.1311303406,-0.9961949227,-1.0861545851,-0.4038477718,-0.1180529011,-1.2643372982,2.7927770504,-0.9033066666,0.0932223279,-1.528616154,-0.7309064177,-3.9680630534,0.4945037081,4.9593353007,-1.1368850043,-4.9356453977,-18.0216721933,0.7551462738,-0.1153570556,4.535761213,-1.5478546611,0.5254486074,-4.7075045351,1.6818338619,1.25863029,-5.1470045938,1.2299229875,4.0713566371,9.1362649807,1.6834586493,-4.4857078374,21.7329782686,-0.3984490464,3.9853089416,1.3845987003,-1.1585433024,-0.165795015,-59.7788162186,-2.4320795026,-3.7155814845,4.5419596141,51.9740494935,2.5925675968,-5.2932009797,-8.2259489449,-0.6906169917,-1.3719236356,-26.2767414192,-2.8565104422,28.7584378103,5.6710734644,-0.8028605289,-0.72997558,-6.2888954449,-5.7573833928,4.0319182676,-1.4027363053,4.0998176624,9.0315536712,-16.2928272544,-15.6363000819,56.1326094483,-328.8945202921,16.9945194839,13.6281447083,26.0706398155,-2.0619530423,657.6378432771,-7.843079766,-21.1199332081,81.9632784702,31.2624305743,187.9291857278,16.2154559281,-52.1759167424,-19.4395552662,-1034.6296959626,-3.5512085591,9.388271623,116.646727898,135.9854331053,98.5997458552,275.3683122862,-1.1991332683,181.1040592125,-1.7799501921,0.7524109147,-2.2739545333,-0.2776031631,-1.9811009612,3.5399521444,-1.098206194,1.0385000258,5.5466729164,-0.1744312565,-1.9362756062,1.4391122984,1.1987609714,-7.5765411299,-0.4773494145,-4.8465015232,-1.3850171543,-0.5825206953,-0.9916397215,-4.6684230153,-0.2187323446,1.7691950157,-3.7944597357,-0.6835141317,-0.56976775,-0.8637208614,3.9994866144,2.1652467744,-1.1679232933,-2.4256103553,-0.2876590078,-0.5085592587,-4.7171270725,-2.0631733945,2.4392352073,8.1545058922,6.7142135837,1.594245837,-2.5220863002,3.3104174793,-1.611123624,-3.1827244166,1.1392391313,-0.9143101277,2.8844539456,3.1843498998,13.4132107571,-1.7084370003,14.525155143,-0.8449363244,-0.62042333,-2.9491896945,3.1163686268,-3.7754692461,1.7087207403,1.2663895273,-15.4129399772,-0.8040929144,-3.2428115432,4.2211677914,-26.5048638009,-0.5419178645,6.7420806799,-0.1626026817,2.1213602407,8.4317675964,6.6364433724,-1.5006054231,-5.2312070036,7.8317608059,5.6674046357,-0.2024552485,-6.7323706832,17.499901006,-0.2448518885,-507.9863821369,3.4395136706,-2.084818917,0.1884306262,-47.2642811043,450.8336330547,10.2368118945,2.0859916159,2.605468068,-49.7706625649,-6.6899804338,740.0415227159,16.7891791938,0.5279102781,-2.0675283065,0.9649191037,1.3095220433,143.3108521199,-8.4156020567,-0.1064329895,0.6279373227,1.1368664419,0.942725506,1.1046091735,8.8141937492,2.0653473331,0.2040763339,1.417805018,-1.3461119586,-1.7009376997,-0.3684622492,2.7683260613,1.840165085,-1.1803481683,-0.4304365156,-0.1018884157,0.6073133,0.7246806802,0.5650920007,-0.7675310833,0.0427952162,-2.7680348961,0.4323680526,8.6801157213,0.8931799607,0.7807419196,2.948990938,-1.0787853581,-0.5473630315,0.3257742299,-0.9717247859,-4.2110958449,-6.3162011565,1.7625541871,-2.4713484771,-7.9524658714,-0.2123133275,-13.1138579382,-15.0561562017,-26.0725015337,1.5547242361,2.2881383952,-7.761992095,-0.8242084962,-4.3098908196,1.3310285206,-1.9737831433,-2.4627432858,-0.9190297063,-29.7374777183,2.0787469852,8.8810639483,-4.3516498451,-3.9325759777,-1.3769659736,0.7051086699,-0.8274095057,0.0620984903,-0.1060520018,-5.7103495231,-12.2958819379,-8.7831414336,-2.4476036885,4.3617158806,-6.52844466,-10.8913208284,0.1541072399,-7.537760201,2.9153740319,7.1572996546,1.0336883284,8.8268641396,-0.9653911967,-0.5057098288,-1.6550054998,-1.5752817148,0.3436403136,-1.2757623486,-11.2107989028,17.023482645,-0.4149558157,1.9705445667,1.2959759881,-3.1710382253,-9.1934766836,28.32450988,7.3024365256,2.0935750546,2.7901996022,22.3080622417,4.0034014258,1.2448631301,4.1755174058,0.5604383286,10.8938722625,-5.6830316364,0.0662823521,2.8550803087,-1.497894228,1.602942065,-1.4917825884,2.5043029797,0.0749662804,-1.3602272615,-0.6412848307,-0.8006764608,0.3942443819,0.9981388393,0.1957485984,0.424015304,0.3482305789,-3.5683074756,-0.0703940569,-0.4141790202,0.1214003143,-0.7376828668,-0.5390673083,-0.2801588793,-0.8285810904,0.2106548956,0.2010083659,6.0023405411,5.9280705149,13.3707773305,13.0820966091,-5.4758114911,3.3852436122,-8.588570428,-3.801732294,6.227963346,7.9782251819,-11.8778101016,-2.3306039195,4.0761211636,1.3406849301,14.2537597267,7.3868540172,10.5521292495,-8.9479025401,4.408141981,-2.4468312766,11.456074517,-14.4533250101,0.6026347362,1.8692380225,0.9449524697,4.3594069829,3.3876424681,3.492575406,-1.2244160007,-1.8487787928,2.7416655762,0.1983660226,2.4180362327,-1.3540235317,-1.617156445,-0.6327347633,-0.6337096591,-1.4817034947,-0.9505515202,-4.8297227035,-2.0178049058,-3.3586398569,-6.5309491249,0.9450386958,1.1828768964,1.9149108035,2.1058042011,0.6397417131,-0.4419902205,19.7192403529,-2.0188611607,-8.2177942231,3.6941679745,320.4989826777,-4.401830556,113.9640554714,1.3966640207,-1.8083230593,-13.7935801365,1.5288337014,-14.7215254544,0.5165004598,10.8259131347,-17.0367053748,11.000474196,-0.801397239,-3.817472002,16.1212785945,12.7061991191,10.7421805846,-1.0417961487,1.703630812,20.3041386053,28.7169759495,1.247721233,-3.8437792768,1.4934265318,-20.1624727985,-17.5641734973,4.1169891182,-4.0447572858,6.5537351369,-40.5784864567,3.6755541114,47.9587207795,81.515122236,-14.2016031541,-136.0028729415,3.6898499545,11.060296308,51.7007582436,-5.9081297043,-0.2596531568,103.9662852636,-12.3109188575,1.5111145887,-21.2271327207,-45.6364728593,-18.9279782002,4.591419507,-0.5463023127,3.1482703402,4.5069667313,-3.5746864499,24.3891188338,-1.8771428032,-7.4848118911,-1.5658295493,6.7995222295,1.3999378678,-4.3770143554,-7.9387464915,5.5262048634,34.056601508,4.7709236021,12.4937188651,0.0982260884,8.7846457385,-4.1874469612,18.990674779,0.2100889869,-6.8901618809,-0.1125089574,4.7600893784,1.0965193234,-1.854829418,-13.7459242368,10.2544901514,0.9082183367,1.2026177338,6.3209168577,0.2041125902,-0.5007578659,1.4496767241,-0.7406497678,-0.0186607006,-4.3969970041,-0.4301898558,0.1502659531,-1.2217934954,-2.6670437277,-0.5530674768,6.9208932793,0.0021747863,2.2818988261,-1.5676461693,0.5847214747,-1.0514459974,-2.790552259,-1.6145053901,0.0555717016,-1.5205177156,-0.3626389767,0.8001142596,-0.3979088127,-0.0276323284,0.4740121467,-2.6380826906,0.1558492842,-0.7646671487,-1.695875968,3.7720398797,0.2306680026,-0.5197057889,-1.5511000786,0.8897833549,-0.9322507951,0.2458589436,-1.3202134182,1.2251815064,1.7207445997,-3.9621149949,7.2578689863,-2.2677179,2.4862352472,-4.8834647358,-1.4113834558,3.9849916064,7.586845628,-1.8167834919,30.31597843,0.3217206841,0.6480440802,0.5941923733,3.6397176206,-0.717897126,1.4341662875,5.6772897226,-1.2769542569,3.9068898795,-0.2515748459,1.4170402047,0.978864667,0.1048751613,0.9319651063,2.9313793183,0.2234094851,0.161830414,0.541840221,-0.6654304006,2.105048218,-0.7184489651,1.0626374344,0.7630821924,-0.9434056853,1.4510736705,67.7094972346,-3.9035308261,-33.1471291924,583.201796341,12.1927520123,5.7630697539,-20.2933586284,34.0345565666,-42.1880075724,2.1698369931,210.0160918213,-3.6270076965,17.7445275443,-3.7328334539,-2.0797360409,-2.5640523282,6.360686435,-0.5800097417,3.4517829004,14.2554268279,10.6576701369,-0.4643352479,3.8262275224,-0.4402297493,-5.340651416,3.3756724112,1.8025176292,0.7428096786,1.0457460797,-1.7984687925,0.1037545633,-21.1438691256,1.409232004,-7.4132053991,-1.0276395329,-0.4521693194,-0.3774307363,-0.0691210311,0.154604589,-1.9117269127,9.2748336491,-1.5546000927,0.0525615551,2.301322242,-1.8290531909,6.0014151913,0.3090440873,0.9120670597,0.6945179351,-0.6383760441,-3.4929395891,0.9324698158,-3.1673341937,-0.242869793,-0.7928625726,1.1211749902,2.2449095005,-2.2239733189,-2.0311038591,30.650950097,-1.2888529502,-5.0638829636,0.4356096077,-0.37458133,-23.6369024713,0.2787106808,-8.887445975,0.840384286,2.4666934075,2.074482141,0.7198180049,0.1281002851,0.6409079308,2.5445786495,1.5104285608,-0.1154297459,0.9156445348,-0.0281367085,-4.0922041501,-0.2547977503,4.0128064764,0.3842930204,0.7355397505,1.1680447539,0.5420314415,1.3196116572,-0.1839421618,2.4572416714,0.3736164733,0.4435268975,0.7155472429,1.1999022487,-3.0409122389,1.0302006344,-12.3730510249,-1.1344892585,-1.0484228895,0.1676967145,-1.9440124888,0.0538375063,1.7482759121,-6.7351619365,-0.8539403276,10.2069637769,3.585497654,-2.8502597692,-4.7207867685,-0.8370259536,-43.4819827477,1.9703821353,3.9955732551,2.0574031353,-0.5362264336,-0.8119003257,-0.131762432,0.0722055499,-0.806591211,3.0228965718,2.4781122806,3.2140179048,-3.7830401747,0.6287029489,-0.2883863165,0.9792541843,1.1983420082,0.565674866,2.2703643749,6.9382750112,-1.7498976498,-0.9026437139,1.1141587558,2.5973798616,4.5861055499,-0.4183220913,2.1560507994,1.8866226813,-2.3161983465,5.7600999768,4.3229053163,0.2762284384,0.3981509601,4.7753190662,4.0878970376,14.9580331561,-16.6216032914,0.9619843115,-0.1558238411,0.0694573077,19.597922267,5.7200282376,17.1599025705,1.8625451833,1.8485130455,-1.721098397,0.6254601798,0.9862672079,-0.9919784558,0.4072035791,-0.2838986009,-0.1484565698,-0.5050613413,-0.5668339194,-3.1312098482,-0.1759011788,1.3467339851,0.5790269061,-1.247414612,-0.5828657866,1.9757885432,1.0031220687,-1.8391352283,-179.4300109288,24.5339681617,-4.1158070072,-1.5300677955,15.4198608888,-7.8134220478,0.1554750038,-4.6889804597,9.8855923243,4.3663836672,-2.1881672014,0.2662749141,-2.296500451,-4.333392963,28.990798263,-0.9834080068,-1.122645272,-0.2679109367,-0.206982733,1.2521808557,0.7951657093,-0.4743932571,0.170918562,1.289653368,-2.370007775,-3.6180816028,-0.6583054299,1.2007065454,-0.9814012065,-11.4452136883,0.1237439696,0.6116706279,-0.33611613,-2.3075903069,-3.154797702,3.8055425577,-0.3487198179,6.12143042,0.0965433228,0.8003014948,-1.9955775487,-1.5641969015,1.4500162038,-2.7283284746,-0.2510027697,-0.2679450264,-0.9799096374,-2.6214243968,-1.7474267713,1.7660486319,0.6293003157,-0.2170845015,0.7164071444,-1.6651730854,7.2555934045,-1.5643950901,-0.426849052,-5.8941702654,1.2297864935,-0.1262330166,-1.2507751645,-5.8208463698,-1.0537589989,21.2762334584,0.4478636161,0.4840629751,1.9302636725,0.6155651297,0.938422583,-1.0152553385,-0.2425360441,-0.9349233161,-0.2115569229,-0.9615938421,-0.2682282032,3.5303879493,-0.1895525251,-1.21023987,-0.1923124735,-1.0973448218,-0.0776244135,-5.0922017692,1.6305915402,-0.7268788911,36.8716699872,-0.9356187633,-2.1149481354,-4.981600404,-0.3853965094,-1.6720362131,-0.2158451733,3.5490665591,-5.2965265753,-1.1111166241,0.9791767321,-15.9516526453,1.4260687697,-3.9979402852,17.2527860565,34.3245081804,7.1297425312,5.7545746966,-6.7837876887,77.3070247111,0.3022701408,7.1910933394,-5.877796806,0.5010737945,4.4907032697,4.2200905901,-0.0686604696,1.5681244004,-4.9301772137,-4.1204261875,0.4761211132,1.4857651419,-3.8606000297,-5.599838075,-0.787399865,0.9751723464,0.9559149244,0.5105190744,0.7971814366,-0.2672514838,-0.1117308754,2.3466184186,6.4665834339,4.9389792563,-0.5103753219,-1.8378458736,-0.5784744717,-2.2668763009,-0.7963006977,0.3261349304,-0.3826377946,-0.5344215351,-1.156967221,0.0511638681,-0.7447435904,0.7163774921,-1.0880379598,0.2120615446,-0.6663662585,-1.5310750312,-2.0618721234,-0.1497541539,1.6487876316,-0.6077898422,0.0859766221,-0.3889700946,0.7416955432,1.0365635605,-0.4517052785,0.1467879124,-0.9970238306,-0.1794725391,0.2611939572,-0.923706227,-1.2593700395,0.248270984,0.3618359014,-0.3022337954,0.6159300365,-0.6621013471,-0.4281036442,0.829411044,0.6534063142,-0.3863917439,-0.5610706088,0.1461442682,1.181255664,1.9287128112,0.2842304251,-0.9899409877,-1.3087311043,-0.4666900968,-0.271452403,-0.2271700471,0.2156836457,-1.4426445059,-0.5031413326,0.248109129,-0.857794951,-0.6902996541,-1.9938308835,-0.0793243093,2.258386821,0.2307725797,0.5807635567,-0.5848724967,-0.5593898691,0.2116949345,1.3915253629,-0.7674535938,1.0896852763,-1.0844372281,1.6017278129,-1.2562741892,-0.0358009802,-0.9513401149,2.9065965899,0.195539834
biasActivation=0,1,1,1,1,0
[BASIC:ACTIVATION]
"org.encog.engine.network.activation.ActivationLinear"
"org.encog.engine.network.activation.ActivationElliottSymmetric",1
"org.encog.engine.network.activation.ActivationElliottSymmetric",1
"org.encog.engine.network.activation.ActivationElliottSymmetric",1
"org.encog.engine.network.activation.ActivationElliottSymmetric",1
"org.encog.engine.network.activation.ActivationLinear"
