encog,BasicNetwork,java,3.4.0,1,1497402881332
[BASIC]
[BASIC:PARAMS]
[BASIC:NETWORK]
beginTraining=0
connectionLimit=0
contextTargetOffset=0,0,0,0,0,0,0
contextTargetSize=0,0,0,0,0,0,0
endTraining=6
hasContext=f
inputCount=5
layerCounts=1,4,16,8,14,4,5
layerFeedCounts=1,3,15,7,13,3,5
layerContextCount=0,0,0,0,0,0,0
layerIndex=0,1,5,21,29,43,47
output=0.2752016191,0.0756458554,0.6674318256,-0.7366024242,1,0.7356278262,0.6803784989,-0.9963079596,0.9971389832,0.5764924765,-0.6550634316,-0.9994288536,0.9997961172,0.81245279,0.7463757119,-0.9202262794,-0.998136451,-0.9996082775,-0.6872737334,-0.9966637002,1,-0.930712086,-0.6861743972,-0.5286383239,0.6987750072,-0.8195625153,0.5509626424,-0.435973173,1,-0.0625402898,0.5049139587,-0.0140114458,-0.5935502112,0.433912894,-0.3693851236,0.5886625049,0.454982115,0.220289705,0.0071416441,-0.7042181654,0.4723266743,0.2382337311,1,0.0983732777,-0.3484260131,0.3758351364,1,0.2752017407,0.27520166,0.2752015581,0.2752015541,0.2752015949
outputCount=1
weightIndex=0,4,52,172,270,322,337
weights=0.274767613,0.3248287192,-0.5961591346,-0.1910987393,-0.1315183329,2.946010118,-1.7635520709,-0.4259537418,-2.0025866068,0.9523252365,1.0092184449,-0.6106586821,-0.9927398058,1.0766289933,2.0911577277,-1.8020798873,0.2148866588,-1.6999203716,-0.0826008282,-0.6849325504,-0.1919548789,2.2949267661,-2.1723635282,1.8674539021,-1.5463384244,0.1355068409,1.0974892259,0.0615137854,-0.4610084403,0.2678778127,2.6576932248,-1.7813607665,0.6684697752,-0.8861240341,0.266401067,0.2031968043,1.6043096766,-4.0462293211,2.6429030789,0.1572596179,2.557854521,-0.4132270418,-1.0321010969,0.271538421,0.933466696,-1.8452541343,-3.2601487812,3.1925477395,-0.7310756448,1.5137785234,0.2974297499,-0.8446974638,8.6724673094,3.5346975513,-44.9229331332,1.0082941413,-5.0767320584,-1.6396327497,-36.7719567607,-0.6087799232,-0.7185303721,-1.2953834988,-0.4373470706,0.3593640814,-0.8282992672,0.1173138197,-0.720471338,-0.9410222939,21.9623435483,0.53502249,120.4206845956,7.3639198377,-117.5848405039,-1.7049968991,782.4704504925,-1.1323927185,108.8275641208,-2.6451471252,-557.2576292662,-42.7065657115,-5.1576115046,-45.7485894623,-32.0083218989,8.608236269,-15.9332055457,0.7183206157,13.0906476472,-0.4915618457,0.6802049069,-5.0663698657,-123.5380197161,-9.1450924273,91.7657740387,0.1361968071,-93.9735733741,27.651708366,-0.0994900279,-2.0929215004,-13.5383575248,0.8838169985,-2316.2765026188,404.7809862738,379.693307733,-704.5638669603,2741.1943568033,-2961.3034152767,229.8769216067,-562.1566394809,-278.982946729,-344.7162247502,-449.1895944275,355.5081651766,-6172.4675443686,390.1356124194,-205.3769119268,350.1098430349,6.5240872837,0.3543234625,-0.5022833562,2.5697153339,-3.7939700397,0.5039853189,-3.5129414876,0.7079688163,2.1963732285,-4.2300975277,0.6546719412,2.5372521458,-0.3018837753,-1.5013824924,-5.3813654502,0.1660403885,-1.4610055686,-0.919431904,16.7693901532,-10.2550413125,0.7725604583,1.0944116067,-0.7955224584,0.031110817,-42.1785145881,69.1250207487,-419.8475824274,168.4446120047,485.3447732137,-1182.8810311107,-442.4280744201,-54.8138339691,228.1515317529,142.4520825278,476.284532448,-179.1568263942,3135.3574636187,-165.0326552237,64.4044309969,-150.3030271184,0.1877086269,-1.6294277128,10.5570320214,-5.0889905273,0.0941020845,-1.6813989689,0.1711290212,-0.7514099581,1.5107246808,796.8483462241,63.9773398203,221.2807542631,-0.156691552,128.7367833219,-0.5041257337,114.781812021,-9.2119166642,-0.6326069775,-2.704476603,-0.023263726,-2.485239539,0.2740078737,-0.0025027735,-0.5777069745,-119.2514481683,13.9160584778,0.1590772969,1.4663954088,9.8294894923,1.1180389599,-0.8564274768,2.9328677634,-1.6430674514,0.0989622092,-0.0320641531,-0.1749218274,-4.6371429702,-0.2032049039,0.076607766,-0.6973636746,0.3005066057,-0.6317507511,0.0118339628,-0.2276770664,-0.7716687436,-0.3972279365,-0.5434550498,0.8033068322,-0.0537164777,-0.6922063547,-0.920575394,0.5561866882,-1.4823736263,0.574542775,-0.2774429081,0.4639356499,0.710664562,-0.5855850744,-0.7695692246,1.2680557339,-2.3568256818,-0.2031516067,2.6768070079,-0.4975049431,0.0293426907,-0.5742051475,-5.5009594102,0.8131177177,-1.0938179964,0.1302617114,1.2575284596,-0.2936320669,-4.5511863685,-2.0699947467,4.6582172235,1.6511936639,-1.2261179883,1.7878911819,-1.6558663711,-0.1963330792,-0.2427699866,-46.3029858713,1.7969087087,-8.9274513959,-4.2457892093,-1.9249577477,-0.3112082439,-1.3649378295,1.3324687201,-0.2114232381,0.4987494879,-0.9174043195,0.8548581054,0.7387648538,-1.7846177702,-0.4668936433,-0.4770680488,-0.0932643952,-0.6538075656,0.8155701246,0.7730089819,-0.6437525407,0.4186606003,0.8695399738,-0.0626331389,0.3611168232,-0.3949417063,0.0866374824,1.5007858956,2.7007994198,-0.8199496146,1.2546907603,0.9137980893,-0.3952770817,1.7776895291,0.4640939397,0.5772803764,0.0394486566,0.9039471777,-0.6402671921,0.0519457386,0.7105758632,3.8632672378,0.4541234673,-0.4681467127,0.1591728343,-0.2508146004,0.7644096614,-0.455634396,-0.8938043334,29.0857635251,-20.9150337055,9.4989274524,3.278862312,-0.1250879854,-0.2849200059,-3.2388573408,-0.7113668853,0.5175862637,-0.2256385959,1.1718696001,0.9052565753,0.0452007567,-0.1370390948,1.6743338414,0.6949766615,0.7706517245,-0.6428644252,-0.26702631,-0.1606548978,-1.0285458603,0.6199995087,-0.9939830279,0.8110105556,1.0736104007,0.4141610961,0.1201024946,-2.7995661591,-1.0552246636,0.8945885898,0.2995501385,1.2754496163,-1.6723249674,0.8425587177,-0.9118992484,0.9448639065,0.8655427152,-0.0010740303,-0.6792202725,-0.5185648154,0.7496278731,1.1256667325,1.200160475,-0.6669257952,-0.7211818128,-2.471942464,-0.9974503266,0.2857019323,0.7684591276,0.5329017318,1.0550097921
biasActivation=0,1,1,1,1,1,0
[BASIC:ACTIVATION]
"org.encog.engine.network.activation.ActivationLinear"
"org.encog.engine.network.activation.ActivationElliottSymmetric",1
"org.encog.engine.network.activation.ActivationElliottSymmetric",1
"org.encog.engine.network.activation.ActivationElliottSymmetric",1
"org.encog.engine.network.activation.ActivationElliottSymmetric",1
"org.encog.engine.network.activation.ActivationElliottSymmetric",1
"org.encog.engine.network.activation.ActivationLinear"
