encog,BasicNetwork,java,3.4.0,1,1501310834173
[BASIC]
[BASIC:PARAMS]
[BASIC:NETWORK]
beginTraining=0
connectionLimit=0
contextTargetOffset=0,0,0,0,0,0,0
contextTargetSize=0,0,0,0,0,0,0
endTraining=6
hasContext=f
inputCount=5
layerCounts=1,89,87,90,83,86,5
layerFeedCounts=1,88,87,89,83,85,5
layerContextCount=0,0,0,0,0,0,0
layerIndex=0,1,90,177,267,350,436
output=0,0,0,0,0,0,0,0,0,0,0,0,0,0,0,0,0,0,0,0,0,0,0,0,0,0,0,0,0,0,0,0,0,0,0,0,0,0,0,0,0,0,0,0,0,0,0,0,0,0,0,0,0,0,0,0,0,0,0,0,0,0,0,0,0,0,0,0,0,0,0,0,0,0,0,0,0,0,0,0,0,0,0,0,0,0,0,0,0,1,0,0,0,0,0,0,0,0,0,0,0,0,0,0,0,0,0,0,0,0,0,0,0,0,0,0,0,0,0,0,0,0,0,0,0,0,0,0,0,0,0,0,0,0,0,0,0,0,0,0,0,0,0,0,0,0,0,0,0,0,0,0,0,0,0,0,0,0,0,0,0,0,0,0,0,0,0,0,0,0,0,0,0,0,0,0,0,0,0,0,0,0,0,0,0,0,0,0,0,0,0,0,0,0,0,0,0,0,0,0,0,0,0,0,0,0,0,0,0,0,0,0,0,0,0,0,0,0,0,0,0,0,0,0,0,0,0,0,0,0,0,0,0,0,0,0,0,0,0,0,0,0,0,0,0,0,0,0,0,0,0,0,0,0,0,0,0,0,0,0,0,0,0,0,0,0,1,0,0,0,0,0,0,0,0,0,0,0,0,0,0,0,0,0,0,0,0,0,0,0,0,0,0,0,0,0,0,0,0,0,0,0,0,0,0,0,0,0,0,0,0,0,0,0,0,0,0,0,0,0,0,0,0,0,0,0,0,0,0,0,0,0,0,0,0,0,0,0,0,0,0,0,0,0,0,0,0,0,0,0,0,0,0,0,0,0,0,0,0,0,0,0,0,0,0,0,0,0,0,0,0,0,0,0,0,0,0,0,0,0,0,0,0,0,0,0,0,0,0,0,0,0,0,0,0,0,0,0,0,0,0,0,0,0,0,0,0,0,0,0,0,0,0,0,0,0,0,0,0,0,0,0,0,0,0,0,0,0,0,0,0,0,0,0,0,1,0,0,0,0,0
outputCount=1
weightIndex=0,89,7745,15575,22962,30100,30525
weights=##0
##double#30525
   0.0256627143,0.0092329601,0.0388363108,0.0755781367,-0.0930703164,0.051239192,0.0829351533,-0.0464646935,-0.0907449023,-0.1759385881,0.0742079042,-0.0256261889,0.0544930433,-0.0459054713,-0.0254532266,0.0118321959,0.0310024389,-0.026490651,-0.0533964814,-0.2364004711,-0.0966198629,0.0866281124,0.297428558,-0.0452783885,-0.0983797919,0.0326353183,0.0208354411,0.0095898813,0.0770610164,0.0509367193,0.0095370111,-0.1315133213,-0.0421303328,0.0355553113,0.0890151277,0.0435776213,-0.0631825852,0.0891531017,-0.0170250045,-0.0536167449,-0.062622241,0.0307071012,0.1148017143,-0.0115828607,-0.1646453083,-0.079335276,0.0595856136,-0.2116601272,0.0651847761,0.0085960539,0.0484478411,0.1125918754,0.0641185318,-0.2004228922,0.0228083138,0.0518073568,0.0599059396,0.040995042,-0.0239724082,-0.04230569,0.1112623263,-0.0725046139,0.0339441164,0.1333147671,0.1352515686,0.0936333911,-0.1089027428,0.0262751335,0.0855127694,0.1035288069,-0.049274369,-0.0654478284,0.0486722192,0.1779177045,-0.0317420738,0.0533858533,0.0953615965,-0.0833794411,-0.1080078668,0.0462195914,0.0061629447,0.0848509636,0.0794396913,-0.1623091101,0.0162114304,0.0297669941,-0.0303388827,0.0108973021,0.8908979593,0.200920282,-0.1058024205,-0.6760289849,-0.4556423099,-0.6871756055,0.83158146,-0.684494491,0.7350142711,0.9077398212,-0.7154387658,-0.4613813231,-0.3915771061,0.1542949672,-0.4107316697,-0.5342077343,-0.4409147582,0.2536442173,-0.7136921798,0.5609847376,-0.3373691404,-0.742126703,0.8472105839,-0.7994229285,-1.0784962306,-1.0004878493,-0.7736616644,0.7780289446,-0.6058766835,-0.765761061,0.2901526739,0.1435585135,0.1634130108,0.3640741777,-0.0779898346,0.6875921548,0.4162744062,0.9299252837,0.6483795958,-0.6354383671,-0.4460919892,-0.2144776225,0.8301254214,-0.0366405602,0.6806576922,-0.6791538506,0.2898479546,0.5788179197,-0.381577405,0.7771068708,0.6605806049,-0.5843173383,0.6868303657,-0.6909175701,-0.8949243556,0.0279325228,0.5418568668,0.7705573097,0.3955472804,-0.3075406952,0.0894371605,0.2705777216,0.5136039135,0.9153515987,0.677842946,-0.9041031943,-0.7621987882,-0.3731058466,-0.943789559,0.5455857904,0.765005841,-0.7600130742,1.0528596144,0.5772818172,0.0071188852,0.253819494,0.3179683958,-0.1603584928,-0.5636231179,-0.4480552394,0.8655132498,-0.4706844699,0.7993498641,-0.086126922,0.4614573206,0.3856755097,-0.7013098814,0.4090569903,0.1790891579,-0.8611507559,0.5593844402,0.6076713109,-0.3874233365,0.9898587501,-0.7457545538,-0.4835170735,0.6106628771,0.3286114724,-0.0279619023,-0.6712026446,-0.4934377868,-0.7777027236,-0.8833481091,0.1091963212,0.1419357425,0.5021559216,-0.1542638801,-0.363142267,-0.2469217572,0.3746215253,1.1290539791,0.9389962835,-0.2259314904,-0.0989001158,0.0068553241,0.0636144263,0.369089889,0.6268747388,0.427847667,0.3615255775,0.5384188733,0.6343535442,-0.3804134587,-1.5404970165,-0.3979564155,-0.8207626584,-0.6165861588,0.0139711758,0.5592123829,0.433425661,-0.0810666359,-0.1124774866,0.7999099367,-0.0096325166,0.2049849732,-0.0205076657,-0.09874356,-0.5500312676,0.7364880009,0.0059382266,0.2704053979,0.2679969718,0.7684089636,-0.6211807407,0.2024215976,0.3492724696,0.2726401276,-0.2934063899,-0.2896654489,-0.7989366698,-0.486213222,-0.6490852739,0.6346605736,0.4595773173,0.3239012827,-0.5827525472,-0.0193500125,-0.4664823433,0.8901432004,0.3294116931,-1.00514321,0.7105592052,0.1895144808,-0.5453347549,0.5030227009,1.0580225891,0.4882961197,0.6891883669,-0.1987066716,-1.001410686,1.2254261508,0.6157851654,-0.0031813901,0.645185706,-0.1896167444,0.9263568195,-0.6724919668,-0.7590482076,-0.1266642439,0.768569649,-0.5270416557,0.295361411,-0.156554907,-0.3346469448,-0.2918309535,-0.5379834414,-0.2697325823,0.5973356562,-0.6546958378,-0.0325097588,0.7703565096,-0.6595009719,0.2222666309,0.9169751079,0.7221593425,-0.4947813188,0.284931207,-0.2032617922,0.5218291415,-0.7653090631,-0.0154930816,-0.0573886202,0.2360365172,0.4749255087,0.088740686,-0.0068488817,-0.6940264361,-0.3971872016,0.1076376797,-0.5558730608,-0.195586961,-0.5268126597,0.8380166019,-0.7008649491,0.6843617956,0.1981247268,-0.9674447978,-0.1409038111,0.551840447,-1.268582854,-0.499593649,-0.2508206322,1.0478461447,-0.2866103954,0.4593106777,-0.958572564,-1.0213787205,0.7379380963,0.0360227089,-0.696167911,-0.0625721678,-0.4572283742,-0.2785844358,-0.7717439915,-0.0788568976,0.7195468266,-0.6583521754,-0.1358785194,0.3802762481,-0.2614085253,0.652828552,0.9621604624,0.255006247,-0.3281335095,-0.0929202719,-0.393468442,0.3873659712,0.252681546,-0.8637231862,-0.2272465478,0.7014107252,-0.259058847,-0.9583355006,0.3216539329,-0.4628567562,-0.1413192041,-0.9241109588,0.247770092,-0.3829747533,-0.8865641474,0.3004896416,0.4018530721,-0.1799216908,-0.0524047705,-0.6509960819,-0.3231011934,0.2970988031,-0.9411626901,-0.5117395929,-0.3845750168,0.1784010835,0.0447793047,0.7523256185,-0.308813296,-0.6448360053,-0.781126226,-1.0023578224,0.4638645731,0.5332907972,0.9356791913,-0.3249914254,1.0527648184,0.5437810222,-0.0736849123,-0.6474017396,-0.2672854753,-0.9805289436,-0.6442548024,0.2081483803,0.5034650532,-0.0817424786,-0.5634236105,0.8417245043,0.0909903658,-0.0038971994,0.4210026754,-0.7942720041,0.1996678452,0.0142579409,0.5251328853,0.6859726265,0.3437535116,-0.8560212432,-0.3524991711,-0.054570729,-0.4490036255,0.25074883,-0.2891215796,-0.6663235573,-0.0469678655,0.505887118,0.7791045641,1.0451110562,-0.8019226435,0.3735664227,0.8605768878,-0.469583621,-0.7672095856,0.217687192,-0.4976644043,-0.8986101178,0.8126695251,-0.6547758327,-0.2587297857,-0.6430774512,-0.4488237579,-0.4327419797,-0.3003279401,-0.3131360335,0.5356390568,-0.8661738145,1.0898498416,0.8221046797,-0.4852941956,0.7617717259,-0.0845244165,1.0172095869,-0.0522521622,-0.5981711141,-0.0019795379,-0.3641047237,-0.9949789665,-0.532168552,-0.435187572,0.1884163124,0.5654367725,-0.237363694,-0.8286854071,0.8835946229,0.3126987082,0.8111654539,-0.1820312782,1.0074313072,-0.2800966791,-0.3278185797,0.8723186171,0.0109947871,0.5721280199,-0.7117672118,-0.6785891553,-0.7195101528,0.5430320991,-0.9173925848,-0.5954080167,0.7828238892,1.0730815029,-0.1170672147,-0.0162684401,1.0263204785,0.2469423159,0.304229166,-0.5123555478,-0.9782066394,-0.0608801764,-1.0365540808,-0.1908310332,-0.2617256473,-0.3348306795,-0.7907601782,-0.3183233981,-0.6205711284,-0.6567843373,0.8869260155,0.1676358301,0.4633151241,-0.042472806,-0.1879332259,0.7074957009,-0.738799107,0.8028909807,-0.309069156,-0.7250894893,-1.042753123,0.7293372939,-0.936719778,0.7746982333,0.7050796129,0.9043544477,0.5008690712,-0.9248782329,0.6924369508,-0.0770454432,0.1425936108,-0.1184109699,-0.4288972778,0.7951649391,-0.6896002837,0.8783754467,0.2102645878,-0.6137467426,1.0092207356,-1.0995657377,-0.5890088543,0.3748181986,-0.3795356824,-0.4710142044,-0.581183837,0.8954284356,-0.1328788744,-0.0328545179,-0.5691789884,-0.4766583426,0.2123004546,1.0176628045,-0.5067383009,0.3759738526,-0.3260900213,0.5097334674,-0.1029004283,-1.1464505403,0.4500777384,-0.7876213745,-1.0698242097,1.0343620826,-0.0114558353,0.1094238886,0.9303063664,0.6392344562,0.4091968434,1.025368388,-0.101682748,0.3200585715,0.0544645633,0.9467809439,-0.135014336,-1.1569059424,0.674148483,0.2747318532,0.1250472823,-0.2149449347,0.4081102718,-0.1404683,0.1780533486,-0.7107561925,-0.0958885886,0.7970746546,-0.2008047633,0.2559413894,-0.7017117756,-0.299618058,-0.1527394677,-0.9847254038,-1.0320207147,-0.1524004478,-0.6380317479,0.9032313686,-0.5210843745,-0.1342508926,-0.3437808832,0.0752492452,-0.4993241104,-0.1109079528,0.5474918442,0.6446513186,-0.2900371785,0.2141425434,0.0111739889,0.8233542268,-1.1149023979,-0.7792137261,-0.1009338267,0.1725773538,-0.2760891768,-0.0244659047,0.6353607057,0.2375281516,0.1618229919,0.2354620462,0.3775384511,0.504529449,0.8125831607,-0.6530906276,0.8090370482,0.9115591382,0.0244027754,0.4375756075,0.0993666849,0.5027972734,-0.3691976073,0.0592919951,0.6051193969,0.5762828089,0.18011661,0.0869485925,-0.3423225529,-0.0540346458,0.2476857846,0.7153481564,0.3805055642,-0.7641157749,0.7292379561,0.1254308622,0.549608087,0.4664847913,-0.2337772253,-0.4580030908,-0.0981637112,0.807391824,0.6196097785,-0.2804979637,0.4133066094,0.5818341273,0.066585942,-0.4361561399,0.3499756541,-0.0719851407,0.7623784536,-0.5243797762,-0.1455328931,-0.7976978464,0.7265245232,-0.0721590235,0.2248672668,0.1695382356,-0.1610755787,0.4293923179,0.5918431395,0.5409742484,-0.9166367302,0.1141703451,-0.1558296031,-0.671317991,0.3717194572,-0.9027328729,0.3853450539,0.0574112714,-0.5370737482,0.5830434384,-0.1741504517,-0.238076323,0.8125837233,0.8372745076,-0.1638256522,-0.8746023813,0.9192461339,0.3810356064,0.1213263732,0.4103967596,-0.3736450879,0.4349216354,0.7978530926,-0.9069262842,0.6507093194,-0.3063054782,0.5960599795,0.5285312439,-0.7360210611,0.1390557912,-0.5458398824,-0.4923730108,-0.7300882247,0.3944908314,-0.9562973999,0.8213297887,-0.3493747489,-0.8734981423,-0.7545267581,-0.9423308274,0.4234142406,-0.4581749106,0.2938479463,1.0185392776,-0.6495240332,0.662154848,-0.2713580899,-0.0182271848,0.1355012933,0.4532596818,0.7596328824,0.1472111209,0.62610695,0.159777434,0.5333107988,0.4080128721,-0.0174153017,0.7318967365,0.9695515069,-0.3894755824,-0.4076720492,0.5119498424,0.103354442,0.4551723113,-0.5810409492,0.0191904712,0.6704847788,0.4112437022,-0.7744685256,-0.8547594266,-0.8937638829,-0.2287120726,0.6260909906,0.9070936955,-0.7437202214,0.8335534135,-1.0167160993,0.3340382204,0.1602606061,-0.3620917286,-0.8632097534,-0.6298794524,0.8260889565,0.5198386522,0.0648812776,-0.9849883213,-0.5615966105,0.0685171733,0.6540245941,-0.6755151828,-0.3477590146,0.2026921088,-0.4772301877,-0.9314754667,0.8985524651,-0.5770353261,0.0276430372,-0.6373752335,0.3959507609,-0.7572759244,0.5643935409,0.8774085674,1.0601953618,0.9149789405,0.2784188183,0.2935619301,0.93233481,-0.8210108852,-0.6117392422,-0.7139644474,-0.3322287332,-0.6022663605,0.8229488406,0.6225226093,-0.7808642504,-0.8356282476,0.3841068633,-0.0038322299,0.0613691223,-0.9345331891,0.6990336631,0.8599187406,0.3696916886,0.6760758089,-0.8791742821,0.2101963383,0.8543917722,0.0396133667,-0.2757939103,0.8595449979,0.5775716895,-0.1633582154,-0.0235260722,-0.5788871807,-0.8473851769,-0.8772498751,-0.3979590869,0.7925537211,-0.0267819514,-0.0100129551,0.4333428043,0.5126517239,-0.7978775967,-0.6213441518,0.4453121849,-0.1802420117,0.3863550341,0.5013482521,-0.5387527809,0.8193336067,0.0363971102,0.0105612297,0.0950514301,-0.6267466313,0.4714906157,-0.4395256755,-0.4243370132,0.4428746377,0.2010061794,-0.8507043606,-0.1371938303,0.6056789546,-0.4937270882,0.6556468172,0.7646940256,0.8885355676,0.155284961,0.2152348466,0.4700638887,-0.5511538871,0.5072371868,0.796960752,0.5213286006,1.0257902647,0.436715678,0.1800352455,0.8018612491,-0.057293269,-0.0917219691,-0.1972764146,-0.9669722297,0.6192363259,-0.2020632076,-0.38427018,-0.8516490158,-0.1080176971,0.1453706153,-0.4958520141,-0.4330988879,0.3570068855,-0.4766926305,0.1343548117,0.2632840481,-0.1884742974,0.6146205675,-0.7643647937,0.2928099355,-0.6899088715,-0.5546013444,-0.371979071,0.2562793281,-0.6350508169,0.0060525299,-0.6462942459,-0.1424542455,-1.046266751,0.7559422065,-0.6716377695,-0.3487766258,0.7904877607,0.1608882716,-0.7579291739,0.6944538547,0.4559211586,-0.4733648128,0.4671795303,0.6444965278,-0.3047391995,0.4230974299,-0.8052111037,-0.0623076643,-0.3721370712,-0.3761758255,0.980310733,-0.2400838136,0.8478794952,0.5510020301,0.4354024102,-0.250321533,-0.6825418385,-0.8795520373,-0.2034343069,-0.1107222324,0.4296130682,0.1856826995,0.47343423,0.0538997597,0.697448544,0.4018203853,0.3932444218,-0.4852119441,0.673596682,-0.3377324309,0.3688151671,0.5873518367,0.5057703506,-0.3340138541,-0.2357724709,-0.668525447,-0.5870315716,0.5901471828,-0.7840858127,-0.4764169736,-0.7157995645,-0.1680222663,0.7497272361,0.5893128804,-0.7403151306,-0.042850399,0.002031532,0.8541773323,-0.5431705819,0.7818441789,0.872862283,0.668668846,-0.453681931,-0.4513742122,-0.9918013242,0.3023015648,0.9571340924,0.0310332004,0.3935421812,-0.0753530964,-0.3700223206,-0.8329607398,-0.343325641,0.4397640524,-0.2405721075,-0.5239962989,-0.2970806096,0.1870812474,-0.1166975574,-0.9992099178,0.9426277947,-0.2229105313,0.5128735587,0.6117047424,-0.7004811709,-0.2905572521,-0.9335350871,0.5632940159,-0.3566245325,-0.3568032725,-0.8047610828,1.0370383164,-0.2212200951,0.4488568827,-0.9998585532,0.5849430155,-0.2233339667,0.8235446061,0.1248999012,-0.919602753,0.856740397,0.5013679775,0.4702463921,0.8926812217,0.3729891579,0.3412418591,-0.8556000152,-0.0877765929,-0.5143567615,-0.7139070877,-0.6675170024,-0.76320548,-0.0565518521,0.377816992,0.3137221712,0.3835182165,0.8874017584,-0.638546048,0.2522638461,0.296198817,0.7415985564,-0.3989279067,-0.1107862856,0.0929139858,0.3307665109,0.9033693789,-0.3290797682,-0.6798344126,0.1718139261,0.8108399354,0.29796098,-0.5199247723,-0.2960896138,0.9558948672,-0.0682250133,0.5328899381,-0.5335356578,-0.2978118115,-0.497946936,-1.0488175109,-0.303389511,0.083013609,-0.2675158806,-0.5896276674,0.1476238418,-0.3796044369,0.015336914,1.0832146473,-0.6505750327,-0.005778702,0.9001035204,0.7581359347,-0.0998509904,-0.7901901532,-0.4817253108,-0.3121596314,-0.9110435356,-1.0427980328,-0.3460583698,0.6293970239,0.342966979,0.8281246277,-1.0163422008,-0.7594883278,-0.9126395892,-0.5531634798,0.2719126887,0.8118224275,0.945058621,0.9119187307,-0.810900575,0.9211139019,0.8093541976,-0.9248899281,0.5564664982,-0.3778454531,0.5241556603,-0.6634604381,-0.9291718159,0.0400916363,0.9792211065,0.7586180641,-0.7903248139,-0.8666338101,0.1673103956,0.924877833,0.5388961702,-0.1475818433,-0.8547042251,0.9618437203,0.8067548809,-0.0771198386,0.34677484,0.4652446142,-0.9426595864,0.4732184421,-0.4016175143,0.8130546522,0.0294119116,0.2248064699,0.938160595,1.1363505552,-0.075664661,0.3131292496,0.8470245017,0.9328195042,0.4890001497,-0.2118606163,-0.1077759268,0.2127584103,-0.2301923976,0.4913393985,0.3883994946,0.3408004641,-0.5624447768,0.4360342469,0.6099321856,0.6435456675,-0.052096937,-0.3359846358,0.1100896963,0.0976994885,0.477226786,-0.1416020189,-0.2571522269,-0.3878624713,0.6652964394,0.8294039286,0.8431108833,-0.4544510598,-0.5621084842,-1.4167723747,-0.0388762365,0.0733401048,0.3304583954,-0.1958097028,0.4112104673,0.4779295551,0.5784198593,-0.2520695212,0.8503860805,0.0126645279,-0.9206593587,0.7596198979,-0.1857001431,0.767501812,0.2126743857,-0.7379399287,-1.005701072,0.4994517941,-0.6017480535,-0.016416143,0.6900498213,-0.4683366519,0.3476905247,0.0854645269,-0.1867397075,0.1321016862,-0.6301025444,-0.9145264134,-0.963780505,-0.1135163746,0.1073434562,0.6670325621,0.2542741576,-0.616840097,-0.1998381244,-0.8907901294,-0.0237114707,-0.7436613541,0.5705639268,-0.3677906664,0.0388954361,-0.6639069446,0.1668883362,0.5778466268,-0.6733231938,-0.126941862,0.1040411032,0.0485836455,0.7327011626,-0.5117703279,-0.1841475119,-0.0458515547,0.3013727151,0.1350922442,0.3421381748,0.460033928,1.183292349,-0.9044921369,-0.3066124976,0.6612628095,0.7642891731,0.2769047919,1.0194479284,0.8996555723,0.793387524,-0.7893095686,-0.8034769342,0.4120043612,0.8023938602,0.2184730582,-0.3771699532,-0.6305442721,0.6515884817,-1.0133324707,-0.3579384392,0.983981689,0.2245033208,-0.0525183898,0.1309885479,0.5016025839,0.9872535716,0.3584484741,0.4067019631,-0.726666028,0.6543281794,0.3512514725,-1.2822160752,0.1409007779,-0.9913123122,-0.104441091,0.8113587079,-0.1152565543,0.2297815442,-0.5627309694,0.1583468527,-0.0566854876,-0.0628997887,-0.7668411851,-0.2001528559,0.8659659133,-0.3836395527,-0.4154140592,-0.8035145945,0.0800755634,-0.1215555255,0.4822656246,0.289656158,0.0353097677,0.7412521519,0.6029292579,0.0038309774,0.0901362219,0.6946417393,0.3481956483,0.0900017019,-0.0490911412,-0.7689158552,-0.5294847686,1.000455356,0.0831596583,-0.1945229268,-0.0366305099,-0.2985977317,0.622871462,0.4246310341,-0.0590877429,-0.5426497049,0.0015591825,-0.2372182458,0.0186135094,-0.4806395563,-0.8132102077,0.4028984846,0.08985705,0.8636975256,-0.9496572204,-0.8918523016,-0.4050668769,0.9495422296,1.0248594503,-0.61271939,0.6437024192,-0.8725765585,-0.2491638067,0.7657364731,-0.8252531397,0.2259792698,-0.0030312645,-0.4347935802,0.0186806351,-0.9282327518,-0.5153009865,-0.4199687625,0.0050998876,0.3042417216,0.0756013051,-0.7319754772,-0.8782834204,-0.5722369923,0.8753160068,-0.1364514189,-0.4240309527,-0.1550015135,-0.5642113686,0.6874485516,-0.6686924647,0.8853832465,-0.8964904739,0.0210461838,0.6284310869,-0.9069186418,-0.7653325762,-0.6327822102,-0.8632792704,0.2837368432,-0.6564104971,0.5729316435,-0.0152926844,0.2561239211,-0.0824838957,0.173606899,-0.8615322939,0.8046179738,-0.732538172,0.0230424784,1.0301638573,-0.5308411422,-0.2110229125,-0.7732028865,-0.0425727981,0.4098150354,0.4000829048,0.0292539743,0.5118139827,0.6374765769,0.1439259411,0.4980300722,0.9906179588,-0.2192670249,1.0625054728,0.1003704809,0.2744970627,-0.1372554885,-0.5387379941,0.1788977304,0.0170357307,-0.8526270182,-1.0488523471,-0.5958558709,0.0513824857,0.0805588305,0.8245957446,0.1456703793,-0.8434557272,0.52572461,1.0011965569,-0.7889782776,-0.3285118748,-0.160125612,-0.7821335591,-0.3666602492,-0.1441796839,0.5360463503,-0.5558854353,0.4211881765,0.3550076201,0.5433718039,-0.703495421,-0.3229194716,-0.3488145199,0.2700518496,0.3604270808,0.2212192118,-0.6438804231,-0.5117307079,0.5800793299,-0.0058799961,-0.6431963564,0.6175749189,0.7602769624,0.1719285139,0.2356345101,-0.5847924696,0.7681235564,-0.4351082643,0.0284335204,-0.7808550698,0.9687266274,-0.5035739205,-0.7379956074,0.0314571198,-0.4985969357,0.3680819265,-0.7654386405,-0.6416189375,0.7437187775,-0.7542351624,0.253581319,0.5337000444,-0.9722119392,0.083424911,0.3640271034,-0.6935319369,0.5559740528,-0.7938701975,-0.800218555,-0.6007647363,-0.7034662584,-0.7500705475,1.10277636,0.4733759288,-0.6708864838,-0.5412464715,-0.3983091448,-0.4287228183,-0.2497027881,1.1296364349,0.4736071845,0.8806764669,0.1044829028,-0.1214491757,0.8536519612,-0.9524219784,-1.0310890127,0.9276708419,-0.1061480803,-0.6189510898,0.75213388,0.0204710105,0.4225202227,0.3333260494,-0.0618955573,0.3958508455,0.6223618984,-0.3011743691,0.841448057,-1.0918997784,-0.1463300171,0.3779428271,-0.8602602063,-0.2233314411,-0.9463966598,-0.5537292164,-0.3324231671,-0.2896584103,-0.221997918,-0.2745929711,-0.6343129705,-0.6614622063,-0.664101748,-0.6764497581,0.9671130026,0.8683143532,0.3151321406,0.8987544532,-0.7235637539,0.528120268,0.0168262087,-0.0076562875,0.4340866658,0.2640359485,-0.7255369043,0.3707697445,-0.4478207508,0.0166210245,0.6108397961,-0.9791554779,0.0440404204,-0.3688608455,0.8069330498,0.106208029,0.2792328814,0.4312942012,0.2773442648,-0.9835682388,0.289253773,0.4464262128,-0.2852929626,-0.0857889806,-0.4783499841,-0.0111510964,0.8022924685,0.5129467249,0.8721198843,-0.449557142,-0.3817992518,0.7127130163,-0.3700078777,0.4214631261,-0.2782707681,0.4930146038,0.1302000822,0.0976471482,0.3392770352,0.2331893345,-0.208858008,-0.2732971362,0.7613077889,-0.6880854646,-0.4411746774,-0.5602305374,0.3319409807,0.863052947,0.5558719257,0.5239847251,-0.7407468235,-0.8055374672,-0.4808037693,-0.7756224821,-0.9014018793,0.9206438371,0.8949824745,-0.7189563084,0.991911311,0.3012044611,0.0621136519,-0.4600411464,-0.9485532821,0.4648868309,0.4421238215,0.6348277646,0.040693869,0.5658976548,1.0582766,0.2731698592,0.0658478733,-0.1257468648,0.0525153813,-0.4822437695,0.8322914358,-0.7840240959,-0.6957485056,-0.8677412106,-0.6894379927,1.0506673297,-0.5302443883,0.4826812375,-0.4951622426,-0.2486056264,0.456278058,0.4973140779,-0.9590771245,-0.3800305837,0.7267988871,0.3414599325,0.2976702544,0.2038531869,1.0071912617,-0.0796217281,-0.6327632887,0.6752714383,0.3211331178,-0.4482888008,0.4605164024,0.8009214275,0.6606843312,0.2914906007,0.7508985962,-0.4160630033,0.8889284766,0.2205903463,-0.4905997934,-0.0657363947,0.3638228399,-0.4747666024,0.3274604279,0.2853439271,-0.7986310647,-0.7573848322,-0.0322681491,-0.7727864053,0.2616586054,-0.448718025,0.8163398947,-0.7743497509,0.2437713394,0.7870296059,0.7306192485,-0.4851732871,0.9443727471,0.2718371972,-0.2235844344,-0.9879537895,0.0029150002,-0.3968746618,0.3460864342,-0.5696462957,-0.3942783501,1.0275956665,-0.1123129757,-0.631305205,-0.0558613584,-0.630638921,-0.4007090444,0.5461890523,0.9784690121,-0.0748564108,-1.130865765,-0.1691303577,0.6680279717,0.1774037828,-0.11407082,0.2627969837,0.3830645729,-0.5578741499,-0.5822989946,0.7971249584,0.1573404551,0.4138123029,0.9240965327,-0.5238195564,0.3560943641,0.299641686,0.5928007599,-0.5981896061,0.542446192,0.1541050628,0.3219470961,-0.3730968863,-0.7993124949,0.6216678524,-0.7960385102,-0.6278306256,0.2258972649,-0.3061139299,0.6925931426,-0.4241443926,0.2745595363,0.8593340998,0.144398915,-0.7981605704,1.0529908924,0.8852081838,0.4772699203,0.370278253,-0.15414061,0.3713017178,-0.8997840467,0.1828246806,-0.5784689765,0.9317763571,0.5123262025,-0.6058288243,-0.4672354181,0.6324097103,-0.1544512857,-0.1869820622,-0.9335083087,-0.7396775237,0.5514144443,0.8645862991,0.4117514303,-0.4187786953,-0.1146366181,-0.8747234681,-0.9085333448,0.3009287706,-0.6736993787,-0.1150343977,-0.5578016089,0.7791778032,0.3398787727,0.0553030973,-0.7443224178,-1.0347496001,-0.4678030765,-0.5602671019,0.1018690637,-0.5362118528,0.2029953059,-0.0455055774,0.3998309997,0.5042852861,-0.1663003187,0.3772441686,-0.6388552818,0.5333461064,0.6526527938,-0.8296628253,0.5230338809,-0.2863334333,0.2067813482,0.0220515385,-0.240706429,0.6212849962,-0.1280780869,0.2730672912,0.504297863,0.8291634618,-0.7692186001,-0.6199616596,0.0460913279,-0.7323217876,-0.099662817,-0.3253537763,0.7266036546,-0.1249029218,-0.4222475973,-0.2709053144,-0.594496904,-0.104701447,-0.7098432436,0.4013430241,-0.6002333326,0.4757180157,0.2818824765,0.1117426206,-0.8706935603,-0.8952078701,0.5412533853,0.3103091259,-0.1143718279,0.2000614116,0.5142371015,-1.0004125967,0.3170239467,-0.951308027,-0.8201380451,-0.4124766154,-0.6847248703,0.6438372328,0.6788244451,0.9755677931,0.5511431748,-0.4388485884,0.9121633909,-0.3497367345,-0.1182343548,-0.4072625296,-0.8475650326,0.1923441855,-0.1491977623,-0.3765972844,0.4706280454,0.164015276,0.5302770715,-0.7630352897,-0.0868272157,-0.6193560697,0.2869329063,0.7009648607,-0.75389954,-0.0599312751,-0.9717296873,-0.0840350375,-0.7525730149,0.6122993539,-0.4039573175,0.3331159231,0.0510220537,0.5965467805,0.0615443818,-0.7885846013,0.5469734171,-0.2699143002,0.2235069421,0.0965408015,-0.5828057959,-0.7157878061,-0.759375096,-0.5394697552,-0.9176412752,1.0471217177,0.6678513179,-0.1160286331,-0.6144001482,-1.0133538486,-0.4980133384,-0.197817987,0.3808813103,-0.1738395582,0.833649054,-0.1722669997,-0.0781203961,0.0124532138,1.0129562869,0.3210940906,-1.0078022412,-0.5445129446,-0.6820279997,-0.5705795129,0.6681589407,-0.425518885,0.2556074895,-0.9102519537,-0.3052041698,-0.4319641614,0.3746257546,-0.3235731716,0.9692990093,-0.6712000705,1.3041398247,-0.1369892024,-0.6937210982,1.0813902904,-0.8493714152,-0.5241450286,0.4504098569,0.8191269551,0.9431172133,-0.223627479,0.1591458098,0.1177657183,-0.3467487261,0.1098024679,-0.5688786711,-0.7636128335,-0.5862176493,0.1471050055,0.7681788181,0.4778427942,0.4527070233,0.455404539,0.3466413153,0.7955898861,0.1927269784,-0.4785954907,-0.6882578782,0.1710785761,-0.1657010305,0.5749206447,-0.4201158884,0.1372495446,0.772606496,-0.8622176078,0.5163718861,0.7834103041,-0.704402034,0.5278177701,0.9826436397,-0.1206553617,-0.6308156085,-0.0865592328,0.6563395883,-0.810107884,-0.6165068494,0.4205618015,-0.567137059,-1.0364842939,-0.6500270271,0.1693130743,0.0004369033,-0.8678133031,0.3180379233,0.3765970951,0.2780561456,-0.8828172771,0.7825984195,0.1202864132,0.1907867887,0.882898717,0.0078369726,0.9291423392,-0.1670653414,0.4305373844,-0.6158227817,0.9627313443,0.259993118,-0.4688627979,1.0129402242,-0.2716869115,0.8756697497,-0.4013228229,-0.7646422798,0.158234712,-0.9758853215,-0.8578574319,0.9411836356,-0.6590396441,-0.7599020754,0.4726882487,0.5989187755,-0.2693405008,-0.1457259266,-0.2597750567,0.1183765148,0.1100547682,-0.5802710217,-0.2544300786,-0.8326939489,0.46535064,0.8154542706,0.6503485544,-0.478359839,0.7136381309,0.4397082456,0.0804084134,0.6005242847,-0.5168540603,0.4973516458,0.2226735196,0.8852626371,0.1266124926,0.8117717496,-1.0034920042,0.6376846922,0.6392214782,0.2811933547,0.9263276584,-0.060912402,-0.23051428,0.9486252331,0.595624753,-0.4784451754,0.6681230306,0.1916283339,-0.6690945003,-0.7237412187,-0.3123004438,-0.739953065,-0.9552924434,0.445112842,-0.5232068836,0.0112780885,-0.3886898328,-0.7367416596,-0.8251109702,0.5986577505,0.1155353426,0.3495725738,0.8107614601,-0.5044412636,0.3151409443,-0.1883502791,0.8671932474,-0.487164908,0.5569826231,0.0343906861,0.1518704593,-0.820242464,0.009795791,0.6304574495,-0.0247695791,-0.656593134,-0.6357059693,0.1468969876,-0.2728304407,-0.2619227748,0.4418161108,0.1816935871,-0.7492392782,0.8488155811,0.1330318858,-0.7283919653,-0.7485647277,-0.3573245917,-0.0299719079,0.4017013736,-0.0912529714,0.0019343643,0.7221111786,-0.3362908344,-0.3391603262,-0.3600707423,-0.6258481628,0.4483972613,1.0146936791,-0.5158424167,0.7678108763,0.9607245934,0.5821277234,0.9668976479,-0.4292503122,-0.5266702697,-0.8357142521,0.253581865,0.9856641598,0.6358442046,0.5685043683,-0.4777641114,-0.8038093749,0.304501772,-0.8436382774,-0.4450226076,-0.3027444925,-0.8431218034,-0.4031298078,0.4024610857,0.2461032156,0.6144028257,-0.3089567834,0.1669133429,-0.2828625251,-0.2567010682,0.9492792496,0.5839971171,-0.2175565976,1.0250355576,-0.4798380217,0.5443196819,-0.2107511467,0.0781002886,-0.0421381883,0.2765225097,0.2644228407,0.5348415563,0.1255704515,-0.179636165,-0.192593996,-0.4564921459,0.6962308381,-0.6570225186,0.9438206196,0.2494084383,-0.2228076204,-0.5113015549,0.2794185638,0.4919769915,0.7300845645,0.4105004016,-0.2040860183,0.7281790424,0.8391172844,-0.1046134605,0.3756785188,-0.5581088823,-0.4446000847,1.0148386557,-0.6508401353,-0.7718531815,-0.5076252074,-0.0708159179,-0.7689977761,0.9762077264,-0.330418579,0.7492674299,0.9455452308,0.5478396034,0.3742401431,-0.784154488,0.2516330498,-0.8234244258,0.6096265336,-0.0079530387,0.4955491616,-0.4263406157,-0.0185379225,-0.9574411477,-0.9405000695,0.8618768949,0.9651724546,-0.4174576985,0.5027729758,-0.637884972,0.4973278308,0.0777231299,-0.0829707206,0.7389520364,-0.5296336717,0.50852824,-0.5017540415,-0.1913126256,0.4711824951,0.2109249675,1.0323346537,-0.0139393916,-0.883555117,-0.1696510332,0.4717314591,0.2149239544,-0.594176687,0.7544281244,-0.3830785651,-0.7102969221,0.8714661048,-0.5663618103,0.8676685094,-0.6428345878,-0.0610857199,0.3896547452,-0.6670104921,0.3518702993,-0.2432457883,-0.5778516659,-0.250951887,-0.3780845057,0.4412191635,-0.5628218333,-0.1705344008,-0.1041023063,-0.9009618788,-0.8697521467,-0.5823812222,-0.6633774232,0.2567781914,0.9113834527,-0.7473033533,0.9395022271,0.6083286067,-0.3225699101,0.4815587117,-0.5203114002,0.6338863093,0.3554805965,-0.4776403453,-0.116901946,0.2246591052,0.0106603549,0.2528064857,-0.5076332861,0.0007840314,1.009460541,-0.4855340745,-0.6644342874,-0.3594736861,0.46402896,-0.4687240742,-0.6486864124,-0.5226393056,-0.5451597935,-0.9104193054,0.4966028843,0.4040681055,0.683082872,-0.2765969958,-0.0775192259,0.4355863528,0.4883821122,0.9913745538,-0.953855044,-0.1057468599,0.960682414,-0.3807470777,-0.5987524252,-0.8949118468,-0.029202851,0.2537686986
   0.955642739,-0.5665127253,0.2237090729,0.5048158661,0.1069868954,0.5268073096,0.9341171923,0.2882358699,-0.5731502381,-0.0939889376,-0.9407893872,-0.7652550596,0.1106190122,-0.4942840758,-0.8373062536,0.9634629519,0.2678280747,-0.8129891377,0.8490988297,-0.4366071874,0.5594936452,-0.9148013642,-0.5519036277,0.142777633,0.7030743869,0.0590556487,-0.1894235396,0.0144039031,-0.5110160127,-0.6739379817,-0.8880289993,-0.2673218985,-0.8530411043,0.8448349035,-0.451275145,0.1095561946,0.0057352511,-0.5523283953,-0.3172671539,0.7035289732,0.733210837,0.8728019254,-0.8889156247,0.0115782228,-0.892730003,0.1192412126,-0.9311821037,0.0627853352,-0.2488847462,-0.8192975296,-0.0612602161,0.4621069859,0.0190066601,0.9407581983,-0.1760995758,-0.2658404443,-0.6717961725,0.5748648124,0.7759251577,-0.1849328781,0.0714394458,0.7706584095,-0.3781605842,0.2440872799,-0.2276888301,0.2035683062,-0.1141540746,0.642324144,0.7329325989,0.8553613983,0.6642432834,-0.3562685515,0.203095572,0.9963144682,-0.8591055761,0.5532319011,-0.0687214407,0.9021722079,0.3257277334,0.6471894712,-0.2347693119,0.0087282057,0.7552277402,-0.6945087618,-0.502129531,-0.4735368033,-0.830295897,-0.7436932318,0.0249796673,-0.0687890184,0.9974353569,-0.4048093871,-1.0736554764,0.1947367871,0.3049707207,-0.4803883201,-0.1416872242,0.1043670366,-0.5873633545,0.0833174233,0.0276501371,-0.3735802532,-0.848765654,0.210332592,0.0091606446,-0.423977771,0.24071343,0.276211958,-0.6336823448,-0.50854238,-0.4919747501,0.5434192723,-0.6092015534,-0.2548472871,0.6115238723,-1.0772588812,0.290942771,-0.5505461583,0.404440612,0.5295879454,0.1071145422,-0.044950325,-0.5053039926,-0.3315986631,-0.7173282943,0.4717302692,-0.5375392182,-0.356948016,-0.2141900962,0.7975727191,-0.755265151,0.2080082456,-0.9120533884,0.6877805636,-0.2012904314,0.8641163168,0.3202910413,0.6117724768,-0.1997223696,0.3019391577,0.8601093232,-0.6302395466,-0.9608733833,0.0121757477,0.9086525743,-0.4187544104,-0.4720866438,-0.4277167236,-0.4041327773,-0.5699302901,-0.6497547214,0.0788858263,0.450152301,-0.7815419128,-0.3258113827,0.8768443856,0.7250367856,-0.6152389485,0.1365586517,0.9848033681,-0.901932631,-0.0510363342,0.871406273,-0.9060297686,0.6173599667,-0.8158079512,0.1525124492,-0.0733835371,0.9752643835,0.59391967,-0.6084396973,0.3099990966,-0.1760160664,0.577849959,0.6138935942,0.2826003548,0.4321473027,0.9452470203,0.9781899421,0.3449303596,0.0036782172,0.850610649,-0.0212219641,0.8335333185,-0.23941521,0.9081313124,0.4997536461,-0.1566181449,0.5152198102,-0.9997351331,-0.4111933108,-0.0576734545,0.7455453335,-0.3328596438,0.5860892605,-0.5183634375,0.2876073463,-0.1656564665,0.2816077462,-0.235455348,-0.8375510661,1.0442168261,-0.7749563069,-0.1503424294,0.4675509679,0.4725111366,-0.0703299202,0.4952933705,0.6098742337,-0.3067238024,-0.3813981242,-0.7839406179,-0.417081265,-0.9506580437,-0.6101846558,-0.556947554,0.9597153064,-1.0363512945,0.7790348075,0.3336157071,0.7966623377,0.143304163,0.5529643687,0.2931123031,-0.9571331507,-0.4274672287,-0.3637785533,-0.4971066506,0.0217669043,-0.0842321253,0.2503714739,-0.9675621736,0.1607809802,-0.8090380978,-0.6932396279,-0.2438040625,-0.5579628495,0.4524441257,1.0116787406,0.8974432154,-0.2941810427,-0.4737202967,0.3238144834,-0.3360327446,-0.5485045665,-0.3718851835,-0.3413309372,0.4058397278,0.4330111404,-0.5543933261,0.7341042566,0.2697555173,0.6339675106,-0.8052620701,0.0733105249,-0.176307714,-0.7659782118,0.5632604059,-0.0800657848,0.0089693944,-0.0707806141,0.9732576772,0.6151407336,-0.8380134338,-0.3139359545,-0.4914775016,-0.2641550949,0.774034715,-0.7785062087,-0.5889478953,0.8002324279,0.2167973366,0.370157438,0.9066131273,0.4311962488,-0.0133935342,-0.6935514002,-0.7544167142,0.738983094,-0.2456872489,0.1407131575,-0.3512669533,-0.2661349537,-0.4459333286,0.5676682353,-0.9314315205,-0.8237694486,-0.4538310862,0.6035957073,-0.4166236573,-0.0266119331,0.3130125997,0.5509426108,-0.8596821109,-0.3168589992,0.8682809972,-0.0859615398,0.4318080424,0.656478195,-0.2127079345,0.7571991139,-0.6982798699,0.5917438834,0.322383425,0.6984408781,-0.7703402332,0.9848603715,-0.6792519726,-0.6800379435,0.9686229665,-0.3110504272,-0.0909987156,-1.1383002145,-0.3159286987,0.0993775889,-0.4751967905,0.1134617533,-0.7435424097,0.9529856806,-0.2798685122,0.1592676374,0.144767639,0.3346349571,-0.6590288329,0.6632955975,0.3518927377,-0.7659886384,0.3066909084,0.6290467393,-0.2590929393,-0.6915999539,-0.449674809,0.0491859091,-0.173732347,0.5081102121,-0.6532718059,0.3998412681,0.355474498,-0.3130868672,0.7140060635,-0.64337126,0.1108927873,-0.1937103245,-0.5727593873,-0.3086723507,0.0139406652,0.042911062,0.5003511428,0.3854818057,-0.3882681695,-0.2784266429,-0.0517086956,-0.061256889,1.0646301776,-0.9198139297,-0.7398801748,0.1983428397,-0.2176791545,-0.7923562394,0.4731744056,-0.7090416576,0.1317727167,-0.5764788977,0.2829783928,-0.9418297475,0.3284790321,-0.8030732839,0.4269267574,0.4347111845,0.2156784651,-0.2240989287,-0.3577774693,0.6078281091,-0.5471068213,-0.3060751242,-0.1595968386,-0.4921507193,-0.8165853323,0.1535766135,0.8751492874,-0.6269813252,-0.1472451227,-0.3338843139,0.3538129091,-0.39379505,-0.7648489072,0.6626174425,0.1284090107,-0.8681928025,0.8524109598,0.834605875,-0.44037658,0.8392867068,0.0728975344,-1.5945166662,0.1874681783,-1.1098761332,0.4946284467,0.9470766511,0.3181198439,-0.4548827191,0.6424953351,-0.036178872,-0.4931087845,-0.6232977634,-1.0164284905,-0.6903358877,-0.6468766263,0.4951136198,-0.6409456651,-0.0727449929,-0.380625151,-0.7312568313,0.4729236827,0.517315105,0.6765411356,0.3539143963,0.6787165861,-0.920528618,-0.8782699738,-0.845044643,0.6159743278,-0.564048332,0.2790946392,0.2344553672,-0.4954463704,-0.5983625135,-0.8088078372,-0.3972916574,-0.2369410905,-0.4619610914,0.7004729123,0.8882110867,-0.0796453047,-0.3814904416,-0.6507988497,0.4765981305,-0.030267748,0.7230483163,-0.705024638,0.2040143344,-0.1335477764,-1.0954763903,-0.2059178906,-0.6669607469,0.2959857339,-1.2881336408,-1.1340491321,0.5233640051,0.4112354089,-0.1872968225,0.2112462599,0.8712185765,0.766568929,-0.957967886,-0.5148167271,-0.4653779059,-0.2262360738,0.604953051,0.8468030046,-0.823539877,-0.1879799431,0.3152718161,-0.3373887416,0.2180016431,0.4257985137,-0.1115124132,0.0248953785,0.5902680318,-0.1683827768,-0.072822946,0.0475634976,-0.177071972,0.4455152444,-0.4336764764,0.8998107011,0.0895123281,-0.9227290523,-0.3680707224,-0.2635063892,0.3517360672,-0.7444775701,0.8458356235,-0.2425483205,0.4782786079,0.7185157973,-0.8189584936,0.4187041172,0.9017063217,0.7935074022,0.1294918257,0.0462991726,0.5789459341,0.3560697577,0.7022053514,-0.6351304198,-0.0333894983,0.7109974732,0.6161277015,-0.1996627331,-0.5688433978,0.2100267154,0.4629801778,-0.5007520871,-0.4662030585,0.4982641142,0.547203758,0.6738896979,-0.6635675155,0.0338745097,-0.4333741698,-0.1447135713,0.0869178129,0.5062571572,0.6398099294,0.9315598091,-0.020425733,-0.3502296818,-0.2792182265,0.5728775553,0.8599247,0.2457532598,-0.4681109684,-0.6660486722,0.3314811853,0.524070591,-0.3238931248,0.3312499934,-0.4582958546,0.3424586696,0.3045787606,0.6239909896,-0.4140542586,-0.5199939875,-0.1514293139,-0.5795400041,1.0215716955,0.4636098944,-0.2982606899,-0.7133818426,0.8226264216,0.8005752957,0.0551551566,-0.7426133075,-0.7826873334,-0.7650680154,0.4850317245,-0.6902176568,0.3667652292,-0.2119643368,-0.1389482871,-0.2418808774,-0.9350177185,-0.6166380874,0.0279429549,0.9789370189,-0.2429531361,0.5158184412,0.6924257596,-0.753565458,-0.2217078604,0.7136822049,0.2675940137,-0.842805069,-0.7234630751,0.2894745549,0.9730363198,-0.6199860067,-0.5920125837,0.5835477148,-0.8231403547,-0.2743981723,-0.8808054354,0.6570258269,-0.36862869,0.7506890529,0.3828401883,-0.434243102,-0.6054353056,-0.6355638639,-0.4141373591,1.0967414355,0.0565154764,-0.4386541344,0.9210993946,-0.2904414254,0.6686981935,0.004531098,-0.8499198446,-0.1449563421,0.7651626557,-0.5488633999,0.9115811921,0.3133500316,-0.3441817181,-0.8705759744,-0.4169577542,-0.3297529134,-0.587538424,-0.1113331104,-0.9467376053,-0.5323467108,0.3723048415,-0.4593419279,0.6897218498,0.6612591423,0.6662901049,0.7773991737,0.8060788925,0.6572406036,0.45864035,0.7106475304,-0.402596796,-0.4245071021,0.2281470316,0.2379242961,0.2559718948,0.1413737868,0.7917359445,0.5154401782,0.6989110804,-0.7994830761,-0.2726167672,-0.1456560683,-0.1267249088,0.5091007878,0.5540267032,0.1365819676,-0.8540148723,-0.7805315269,0.0467125212,0.3773437496,-0.2805545244,0.5744191101,-0.3062882984,-0.4948456724,0.1428597587,0.4415808745,-0.5402953546,0.6541775098,-0.8661709238,-0.1729932883,0.0134098628,-0.8738280982,-0.5386812419,0.5706589684,-0.9819212119,0.1489927776,-0.6036083618,-0.1329559133,-0.8784145369,-0.1617482077,-0.4780797011,-0.6449975865,-0.6693646584,1.0918771538,0.692184866,-0.2896332872,-0.1029905537,-0.9374698324,0.4825414356,-0.9765067073,0.680749156,-0.6464906427,-0.4253019334,-0.8813000174,0.2220035883,-0.2655118125,-0.0557591779,0.2546692423,-0.2190262666,-0.7275144202,-0.5769869304,-0.3458989889,-0.2894389386,-0.5118618377,0.4980231236,0.4437517975,0.475851062,-0.6734586969,0.8949445755,0.3286900209,-0.6215318078,0.5053135504,0.8421512148,-0.0104708431,0.2301988519,-0.7238782007,-0.4069251805,0.5803876056,0.2622420562,-0.7718435924,0.2151705415,-0.5512507517,-1.0394356953,-0.517011406,0.384183483,-0.255182645,0.1588268768,0.1900533276,0.3858022087,0.3133508395,0.0756143789,-0.155574693,-0.3490751557,0.3761700417,-0.491051445,0.5878504497,0.3192674064,0.9025182941,-0.494525118,-0.2194522481,-0.416546302,-0.9660218793,-0.575321697,-0.4545272977,-0.3279410715,0.9713532083,-0.3724542974,0.1557192938,0.52039544,0.6604856411,0.0318613313,-0.8911891451,0.3034744944,0.1378075798,0.959116783,0.9447180037,-0.3865387812,-0.8241227979,0.3301294088,-0.2225428507,-0.8499076297,0.6893522653,0.8629912533,-0.1922834169,0.7253874522,-0.4308544811,0.6813490758,0.465649011,-0.5212070302,-0.5396198123,0.8122378568,0.1369503769,-0.2351798114,-0.2319108113,-0.1039258578,0.5426441816,-0.3371315194,-0.4140534599,-0.4024614399,0.5587772139,0.5676335267,0.5556296525,-0.8931218985,0.3678760616,-0.9468937974,-0.7754705373,0.8943922098,-0.7197624475,-0.8838998948,0.8997637183,-0.8794889198,0.2315384112,0.1438288011,0.3890104941,-0.9736621174,-0.6725276106,-0.6425867146,0.157305459,-0.7873355871,0.8368524269,-0.263312635,-0.6380195223,-0.6280835322,0.9304040578,0.2446390703,0.9696634292,-0.6211986324,0.0264454552,1.0770671462,0.1356765138,0.8236635432,0.1643807142,-0.6608239128,0.0781563774,-0.5920944432,0.2494155875,0.202063273,-0.2808366158,0.3147426018,0.997631849,-0.319356322,0.9921968269,-0.2594504349,-0.87271415,0.2786479769,-0.344707189,0.4589197129,-0.2629054948,-0.0415618331,-0.974071986,0.8559068986,0.5782386926,-0.5947071323,-0.7448946062,0.8527558548,0.2513030837,0.1556090207,0.5648536765,0.3480039703,0.3201437512,-0.017514639,0.6155453552,-0.2201510836,-0.2504334702,0.308182076,-0.6282142798,-0.6547864247,-0.6576544785,0.84415208,-0.6392863438,0.6321125999,0.7957871041,-0.6987968448,-0.6385148085,0.8650167002,0.1315364123,-0.9934594273,0.805547174,-0.652496552,0.5409316093,-0.6004313121,0.8557510142,0.8713029586,0.9456762712,0.5891988653,0.9427714524,0.361791956,0.3605944642,0.1875033128,-0.7106534709,0.4544041169,0.300643667,-0.5590802821,-0.7437518262,0.5139047844,0.4872288235,0.068968205,-0.1568201089,0.6416249322,-0.4388425873,1.0096109573,-0.9234469992,0.4455709462,0.670338674,0.9620100457,0.2253260413,0.5976594522,0.0515338789,-0.9154281357,0.05485523,0.1340303994,0.787891036,-0.7471987949,0.1462801973,-0.0254873239,0.3576625404,-1.0319188884,0.8245699333,0.1627661004,-0.2776492803,-0.2716999963,-0.1062342111,-0.6864257441,-0.405098107,-0.7973882041,-0.7921124922,0.6724688782,0.2497706093,-0.6966389517,0.36919061,0.3161190336,-0.1558460136,0.0445113813,0.8951381453,-0.3582799581,-0.2156514848,-0.4259588819,-0.8753621827,0.7938194594,-0.2507663146,-0.1985207763,-0.4523857494,0.4435614461,-0.7929964153,-1.1646043325,-0.9262832217,0.3222643313,0.1573772936,0.4463581643,-0.5840111325,-0.0356564594,0.012502488,0.854817315,-0.7359099955,-0.653318768,0.4157877418,-0.0493154972,0.4064288084,0.1849937157,0.896653853,0.8245104438,-0.9088327253,-0.5438263328,0.1776478495,-0.247075635,-0.1082061688,0.9303777284,0.1807144959,-0.0470883552,-0.3662903596,0.6292792224,0.4269932192,-0.5519182127,-0.0699309154,-0.229239287,0.0072971821,0.0313948679,0.1529718161,-0.491732253,0.0994363344,-0.5705177732,-0.1490927814,0.7587306447,-0.3510124696,0.3721818906,-0.1248441433,-0.2498672336,0.3708993728,-0.7226424837,-0.3811381156,-0.6616236763,-0.7128114246,0.7200340924,-0.0492176763,0.8215172446,-0.3701014708,0.1565914454,0.3742160589,0.9465800951,0.1699487551,1.0858235004,0.4425099689,-0.6387368816,-0.1305054162,-0.441252549,-0.7902190575,-0.0997612693,0.145233796,-0.2164641832,0.5530632176,-0.3179074428,0.4324622061,-0.2946393832,0.6298750569,-0.606027673,-0.9949916421,-0.8502181855,-0.957124626,0.6307343358,0.0712505565,0.7425463129,1.0684479394,-0.6021914738,-0.7726599482,0.2281529292,-0.3519643457,-0.4779759503,0.3630150765,0.4047548842,0.8278466649,-0.76319606,-0.1953641679,0.3724394733,0.0038351601,1.015662945,-0.5181941847,-0.875811301,-0.4193536376,-0.6516443767,0.4945012317,-0.8755190831,0.9637059365,-0.5391828399,-0.3112645798,-0.2612017489,0.2382757276,0.0361638481,0.2197229475,0.9054648952,-0.4321131557,0.0794774383,0.8038210391,-0.5881375386,0.7222989375,-0.770801976,-0.6319258105,0.117724159,0.0466517904,0.0392276543,-0.259686414,-0.4086788744,-1.1550875726,-0.107717851,0.5372375427,-0.4758802084,-0.1774814809,1.104103616,-0.4182710469,0.8026713875,0.1514519656,-0.0751637393,-0.0901464581,0.3464996618,-0.226171319,0.7069994677,-0.8141677387,0.4598969763,-0.6333210957,-0.3356170436,-1.0192037466,0.598640903,0.1604456771,-0.4806825694,-0.251842156,0.2330224768,0.8673825618,-0.2955752359,-0.1507473283,0.8612876053,-1.1214079088,0.0589172963,-0.3718983744,0.5780780458,0.4566144772,-0.9280083356,-0.138961067,0.834538827,-0.7709761368,-0.1772324695,0.3405395435,0.2921047258,0.5667927874,-0.1768260309,0.3826062919,0.6508225069,-0.2819678776,0.7286280475,0.3068528494,-0.6169818563,0.1911878551,0.8747465953,-0.8389542183,0.9896746903,-0.8498257863,-0.3241924101,0.9520491395,0.2434061282,0.2999500114,-0.3657419609,0.4386007561,-0.0030450215,-0.1716173754,-0.4895089431,0.3394047717,0.2957611903,0.7695994336,-0.0275720633,0.6009753274,0.5138406177,0.8405469154,-0.2480573256,-0.6324817313,-0.0536726465,-0.8917627803,0.1425924372,-0.7462030274,-0.6301379439,0.6710404832,-1.3026739572,0.3651513823,-0.710190563,-0.2703887188,-0.4844638919,0.3942801584,-1.2200691521,0.4000838456,-0.3838189021,-0.0556200744,-0.844379304,0.5404603116,0.9264087378,0.2570586837,-0.8501834845,0.2510495056,0.3873228522,-0.2309417243,0.4202558941,-0.3670400628,0.4344776482,0.3242689575,-0.5832195931,0.4442570344,-0.8248130392,0.0756195044,-0.9669692861,0.5049101986,0.7285341529,1.0199889717,-0.3155288674,0.2128705709,-0.4622646179,-0.4121948304,-0.7150845846,-0.7912251501,-0.8592185646,-0.2860778604,0.7205932785,0.3809559391,-0.4390399204,1.0679268448,-0.0599426475,-0.3330911113,0.0505200454,0.3806448914,-1.4135409471,0.9064326938,-0.8491214448,-1.0216041489,-0.2617179578,1.091721154,-0.810316621,-0.385755548,0.7339964599,-0.4219859547,0.2233132012,0.9133486456,-0.5869049029,-0.4684920899,0.1464694218,-0.4443341109,0.5093933496,-0.7459180429,0.1599160178,0.9045139459,-0.9110716013,-0.8675960453,0.7618578103,-0.0414932569,-0.3782457308,-0.4500883026,0.0678826862,-0.6383417579,-0.5461268907,-1.0690981643,0.5636929646,-0.5879568241,-0.0948104394,-0.395094195,0.0367967226,0.0124528813,-0.2175334718,0.5119291632,-0.5768438046,-0.8879875692,0.3339813931,-0.431613352,0.7685123777,0.2164170338,-0.152181262,0.130023796,0.505067202,0.9477047271,0.0861562664,-0.8579524769,0.5849808798,-0.4935125265,0.9164622228,-0.0859096919,-0.0442253426,0.3049820264,-0.5412916637,0.5495052455,0.4963054582,0.2787880789,-0.6428511483,-0.5126027497,0.6006124023,0.226363466,-0.8495563595,-0.8735639037,-0.6804467281,-0.7368674167,-0.3130405625,-0.5851240565,0.9442300081,0.508856364,-0.5451113898,-0.0375386234,0.8202127921,-0.3109165268,-0.8532106372,0.7430508971,0.4520262772,0.0942249121,-0.7292517691,0.3703425169,0.1968872203,-0.6374388183,-0.8411916562,1.096726809,-0.8284245005,0.0030377291,0.8105952419,0.2771141957,0.4707304862,0.858380661,0.756836423,-0.4350401926,-0.2595605283,0.9649183003,0.6527705383,-0.5297316638,-0.5651320689,0.2310860984,0.9613809077,-0.1160802779,0.7020424823,0.9601765107,0.4638821024,0.2658351621,-0.3331425648,-0.8665900928,-0.8687786306,0.5790054082,0.4796959321,-0.1806613171,0.5880867019,-0.49394787,1.0922389454,-0.7142897193,0.8575689858,0.6096525716,0.5365125576,-0.2683927152,0.8851702688,0.787790567,-0.3275212116,0.3882704394,-0.7345194775,-1.0107927356,-0.0867400764,0.1782696374,-0.0603990606,0.6364206771,0.6036692126,-0.4949729511,-0.7071671175,-0.1754855554,-0.2417588482,-0.0258298304,-0.8123596622,0.2862191962,0.0459375109,0.0216466172,0.4699667049,-0.5271782232,-0.299590279,0.235733141,0.1244179872,-0.7528453706,-0.6896877309,-0.4579528379,-0.5660887826,0.0823763831,0.4651479625,0.2906346125,0.0272323641,0.3024750676,-0.3118960238,0.2099565734,0.2348649274,0.7811115436,0.0772350938,0.3026470753,-0.9586628189,-0.0490772504,0.1285558725,-0.2140752323,-0.0112239292,-0.177042251,-0.7576731392,0.4445929369,-0.1625493952,-0.8132106821,0.6698815082,-0.3956459809,0.7506000351,0.7332077509,-0.1004858517,0.2609400036,0.0533282205,-0.36665211,-0.419905267,-0.0753260596,0.3469356109,-0.3601788508,0.2212489002,1.855445823,-0.1539259156,-1.1259325609,-0.8935246492,-0.1427587866,-0.8684005432,-0.8764177089,0.1289907903,0.398692578,-0.158105532,-0.0808789805,-1.2787642793,-0.2236039521,0.9195012711,-0.3486480797,0.3248972085,0.5061955171,-0.5435771796,-0.2882904894,0.3467417227,0.6309291275,0.6941018785,-0.8254504637,-0.0876331675,-0.7109851353,-0.6689256376,-0.6112949964,0.3039392987,0.8946040274,-0.5540420641,0.7068818384,-0.6113007883,-0.6886586574,0.3275491072,-0.9139801493,0.2088293498,-0.143071085,-0.2098658053,-0.1221274708,0.5687926064,-0.7133738991,-0.853308954,0.6615170075,0.0846273259,-0.4347379593,-0.1854395302,0.007149381,-0.1253387736,0.3420408052,0.5544719849,0.3071622945,-0.8905326426,0.2281098657,-0.3928046376,-0.5553073348,-0.3340267442,0.5269653274,0.1959483058,-0.6924347484,0.8243345639,-0.6247361888,0.9631593787,0.876818594,-0.2780071655,-0.038360137,0.453510402,0.543034478,0.4506162043,0.5484234642,0.6275936655,-0.3647520787,-0.6838853201,0.7601909455,0.871540087,0.8170772045,-0.5996413766,0.3694771963,-0.9474537573,-0.2226171879,-0.1579449668,-0.7330619779,-0.9556399877,0.446721537,-0.3258701195,0.1273790047,1.0346035942,-0.4138650305,-0.3015952853,-0.8417621569,0.4552202978,-0.7167611905,-0.891141385,-0.6317374577,0.8696365216,0.5760320675,0.3838318053,0.0618340938,-0.9998584839,-0.4905191275,0.0217774539,0.8707365508,-0.587367114,-1.0244474776,0.7655268304,-0.2259718022,0.8496621925,0.4724098859,0.9104277572,0.2855197364,0.2167112686,-0.0486451869,0.1658581635,-0.094998026,-0.8328004242,0.2755110013,0.331727411,0.1904337452,0.9532521366,-0.7907261228,-0.3386764705,0.2811626111,-0.3615903755,0.1630483934,-0.2092651196,0.4420069015,0.1773067583,0.502847673,-0.6679659137,0.0812157873,-0.1639390323,-0.1387511348,0.3100875035,-0.4167598177,0.2679631827,-0.2502793876,-0.7592999583,-0.0007981682,-0.7752074528,-0.1917763739,0.0346406891,0.0067549303,-0.4352838921,-0.7904611787,-0.6105233992,0.3634085322,-0.6490333318,-0.7556258606,-0.2538490768,-0.3198909177,0.1334209228,0.7888736389,-0.5630229265,0.2371628142,-0.085718597,0.8889101422,-0.4262215539,-0.4934816193,-0.7997260842,0.9330324595,0.7147724713,0.9854843515,0.3671570605,-0.1961921322,-0.6683048295,0.6673261562,-0.1107316921,-0.7612016374,0.8972310682,-0.7705864668,0.4720393894,0.962908678,-0.7364211958,-0.8900401905,-0.9206897527,-0.1515237343,0.903416161,0.7142017132,-0.417411715,-0.3552343747,0.3015129697,0.9720644511,-0.0943110303,-0.1235380525,-0.5850855873,0.2176543187,0.5949363071,-0.58192804,1.0065206254,0.197797384,0.2745539154,0.1138247728,-0.6954745338,0.5107764701,0.9267121628,0.2810437554,0.3760316969,-0.0895385804,-0.2935557567,-0.4643569112,0.0642607792,-0.6881309385,-0.921593494,-0.2846134536,0.3127813836,0.5122535815,-0.7274441856,-0.0079138749,-0.6600584946,-0.2179241154,-0.9342834925,0.558824188,0.6589127295,0.439980894,-0.3127150486,0.7362132572,-0.8885766896,-0.2587953147,0.9258700908,-0.4665804248,-0.3500820316,0.4930605143,0.7469790078,-0.0972542748,-0.5040177557,-0.1740730667,1.0291075514,-0.8702299696,-0.0244648632,-0.3014721411,-0.5484350056,0.1135004498,-0.7793182127,-0.6938309356,-0.8407043291,-0.3680985874,0.7162433276,-0.6711241746,0.3318237014,-0.3378032532,0.6683014583,-0.9526582022,0.2285404227,-0.2770851029,0.7919346593,-0.3985984164,-0.0543627855,0.2092430271,-0.3182631989,-0.3305413753,-0.6295483159,0.9457326348,0.74188777,-0.0378773692,-0.8098352366,0.1471965656,0.5980962716,0.8773295956,-0.6201169937,-0.6292885982,-0.373606524,-0.0466692715,0.7349098942,-0.2212489926,-1.0555241614,-0.2859622593,0.7182233246,0.4612570241,0.7951510259,-0.9990800524,-0.8326201461,0.3580013928,-0.2999994465,-0.1688364561,-0.5935380974,-0.8917118932,-0.1897375451,-1.0953465271,0.7837034072,0.9862940563,-0.6212878814,0.6436284584,0.7686978713,-0.2467338571,0.095747835,0.3401178049,0.1757224548,0.4706104931,0.5845109912,-0.1854681396,0.6277346816,0.3258081825,0.8084875872,0.0158435741,0.1156939317,0.3039363447,0.9014347057,0.049471555,0.9512970275,0.587973746,-0.4789520988,-0.6608078384,-0.4280335021,0.49396117,-0.5570217193,0.1240780932,-0.0740224713,0.8499101241,-0.7507030249,-0.825674595,-0.0351529603,0.1416873426,-0.9349830952,0.6676707787,-0.6467414511,0.4069201343,0.2481763313,-0.0914929936,-0.2389017788,0.1527504105,0.353635379,0.4336725576,-0.5663335632,0.1764342101,0.6864743887,-0.898400881,-0.7584409323,1.0140644771,-0.2702812691,0.7867445945,0.7028696485,0.812979991,-0.8809424923,-0.1816207337,0.5267829273,-0.5088657005,0.1689706235,0.7007290344,0.5963401736,-0.9905290129,0.9204467388,0.8611035558,0.6524401128,-0.6327539549,-0.4080508412,0.3550649053,0.9912182544,-0.2043557876,0.4131305642,-0.5553515024,0.8651528984,-0.6846760066,-0.3554790053,0.3365799494,-0.4365129592,-0.0175614484,0.1388318999,-0.4011623657,0.6756475666,-0.0510945098,0.0276906701,-0.7171419444,0.6585578386,0.3943766422,0.1750186249,0.2478349791,-0.4989029107,-1.0467860679,0.7187930981,-0.8188744577,-0.3438024685,0.9140521342,-0.5738662299,0.942732594,0.8244038571,0.9694301724,0.9247042593,0.2028645876,0.6337748422,0.2971415841,0.3023752934,-0.859278276,0.7817749768,0.8507269978,-0.4110860093,0.6945371086,0.229662028,0.007203123,-0.249275737,0.8842669636,0.7312654538,-0.8292051769,-0.3437471527,-0.618588157,0.540271501,0.124953822,-0.655340162,0.7569886116,0.0612689597,0.0566072158,0.0507387646,-0.0954957464,-0.4977669777,0.9010909413,0.4241823935,1.0439610982,-0.653664746,0.765942838,0.5147525095,-0.5434146682,0.6251107747,-0.8208936077,-0.464396174,0.4690486454,0.0427641688,-0.1106718033,-0.0354469897,0.5796888062,-0.4507668068,-0.6114408761,0.2350165661,-0.1663374371,0.483041111,-0.3613759021,-0.8226048258,0.2153775069,-0.9516960575,-0.6248500289,-0.12736479,0.7302111655,-0.7999500242,0.0184203336,-0.9612124318,0.9343404917,0.9208066457,0.3051628337,-0.5436984226,-0.5603958161,0.3165622157,0.2424677685,-0.6282109846,-0.6252316769,-0.5722765957,0.2852419364,0.1114083799,-0.4007460081,0.1589521076,-0.0084021945,0.9254735145,-0.959233896,-0.0747897428,-0.4514201027,0.5081424029,0.0239232856,0.2591587738,-0.6818234072,0.3012578699,0.4039370652,-0.2952849258,-0.8828001142,0.3235985532,0.1948774915,0.3630394452,0.4392789488,-0.802092008,-0.5300118014,-1.0141397163,0.4281998184,-0.396684912,0.3039233052,0.2684925619,-0.0995579336,0.2189173902,-0.0215729313,-0.4733487917,-0.8722395082,0.214867422,0.8452786561,0.755486679,0.0443693991,-0.4558613866,0.0029856584,0.0367235246,-0.4693414171,-0.2460426424,-0.6143236552,-0.733593149,0.3555468597,0.0563242225,0.6255625577,-0.7656664401,0.0649954668,0.1215487012,-0.3284193155,-0.0223003044,-0.4671756151,0.1608090268,0.2110528767,-0.0087762621,0.9265807678,0.5865140243,-0.5222294286,-0.0826850344,-0.7119248385,0.2249390537,-0.5818202765,0.4569276866,0.4662426889,-0.7681553873,0.0586566718,-0.5946389691,0.651535673,-0.2869674991,0.0774702295,0.7437368744,0.4161332265,0.3396209891,0.332436819,0.4673206154,0.8199312665,0.8345066511,0.5662022097,-0.6050616777,0.5590634574,-0.2006983567,0.6820086469,-0.3910474822,-0.9974226766,-0.4873796296,0.1496364416,-0.5967050838,-0.4943862629,0.5030383625,0.231127738,0.0820491812,0.8171543902,0.6201789346,-0.9173343375,-1.0407076324,-0.4424824422,0.392014923,0.1610368216,0.552451688,0.5094314323,0.151526655,-0.9990501427,-0.3915504606,0.3152896391,-0.970068808,-0.0927844721,0.7670110158,0.4677248713,1.0077708815,0.891173994,-0.715889007,0.7336041285,0.1697271212,-0.3777749181,0.9406959682,0.1101856273,-0.2608776146,0.9469057187,0.5988806412,0.123399096,0.1580979652,-0.1336026431,-0.9058993218,0.6781322217,-1.0474157719,0.0325244571,0.1810458476,-0.5706782838,0.4219830981,0.5655158579,-0.0173894394,0.1911596537,0.7925205278,-0.2008163495,-0.6860529065,0.9445606891,-0.1769603076,0.6678388145,0.5237475094,-0.177411071,-0.0785420841,-0.6025188045,-0.9206639866,-0.3492799118,0.1025816353,-0.3600471366,0.538062456,-0.0784211169,0.8846610168,1.1600153048,-0.8155964816,0.6499920775,-0.5080570646,-0.6054422235,0.3821541573,-0.4859600461,0.9817714712,-0.1271435208,-0.1684527477,0.4758140869,0.591305172,-1.010594469,0.0932139735,0.637128355,-0.0287269671,-0.2648675899,0.5721712827,-0.6118456226,0.2244048094,-0.8388155628,0.8121034648,-0.6412520503,0.9013738526,0.7215359386,-0.2832033131,0.1051731231,0.7647381918,0.6289205339,0.625372495,-0.1929142674,-0.0391547879,-0.829603226,0.9710017427,-0.5039458484,-0.640226479,0.3757482037,-0.2257871835,0.4060786228,0.3668757734,0.5405234956,-0.0894031944,0.5135504523,0.9273925059,0.6497013783,0.9134789639,-0.3749502515,0.4646126129,-0.6113856565,-0.736714619,0.1997468073,0.2715620881,0.5719477322,0.4900701448,-0.3752496641,-0.5937273509,0.2261537598,-1.0424548087,-0.218932916,0.5266367877,0.4400526982,0.0296400947,-0.1094328765,0.2251474883,-0.2217211128,-0.4418151517,-0.6725362079,-0.7337256967,-0.8651800123,0.2382620776,-0.315131362,-0.5701154278,0.9101502875,-0.3084929581,0.4651315968,-0.6831360955,0.1045321825,-0.8951966885,0.7323499768,0.1043402822,0.0278249684,0.8352145189,-0.5695842158,-0.0008982898,0.7174682843,0.0522211709,-0.5103827415,1.0711871407,0.49988422,-0.4412233546,-0.3110090016,0.5435769132,0.5387223036,0.1826843724,0.2888233039,-0.9458524353,-0.1484914295,0.166180483,1.0163744127,-0.3021037885,-0.8641579358,-0.1533083568,0.3643945237,0.0925703513,-0.5709925494,0.6001297462,0.3755322174,-0.7809587728,0.131513366,0.1734719426,0.4654366171,-0.7611401854,-0.2063367981,-0.2504061701,-0.734797795,1.0348634465,-0.6462234962,-0.460725949,0.3799890782,-1.0266629736,0.9457440416,-0.8972665762,0.4971381668,-0.6757836541,0.9991391488,0.7822055989,-0.8237869891,0.2045716354,-0.8521400423,-0.6031749564,0.8387282389,0.3605852276,-0.7356888979,0.55863206,-0.6553242349,0.1809698013,0.4253317973
   0.370096865,-0.7406278144,0.5934463281,-0.8320165336,0.4498845556,0.2490622326,0.0260452789,-0.6352511951,0.1134331062,-0.5777151885,-0.6197718013,0.2201343131,-0.6563251231,-0.5864015539,0.2002840917,0.627059014,0.8802744209,0.7908038524,0.8016398844,0.0249737899,0.0735136352,0.362171386,-1.0236633739,-0.0559950566,-0.7743204734,0.0166650554,0.0769148899,-0.8213790955,-0.0379602001,0.349026625,-0.428335105,0.1809095444,0.715328322,0.3041927088,0.120745912,0.6038155476,-0.6589888732,0.3167885279,-0.800165042,-0.0702111583,0.2415669469,-0.1204822731,0.2087667196,-1.0530304268,0.0315701861,-0.7573953157,0.70609542,-0.4543632825,-0.9519148945,-0.2077458736,-0.7305799354,0.7453122038,0.2254236135,-0.3745269686,0.7122319101,-0.1361947038,0.1705146796,0.1150089505,0.9550499869,0.3116496107,-0.7540846412,0.3762429209,-0.8376610082,-0.6333660591,0.0993352066,-0.8278120045,0.0491652921,0.317125022,0.5421472092,-0.7324873122,0.5684167507,-0.309973828,0.4899273,0.324634279,0.4197734241,0.7202904323,-0.0553154147,-0.5299880157,0.4115707964,0.1435468402,0.5544697477,0.0880287182,-0.7027808595,1.0277560799,0.1269337804,-0.5752589201,0.6294637475,-1.2123858726,-0.8797891139,0.5821493539,-0.8698302876,0.0773574143,-0.6566504004,1.3174157665,-0.0157008251,-0.6108991236,-1.0664534951,0.721906194,0.7188360843,-0.1942680521,0.3011593956,0.4279211595,0.0747420178,-0.0711987623,0.0720376491,-0.706663718,-0.7624385005,0.2496255424,0.9878865603,0.5520626102,0.7651813212,0.5992832093,-0.3355301959,-0.5032103411,-1.0565241729,0.9715977796,-0.0913730695,-0.0520470747,-0.172062512,-0.5006146716,-0.0305669531,0.3700483775,0.6979571808,0.8450758387,-0.3969375867,-0.7175234518,-0.3219896679,0.9678997813,-0.2051167304,0.2249620634,-0.0957263745,0.8087993063,0.7547708373,0.2776805411,0.7786858766,-0.3171437843,1.4226132258,0.2239393149,-0.1561698932,0.1245084124,0.3071297624,-0.9213645131,0.3923271497,0.867663876,0.8730675172,-0.7372333395,-0.3753233441,-0.8604353133,-0.1078953421,-0.0888708622,0.822373959,0.6476094374,0.4559167916,-0.5455552259,-0.1608579732,-0.3075283304,-0.7083349236,-0.3412918189,0.1299817423,0.4239268522,-0.8781364285,0.4329518647,0.361781427,-0.0206670821,-0.1563021667,-0.5101756838,-0.278678152,1.3038660097,-0.7154888906,0.9450139483,0.5305909426,0.8004781585,-0.2785753123,-0.1568151341,0.3236645754,0.3231951854,-0.3531077582,-0.4265847278,0.5402381877,0.6905087145,-0.7298993309,-0.4640837868,-0.7949964746,-0.4285076907,-0.1548627333,-0.4653632814,1.0568019372,0.0645858183,0.9862093821,-0.6885569358,-0.3726124213,0.5877896346,-0.1839254639,0.3256685991,0.3173519537,-0.9097773847,0.6655421078,0.9188854556,-0.8922920495,0.0137577548,-0.6384114313,-0.2951705375,-0.1592317338,0.5388160343,0.2945732193,-0.493904476,0.9141615248,0.9056160447,0.1163848953,0.1737537077,0.5760963662,-0.848211307,-0.117634443,-0.6116098417,0.880739464,-0.6911184658,0.4802892244,0.4289071157,0.8642768414,0.2802342982,0.0110688141,-0.4387052987,0.7271300028,0.8934224466,-0.9974339932,-0.2384116459,-0.2118014649,-0.8715519723,0.3127667116,-0.262207126,0.4492572859,0.7639672951,0.1021138091,-0.3712980596,0.180114375,-0.216339694,0.8441646375,0.503258184,0.5815012472,-1.0139390425,-0.4856999017,-0.6011699882,-0.0570537893,0.8911750925,0.865718377,0.7817978339,-0.4069657193,-0.4827785083,0.2168588401,0.0393555426,0.362504984,0.7344151877,-0.5330147321,-0.2582141018,0.7372347049,-0.6986843037,0.7452790959,-0.1176672716,0.8553891223,-0.0121091432,-1.0529540086,0.835940829,0.9521344967,-0.2113813493,0.2718074349,0.9541950227,-0.6504287351,0.5331568636,0.6276325053,0.1142873107,0.3607092234,-0.1274535044,-0.7174647029,0.8964206157,0.1090200032,-0.312491566,-0.0775529821,0.3759030973,0.2946420655,-0.6444964395,0.0018316075,0.3024504409,-0.3763116936,-0.1737607097,0.6494285535,-0.6849924445,-0.8023144117,-0.5919835132,-0.4279604006,-0.3381041643,0.7472599763,-0.1491775207,-0.5717552184,-0.1777854404,-0.1315931364,-0.0758845929,0.8239765421,0.8238747476,0.0412202349,0.4079956654,0.5513306696,-0.3296999195,0.7074692147,0.0640811566,-0.7423821872,0.5377620569,-0.513752094,-0.833464435,-0.8491791654,0.4237405249,0.290865518,-0.1886146336,-0.2887439731,0.6386633685,-0.0072814193,-0.5068851023,-0.701821608,-0.5188214656,0.8109522943,-0.6982959515,0.1102545145,-0.0817322614,0.1546075224,-0.6555305744,0.5827029383,-0.0882387572,0.841923448,-1.150488034,-0.0023088756,0.8623127783,0.3225133011,-0.6975905561,0.5204392744,-0.9048690787,-0.6903149637,-0.1781472315,-0.1967767741,0.4662619823,-0.8874624326,0.3892257591,-0.0666876156,0.4566385524,-0.8848820867,-0.0604817694,0.2521287134,0.3265579311,-0.6602938779,0.9140999281,0.5278755584,-0.1877477442,-0.8078127468,-0.4404934567,-1.0779688416,0.2449459394,0.5562404368,1.0992060123,0.3316174687,0.676946481,-0.405540911,-0.5304297026,1.0797198746,-0.140672466,0.2080554368,0.8640950373,-0.2088415525,-0.4950171486,-0.2199498377,-0.6601461819,-0.5288431449,-0.0588077938,-0.0101708799,-0.2865231724,0.427982742,0.7303486934,0.5423113228,-0.4395742028,0.349555653,-0.2729025954,0.6522148918,-0.1522482529,0.140315235,-0.5547131465,0.5034757716,0.3913899569,-0.4817868452,-1.0592513547,0.6806907885,0.9809119559,0.9682849814,0.4996993791,-0.5989487084,-1.043296653,-0.1996147074,0.1929595352,0.7386557583,-0.1449323493,0.9656190265,0.9118854206,-0.8200569866,-0.6997101084,-1.0358253299,0.4818229003,-0.2060310877,-0.2601693194,-0.8439499842,0.0454446497,0.5289178134,-0.3952642458,-0.6300936535,-0.1579149337,-0.1591145781,-0.5552209016,0.5633449389,0.6366152973,0.3013076126,-1.007975114,0.1151394783,-0.5298613616,-0.335027451,-0.5541587233,0.8717192949,0.9370423082,0.0044140631,0.1811994621,1.0654952197,0.6040241493,-0.1253155138,-0.6078241786,-0.4801632242,0.7590866388,-0.4491912175,-0.7502033037,-0.8213751111,0.5851858533,-0.3117740214,0.4243009699,0.3492716535,-0.8217987188,-0.1510354391,-0.8224118909,-0.2702105134,0.1147779902,-0.5602154814,0.8115684112,-0.6295059638,0.0145388815,0.3021379899,0.8310720842,-0.0731547191,0.9362370633,0.1268239287,0.2170371091,-0.7099621133,0.6363849194,-0.780741314,0.8616171568,0.3904770976,0.204173047,0.4503067099,0.0676617238,0.1266041627,0.9384120845,-1.0354223151,-0.5157019764,0.0073511063,-0.2634487026,-0.1541668085,-0.784454171,0.5488448914,-0.230308005,0.9460547435,0.0242961219,-0.5998814009,-0.3543698795,-0.6749868068,0.0414053534,-0.6487320993,-0.5135598468,-0.5860462427,0.6207425358,0.9539072525,0.3443037435,-0.2957138692,0.6353177341,0.8829607444,0.9004665683,0.0682017971,-0.7088236785,0.5026446507,-0.5232764242,0.8580412728,-0.4827421639,0.7195876155,-0.7376371028,0.700170341,0.0638317708,0.1154983488,-0.0415677757,0.9295054956,0.5708635555,-0.9568369702,0.0672293291,-0.2839799762,-0.3735072322,1.025796764,-0.0851113229,-0.6276302656,0.6555345523,0.8967018365,-0.5895994747,-0.7901657042,-0.5659593854,-0.1375054497,0.2314387599,-0.840311832,-0.3346075419,-0.0310676178,0.3506801848,-0.0723142664,0.603988508,-0.2671254389,-0.0696976258,0.1342528318,0.6349106063,-0.2993178118,-0.9714471957,0.6554754745,0.7946593664,-0.0092090709,1.0065947675,-0.7148356154,-0.3708791555,0.9898021636,-0.1263752299,-0.2620547072,0.3117524505,-0.0458439491,-0.6243897852,-0.3670414817,-0.9786868651,-0.3629062474,-0.9262657816,0.687118201,-0.7522467811,0.4268787279,-0.6254475424,-0.3410625509,-0.1615635439,0.4485875108,-0.726426011,-0.4703217079,0.8398288207,-0.1095823535,0.0461439944,0.8910962599,0.4754715249,-0.167184183,-0.3705808931,-0.3401172332,-0.9152949495,0.2118384953,0.7325099873,0.2917973096,0.0756405691,0.3953162136,-0.2440736764,0.0693310314,-0.8059036929,0.3190839633,-0.8387452047,0.8043093523,0.6591002886,-0.1614058828,-0.3136327511,0.3758948814,0.9768667071,-0.6606225721,0.5298323741,0.8353919615,0.100154468,-0.0559345086,-0.6396181495,-0.7138253681,0.5376573861,0.8249830679,0.9042090861,-0.3779938489,0.3377784214,-0.5206075173,-1.0299658564,-0.5422447136,-0.5230085607,0.1403710983,0.8807982338,0.0112434525,0.3620053351,0.4712401819,0.4715549579,-0.6212631966,-0.4711895204,0.2131889537,-0.0262201267,-0.2493200249,0.0214439214,0.9194277298,-0.1780422581,-0.7079088151,-0.3045897314,0.2506364342,-0.2477910213,0.9610983167,0.8411933574,0.9587499821,-0.3391991463,0.7320058866,0.1465732239,-0.1177763236,0.0989956356,-0.6157384702,0.6398063189,0.3976555179,0.3063828725,0.8717490376,-0.8197267732,-0.5259510346,0.5438334804,-0.9338860804,0.4367634082,0.680240837,0.5426400864,0.9411467303,-0.4955555819,0.0249161629,-0.7774994238,0.3114415046,-0.909118386,0.148901394,-0.8755292416,-0.5630799066,0.9642053985,-0.1033921012,0.3741543617,0.942770111,-0.9086708534,0.6207470834,-0.8143736936,-0.0509331136,-0.2608594527,-0.7606772846,-0.3851485808,-0.5170483309,0.282824271,0.0723815682,0.9186679093,-1.0123961633,-0.1492260454,-0.531192249,-0.2370413173,-0.0109930898,0.9634015142,0.0055427644,-0.8449601946,0.1661992293,0.0449283119,0.3897453968,0.8373938382,-0.4586520666,-0.2815018336,-0.6860424013,0.3054399356,-0.5000361748,0.6826126739,-0.2192861557,0.3816340941,0.7769653309,0.6361940629,-0.9110228712,-0.7492093448,0.2586233457,0.2237623941,-0.6271321558,-0.1650256211,-0.2161312158,-0.3353830634,0.171726443,-0.3744634921,-0.9035694804,0.1036854719,0.475010061,-0.0582221999,0.7973186435,0.8490005814,-0.0552971968,0.2373551795,0.2227787948,-0.8213607566,-0.1897761729,-0.5462223889,-0.2641961624,0.537007812,-0.2032516424,0.9925882367,0.2842560241,-0.3659663209,-0.6521148334,-0.4184209617,-0.7702915128,-0.3463967774,-0.5213879655,-0.2962123846,0.0612134651,-1.0099552799,-0.8860779288,0.4565865594,-0.5268284108,-0.5279462233,-0.0210575841,-0.8459743637,-0.6579018631,-0.4452430519,-0.9000688049,0.9111848076,-0.8072313284,-0.0263786708,-0.8501581619,-0.5360176414,-0.2726240502,0.3914118497,0.6668739756,-0.700659945,0.2075412276,-0.0448038371,-0.0083390108,-0.8661189147,-0.9452346912,-0.1221068238,-0.4906980369,-0.7977992926,0.7452353694,-0.2131261931,0.8956890837,-0.8921400541,0.7518016242,-0.2190973987,0.7537611547,0.5010659874,0.7098270065,0.5335624068,-0.3314457949,0.0975406829,0.5423933306,0.3223480855,0.8403007622,0.2420277219,0.8242343046,0.7514740842,0.9296094803,0.0916076229,-0.6964016244,0.620800881,-0.4495741795,0.4144521218,-0.5362430668,-0.7416956954,0.9525315655,-0.7802566413,-0.9665446607,-0.021741548,0.3489723686,0.2201227491,-0.6841278458,-0.5370078089,0.6493483772,0.3352471738,-0.0944065337,-0.9588155435,0.5615276982,0.7922099225,0.0761043402,0.1049984498,-0.0927070706,0.8615832096,0.3960740247,-1.0321349993,0.57922715,0.7906724883,0.9021476345,-0.31799612,0.3603225204,-0.2635267821,-0.7964933969,0.9862691104,-0.0351185193,-0.4018844519,-0.7180001087,-0.1143222582,0.1947706159,0.79783351,-0.7329776888,0.7690653142,-0.0770176599,-1.0351292834,0.2412613484,-0.0614742905,-0.4615261093,0.5962256129,-0.5200503545,-0.8274094438,-0.4043552702,-0.2539882788,-0.4615988921,0.9041485482,0.9468072421,-0.0876015634,-0.9051498426,0.5221475306,-0.52200244,-0.1946302076,-0.4006822462,0.3444891168,0.164443323,-0.2976914044,-0.7168161678,-0.4812622271,-0.0734415673,-0.6000717698,0.8448991306,-0.6847313898,0.9323957613,0.904212198,0.0875382206,0.5782786691,0.6424844233,0.0073886966,0.6185680372,0.2035987539,-0.7638007099,0.9013136034,0.4293968801,0.6419659935,-0.5334572732,0.867263089,0.7602361435,-0.0785067208,-0.9667793459,0.4629296215,0.2577432067,0.9381607108,0.0192052384,-0.3665914732,0.2475498091,1.0638714184,0.6383282715,0.9700371542,-0.3248885455,0.5286974944,-0.5185053702,-0.7015235373,0.1735730578,0.1758825518,0.4066857998,0.3072960483,0.075331708,-0.8353748002,-0.0646708319,-0.0380075651,0.0211902563,-0.3758329403,0.2745996297,-0.0304370509,-0.7863957618,-0.7961319643,-0.03158676,1.0280547857,0.5031851229,0.585960533,0.6160095295,0.0803692098,0.3412264398,0.5114683265,0.1981792466,0.4810530862,0.3072180022,-0.7573012427,0.4184674632,0.0881011342,0.0423659194,0.5359824401,-0.9810165874,0.8196634796,0.3020366338,-0.1956543206,-0.390905815,0.474984324,0.8021115146,-0.2282098287,-0.8291762539,0.3359895603,-0.0018066054,0.6788795408,-0.9200591402,-0.8533840904,0.82467084,0.4263946538,0.0304053078,-0.6657381765,-0.2931956694,0.8135687485,0.0699428168,-0.501984185,-0.085769763,0.1665435727,-0.7091947525,0.5947437541,-0.6347569313,-0.3146874604,0.7162601554,0.3678371197,0.2721785204,0.5698974123,-0.4646936168,0.2425404261,0.0692053019,-0.0060768564,0.052153964,-0.708882643,0.082185211,-0.3998654427,1.0421629636,-0.43625298,0.6358303753,0.9430916223,0.2909048609,0.6079130858,1.0485213536,-0.2606501221,0.9295695442,0.1640702305,0.5566061786,0.0629035714,-0.1603812344,0.0791599523,0.2598060988,0.7962045761,0.0973574498,-0.6686240623,0.3811242016,-0.0617003082,-0.8495723834,-0.0409583287,-0.0331851266,0.1994217918,-0.2714118151,0.6750344759,0.3718519601,-0.2644911011,0.648853217,0.7715116566,-1.0064079153,0.7096319669,0.1416295632,-0.1279325275,0.5230614456,-0.3000278707,-0.2426194186,0.7136123718,0.4839279414,-0.9078795938,-0.168419905,-0.0051153778,0.7240116213,0.0193106364,-0.8897408628,-0.4569782733,0.925189584,-0.4436514595,-0.6415825414,-0.9221703998,0.595869672,-0.4576468032,-0.3701725818,0.5673692361,-1.0823711913,0.9621047499,0.2354322275,0.1253835746,0.1769524291,0.7907081799,0.6402277782,-0.1758377535,0.9136016032,-0.939495882,0.4505173052,0.5514139122,-0.7427253642,0.5292209573,-0.0969087141,0.5113240851,-0.2457572038,0.3772935607,0.2382428635,-0.8027644662,0.0474112649,-0.0583039567,-0.5699213551,-0.4411742055,-0.2198965703,0.4817625011,-0.7479183232,0.5442248269,0.5728648111,0.5085881096,0.1016492088,-0.6249342451,-0.1674342599,0.6764613487,0.435105089,0.3550972827,0.2003262713,-0.4344634274,-0.4074048452,-0.7705974152,0.9280249026,0.0765424441,0.2135567606,-0.867235454,-0.3824069399,-0.6698059988,0.850959431,-1.0453427283,1.0006750991,0.3289532754,0.3175143665,1.0577747237,-0.4545034851,0.2028919777,0.0299158924,0.6575043121,-0.2082411468,-0.0682368303,-0.8631154067,0.8231802368,-0.3778102718,-0.6340414784,-0.878786251,-0.7730028203,0.1253120834,0.6260150655,-1.1618293832,-0.8644418693,0.2527588297,0.9157493643,0.72771833,0.4627750903,-0.881834198,0.53364829,-0.2271800021,-0.1059699795,-0.8860235486,0.6686383722,-0.4790567439,0.1969384792,0.3682756214,0.8703040757,0.9029607005,-0.3555559781,0.7013682168,-0.7610884757,-0.1885701197,0.5600540051,-0.4502808397,-0.1560419359,-0.489541032,-0.014959977,0.2208056386,-0.8992239399,-0.0375626226,0.5658026741,-0.5821436862,0.6017235432,-0.9676733942,0.5572959657,-0.6565415208,0.9166643589,-0.3728894316,0.0935902661,0.0641427777,0.4624298541,0.0053090395,-0.5329981136,0.9343994285,-0.6186011607,-0.925007823,0.0762903649,-0.9397347175,-0.6366994077,-0.9051883461,0.2587279069,-0.6816666254,-0.7974464874,0.0772579523,0.0772185773,-0.0772017824,0.0381536774,-0.4936009113,-0.4377670842,-0.1388429867,0.1884276247,-0.0164261011,-0.3069170111,-0.4045145034,0.5392221369,-0.8919932605,0.8852373203,-0.4203700059,0.2766565377,0.6388460629,0.0333964884,-0.2492547088,-0.859777111,-0.8003903648,0.9696177,0.5272446022,-0.1560049318,0.1766740141,-0.1287286732,-0.7331928273,-0.9072647641,0.0057818456,0.8814929972,0.483947409,-0.2036939829,-0.5555363376,0.5558165829,-0.8768054272,0.393864493,-0.6455266702,0.1842147342,-1.0813664371,0.9183237327,-0.2485926754,0.5030539963,-0.1888643498,0.3393294366,0.9729958896,0.5177828184,0.380398135,0.3752086205,0.0227422794,0.9508482169,0.619070927,0.6003775107,-0.377342376,-0.556625284,-0.565096835,0.3758052142,-0.5891620946,0.473278383,-0.146123008,-0.7909142384,0.7780268796,-0.4647748202,-0.5448014337,0.2389273888,0.7529342751,-0.1038589737,-0.5382943268,0.6613190887,-0.0035369493,-0.7639718654,0.9019625604,0.3575066808,-0.0446130487,-0.5276060205,0.7397873675,0.3855785049,-0.8564022676,-0.5185296983,0.4427191378,0.1587885753,0.0057464278,-0.3284973933,-0.8436824967,-0.5505296591,-0.3823520865,0.7606437968,0.8461489324,0.2044613287,0.7430132335,0.0546807985,-0.9184919911,-0.3606973035,0.4303008661,0.0742811651,0.0292974783,0.4891504355,-0.4448004919,-1.1845209845,0.6556490294,-0.9197441827,0.2543519644,0.4595832963,-0.2185033625,0.2553546548,-0.046032294,-0.4005723321,0.606375316,0.0433617811,-0.3267451474,0.135544255,-0.7621629364,0.5971978142,-0.1741187309,-0.4494821144,0.310022806,0.9085715118,-0.5660750662,0.9859642971,-0.069045755,-0.4392883303,0.2537707076,0.6154086055,0.5703635126,-0.0974031656,0.2531631309,0.2546054166,0.31602709,0.5710583054,-0.0443814396,0.4839556176,-0.1034661013,-0.9017839405,-0.1727812859,1.0459889504,0.3723724531,-0.2614447206,-0.5532576913,0.9133936573,-0.4589034444,-0.6502594039,-0.0291834349,0.9404706929,-0.0766677036,-1.0820380896,-0.3706454116,-0.3327815273,0.4648932351,0.754608115,-0.6302942507,0.8746482204,-0.374571646,0.9475695203,-0.6071503488,0.8127488894,-0.5299963491,-0.0971039056,0.5952130668,0.2310350287,-0.3069243319,1.0364873614,-0.654149972,-1.002191202,0.2327376437,-0.5627347565,-0.2157847379,-0.5899537068,-0.5962926175,0.7039186987,-0.5675298036,-0.0883467758,0.5718411523,-0.265661858,-0.8351299368,0.6220505767,-0.3460967632,0.9188137903,-0.7188993793,-0.2817372388,-0.4557877169,0.3492271129,0.0261926463,-0.3643375938,0.9878804208,0.4876036223,0.5310984201,0.491762268,-0.8947275818,0.5868805866,0.8536137003,-0.5833130852,-1.0189448614,-0.7203541368,-0.6469527806,-0.3639509147,-0.0094409045,0.7083267366,0.87369263,0.2784296557,-0.2528164394,-0.4063316336,-0.8976891177,0.5219262226,0.7697279896,-0.6522723026,0.3634358624,-0.2868876626,-0.5330006563,0.7711306693,0.6097670339,1.0526159184,0.2102658427,-0.2396978964,-0.0353054721,-0.6267792802,0.0379950239,-0.158032156,0.4278358004,-0.4262241875,-0.5094485556,-0.305490832,0.571479376,-0.8381066203,0.8550933296,0.9590306789,-0.808393208,-0.0645766913,-0.6949184675,1.0083097387,-0.71720985,0.7179263221,-0.7648426087,0.3770895498,-0.4389055691,-0.4478176089,-0.7698651836,-0.0525632786,0.378311825,0.1596492483,0.4550161075,0.1285928503,-1.0238616275,-0.7458562175,0.6002409909,0.3554668298,-0.2522374154,0.6113649343,-0.781703847,-0.3680636247,0.0013212403,0.7067643344,0.1946142117,0.0142742058,0.7471675844,-0.1403693673,-0.7114156981,-0.2906815642,0.1395160739,-0.0954941393,-0.7598637277,0.1967320573,0.8547509859,-0.149732606,-0.4838122877,0.1993481342,-0.0447118215,0.9774595049,0.1217639712,-0.602271083,0.8014400351,0.4306028793,-0.6226938215,-0.9618660878,-0.0252559626,-0.7169044647,-0.4684159551,-0.0751080551,-0.1353230089,0.5746606918,0.8360345654,-0.5302538332,-0.9337994389,0.8164427085,0.8662412602,-0.2681330801,-1.0277047002,-0.3037903765,0.5036308085,-0.1143284464,0.7443587924,-0.1253534716,0.791731229,-0.2506595058,-0.6907464158,0.930421461,0.1681082389,0.8280506957,1.2866049705,0.5404287999,0.6291607989,0.4413632192,-0.8809707955,0.7399796695,0.8651894123,0.6988410532,-0.7958420484,-0.244256009,0.7081897138,0.3743110425,0.4613969951,0.6901852901,-0.0269161954,-0.1501491301,-0.8320825332,0.2157367856,-0.9134392713,0.4088296781,0.1317421561,-0.6156760678,0.3705172337,0.4835711656,-0.673899059,-0.866240022,0.5776125665,-0.8972431154,0.0221538044,-0.3931779621,-0.0550698312,0.2463978874,0.6651602021,-0.4185322286,-0.3143664734,0.7870570853,-0.0124360555,0.8702927599,0.8935333519,-0.5006356777,-0.1510126583,0.6640598387,-0.6950337117,0.885083313,-0.991267538,-0.8298216186,0.0184385901,0.3027260587,0.9779873688,0.1763609386,1.0360239298,-0.5591072179,0.2657975961,0.6436487609,-0.3979689426,-0.6948891714,-0.0340647965,0.1971956034,-0.1612475463,0.338776971,0.1457743861,-0.0066858136,-1.4303423809,-0.780177603,-0.7185929339,-1.5204373373,0.6442671951,0.5814101661,0.3318804526,-0.6180179706,0.5233925277,-0.8406872776,-0.0797553907,0.6760180447,0.0821730993,0.4651814948,-0.0022134096,-0.4702938799,-0.9721610692,-0.8646238625,-0.7890188516,0.5504375927,0.5440307412,0.8139884746,0.1241204702,0.0589999059,0.2120901688,-0.277523072,0.7532057545,-0.5537022166,0.5716046858,-0.9502413792,-0.3686299382,0.8803680488,0.1846024405,-0.6889725904,0.1213540653,-0.0209647288,0.637366712,-0.7437960142,0.9797867215,-0.6048385325,0.2250914217,-0.3327179448,-1.0286529138,-0.4694652365,0.1543373679,-0.9380965098,-0.3856038461,0.5677832377,-0.6776373166,-0.8878129295,0.350399263,-0.8131755813,0.1623168825,0.0483862696,-0.3755693308,-0.723657323,0.9947280972,0.5319694973,-0.174161941,0.2805879025,0.9849167724,0.427586463,0.8702092582,0.086251595,0.3199478495,0.0134126334,-0.7272772878,-0.2371179457,0.0528986438,-0.9553463898,0.7062909653,0.5748096279,-0.0811478237,0.7231988459,-0.8269114754,0.5169525012,-0.0208795242,0.2361915767,-0.1634806988,-0.6894317565,0.2840970944,0.5052491293,-0.3219827657,0.1087181676,0.5006167433,0.5006035421,-0.3886013316,-0.2749855743,0.2464277086,-0.5263822353,0.0330607705,0.0873090974,0.8329766291,0.8500492977,-0.8887021825,-0.6106038234,0.1231521503,-0.055031833,0.0323759273,0.8496255928,0.3931771493,-0.0198515854,-0.8915336061,-0.4130105299,-0.4564628561,0.7196122933,-0.043909066,0.2903503894,0.184832287,-0.2031883511,0.8764959273,0.3891123466,-0.4910430193,-1.0038598286,-0.7711202665,-0.6136326783,-0.21583971,0.6474022538,0.4624155008,0.2560133569,0.0639238613,-0.4704958533,-0.6855735483,-0.8646604939,-0.1421054685,-0.6652179652,-0.1096497679,0.3216411961,-0.3983905511,0.4246614986,0.6705545551,-0.6726232879,0.7091891613,0.2307658933,-0.7334421676,-1.0425994355,0.0027749277,-0.133672369,0.6230340523,-0.0474516497,-0.6968035827,0.3403519374,-0.7285246919,-0.8006398379,-0.8453392169,0.7337545677,0.656775091,-0.7117650831,0.9111927358,-0.7717577254,-0.225971581,0.2903545341,-0.7426842343,0.0337634905,-0.7483752249,0.3538110949,0.2152760959,-0.9431430594,-0.8410716811,0.6927436983,-1.0157754753,0.7740469576,0.0613192602,0.371696388,0.2257174736,-0.0822049184,-0.4136667063,0.1329192069,-0.7753888681,0.9176949046,-0.5033691447,0.3146991734,0.0127698802,-1.023235289,0.5135809759,-0.2574879628,-0.4163727205,0.2636753298,0.022024371,-0.7430639357,0.2186126139,0.5952744713,-0.8720149713,-0.7505545308,0.0255974416,0.7870234954,0.8778130187,-0.1973687672,-0.8380394239,-0.0586680545,-0.0720563825,0.6024517535,-0.3872349245,-0.0370139984,-0.0302153208,0.8214668549,-0.0854028279,-1.0249506645,0.4484134887,-1.1529549335,0.051010956,-0.2199771418,-0.0623174018,0.3934963238,0.4831943981,-0.2833920197,0.3766724982,-0.1881495198,0.6912301144,1.0435383624,0.6329588428,0.52103066,0.5883816712,-1.087965006,-1.0404533178,0.4125741668,0.9012081703,0.4532746743,0.6331021191,0.9981199987,-0.0136202332,0.5633833442,-0.38317326,0.8546835248,0.7162139303,0.8569348345,0.8455154494,-0.1321938069,-0.7743080873,0.8200980233,-0.6368898966,-0.4211767554,0.0318895198,-0.187227929,-0.7466779918,0.9363140327,0.4702572917,0.9490156828,-1.0753920194,0.7226281309,0.1053734863,0.3951213171,-0.8143744662,0.7597976701,-0.3104036348,-0.9173427463,-0.6683470505,0.7608962042,0.2159018855,-0.1019878906,0.6408657546,1.0465174494,0.9743461869,-0.0429829792,0.3763898173,-0.8888616814,-0.8478754897,-0.6538224305,0.951563755,-0.894745636,-0.0466946531,-0.3114845137,0.1949054264,0.441178325,0.6350508222,-0.8701967297,0.7009499826,-0.4663654738,-0.8685058344,0.2903381923,0.5920731309,-0.1086649706,0.495131731,0.0797157322,-0.0196599498,0.6761113939,-0.2298934505,-0.4465589722,0.0217780566,0.0215029813,0.9079250077,0.8677604656,-0.6129375798,-0.3739357578,-0.1153098912,-0.8002461938,-1.4029857096,0.501004171,0.1542587746,0.1233751234,-0.216730674,-0.4568012446,0.24512828,0.6068663027,-0.2855879858,-0.1334717414,-0.5321977366,-0.3542247906,-0.7127291001,-0.4220230391,-0.7024671664,0.083379502,-0.3845850906,-0.0800687699,-0.6987998387,0.5852155472,0.0793918216,-0.0634959913,-0.5567943754,0.0861046397,-0.3149288062,-0.0304440355,0.3396261687,0.4238216341,0.3908291389,-0.2903352206,-0.6889059065,0.7217777126,0.8749310244,-0.1020580571,0.1244199163,0.4986453169,0.1742816102,0.3908934599,-0.3715054525,-0.7015114503,0.1581843381,-0.5440963934,-0.631416107,-0.6819729412,-0.6291219333,-0.6835629838,0.0442009992,0.440584661,0.026817524,0.0449386424,-0.5913983766,-0.6736093062,-0.1152834307,-0.3376946072,0.8229974884,-0.3269380652,-0.095165052,-0.2572319584,-0.8125095281,0.7387379129,0.9653638951,0.4285057066,-0.2551355331,0.4399799676,0.634586094,1.3030304605,-0.7463764456,-0.6285590041,-0.5160607609,0.1621010675,0.2022067459,0.8348820562,-0.2876550365,0.9641976728,0.3471393622,0.5981976193,-0.3126787869,-0.5862574134,-0.6987243707,0.1660550033,0.2829998726,-0.623237436,-0.0809765922,0.1542959104,-0.1915182763,-0.9824996299,-0.9201341635,-0.495877947,0.198534377,0.6897401144,-0.4081006978,0.7562272532,-0.2950109906,-0.4202776755,-0.6308234033,-1.1817908702,1.2053147105,-0.2947802859,-0.874507107,0.6645636059,0.7215255027,0.2478900713,-0.4303005255,-0.0560950521,0.8071750338,0.7958832484,-0.8871778968,0.7987835946,0.7713777657,0.4200217734,-0.4764025197,0.4842931476,0.6657732511,-0.5972205472,0.2800606764,-0.228878165,0.5884197744,1.1268647556,-1.0871168869,-0.8416738331,-0.9984757799,0.5141237895,-0.3673198824,-0.8884570413,-0.0699573273,0.0505527841,1.1205234281,-0.2793794398,0.2001290282,-0.4301663548,-0.9237832151,0.5984072879,0.1107291508,-0.4338002237,0.1366588769,-0.9462316634,-0.1117748702,-0.7525624995,-0.8202196882,-1.2497412968,0.329835875,0.644339745,-1.0165009881,-0.4617212573,0.4957169763,-1.6204785277,0.6825040787,0.5611487186,0.3763117595,0.7995740578,0.8174833989,0.7476084701,0.1494057647,-0.1002144583,0.100647489,0.037541204,-0.031583963,-0.0792481244,-0.9165555057,0.3672613701,-0.5328582941,-0.6297896161,-0.055742819,-0.3002385141,0.3542864267,-0.7139642597,-0.638109707,0.2413009279,-0.1672565374,-0.3862728643,0.5685976127,-0.0047766628,0.8607549109,0.8079777755,-0.0636080515,-0.1754858233,0.9292107724,-0.6501022246,0.384918245,-0.1430136935,0.2478838171,-0.8311580189,0.4611605067,0.7988570788,-0.6326099528,0.9136853534,-0.3417516462,0.9443554369,-0.0153718827,0.3607659629,-0.8724937162,-0.1727675513,0.2540960263,0.3232025446,-0.8003364543,0.1196658223,-0.9478539674,-0.5165983024,-0.7070328587,-0.4721298407,0.8407834281,0.7027092852,0.498527297,0.493636518,-0.8891503392,-0.1967323075,0.1490836169,0.718863712,-0.3690514667,-0.5249601754,0.7644008726,-0.5098588242,-0.0269950313,0.3566964976,-0.1388620137,0.0910425788,0.2960048267,-0.691138138,0.6152503382,-0.0730925133,0.0983729603,0.53330742,-0.0677090924,-0.5799279488,-0.4998309685,-0.4877060438,-0.5195891527,-0.0260997817,-0.8532286189,0.8555672405,0.9671002266,0.9456568701,-0.0370142778,0.8563851528,-0.609316521,-0.4150656928,0.6634662544,-0.7966423996,0.1677904942,-0.1208025519,-0.7337547022,0.0477448304,0.2470278036,0.2953423873,0.5113007795,-0.8118241811,0.2199211979,-0.0419324306,-0.546940104,-0.669952605,0.0159324572,0.9887840644,0.7181620901,0.3502775492,0.4270394877,0.5476191966,-0.3796952304,-0.885420894,0.6138392056,-0.7920564376,0.8106133402,-1.0639609131,-0.6126368604,0.0292128011,-0.5760955673,0.0730203826,-0.2427331625,-0.5202309423,-0.0878260564,-0.1270647944,0.4067303663,-0.3647757318,-0.4435769592,0.2061615289,0.4264415012,0.3145469954,0.8728678067,-0.5382429965,0.8460225386,-0.0090558997,0.7547772309,-0.1216199163,-0.8581051978,-0.6543817293,-0.4670377885,-0.7533304619,0.4984733886,0.6609229003,-0.4218259966,-0.6317046395,0.9024781522,0.9544063793,-0.0626455217,0.3437944108,0.6262429164,-0.4325906562,-0.7838726253,0.5931022293,0.4265580674,0.1512851629,0.1802291298,-0.3331243763,0.1786352868,-0.2626423156
