encog,BasicNetwork,java,3.4.0,1,1501310365072
[BASIC]
[BASIC:PARAMS]
[BASIC:NETWORK]
beginTraining=0
connectionLimit=0
contextTargetOffset=0,0,0,0,0,0,0
contextTargetSize=0,0,0,0,0,0,0
endTraining=6
hasContext=f
inputCount=5
layerCounts=1,29,27,30,23,26,5
layerFeedCounts=1,28,27,29,23,25,5
layerContextCount=0,0,0,0,0,0,0
layerIndex=0,1,30,57,87,110,136
output=0.3960492662,0.7368195542,-0.3751567267,-0.7678462645,0.7011684327,-0.7356318491,0.5437233166,0.8544478813,0.7413635921,0.8703393287,-0.5924565858,-0.5320350536,-0.0662619447,0.8168689853,-0.8513714746,0.6898475707,0.8231351604,0.7693838819,0.6057705895,0.8470693828,0.7615547114,-0.1341372944,0.6382973805,0.5859660218,0.8063043553,-0.3617230323,0.1826011823,-0.5815838436,0.6584217246,1,-0.9926834365,0.9409244138,-0.6603877887,0.9843281196,0.7348692665,-0.9238378387,0.8754975663,-0.9740826273,-0.8793701168,0.9522198678,-0.9445929054,0.9158979962,0.9959465818,-0.6451977325,-0.9444440459,-0.5753737513,0.996542183,-0.9919555235,-0.9422237809,-0.9858760672,0.9766645658,-0.9883328452,0.933440989,0.7314802499,0.926826201,-0.8561969613,-0.2805783735,0.5958626905,-0.954235343,-0.6113379917,0.9918159414,-0.7300035529,-0.8876080564,0.9597664198,0.7646398952,0.4315292198,0.3652508256,0.7393165609,0.4774744115,-0.9571709085,-0.1146576498,-0.4564241219,0.9990967568,0.9929812505,-0.9927501493,0.6869372156,0.8578883067,0.7482161888,0.9789636777,0.9751761487,0.6656617475,0.7907615233,-0.4497700501,-0.8013277217,0.7266444521,-0.5188917915,1,-0.6506213968,0.8052074166,-0.9823715964,0.2156129917,0.2149728463,0.7017816045,0.4835437106,-0.6827361675,-0.9735307324,0.2655375135,0.8580862155,0.5259503107,0.7292185176,0.8860746725,-0.2602656911,-0.5178316922,-0.5140728732,0.8333725004,0.126196602,-0.5203953311,-0.6977045924,-0.4598742145,0.3890804024,-0.5250737637,-0.3682813103,-0.7516052689,0.8358204146,0.4101899239,-0.2967105471,-0.645311806,-0.4278031817,0.719840186,-0.4048732092,0.003009495,-0.1541714213,-0.0834495392,0.4325802946,0.410223828,-0.4370467607,0.3253132527,0.4831014325,-0.0173352887,0.5361493036,-0.4748838734,-0.0371671229,-0.2041647731,-0.1498102167,-0.2778875961,1,0.673218869,0.6905811213,0.603041758,0.6611147591,0.4438934775
outputCount=1
weightIndex=0,29,785,1595,2262,2860,2985
weights=##0
##double#2985
   -0.1013206921,-0.1558243905,-0.0320175459,-0.1253835576,-0.0472035101,0.034691383,0.0477626509,0.1026192034,0.0678682575,0.0461295822,-0.0816113357,-0.0541284585,-0.1417012752,0.0132416748,0.0432882418,-0.0085962809,-0.0569320953,-0.0596785266,-0.0126925065,0.1334487905,-0.0678497859,0.0284701534,0.0577840273,-0.0620771498,-0.1410920015,-0.1368487357,-0.0047965946,-0.1101825458,0.2209983155,0.0705991805,0.429042626,-1.5072514757,-0.3051119105,0.314807019,1.203776004,0.1581967499,-0.4791401217,-0.9106295487,0.615491456,-0.6543692215,0.3861642787,0.0357534298,-0.7998261001,-1.1403353097,0.2737481435,-0.2200874537,-0.7954086656,0.0818438234,-0.6030676961,0.3230716139,0.6718066785,0.2413999784,-0.3594822076,-0.1048054227,1.1942622942,0.7533061816,0.5577848663,-0.1859769766,-0.8739962368,-0.3213978973,-0.9195225235,1.3172665559,-0.9915652004,-0.5246096547,-0.895029997,0.984682123,0.4512687858,-0.5718760042,-0.2711047611,0.054535538,-0.3603840078,-0.819252536,0.9427446864,0.7015815587,-0.9612637799,-0.1182284397,0.4168440667,0.1034917608,1.3476110055,0.2892618265,0.0561566398,1.3964223787,1.2654258069,-0.3339131402,-0.0479514892,-0.8998761332,0.2534914163,0.26816062,0.7820924065,-0.533076907,0.5324731576,0.9241684991,-0.3209136778,-0.1763311657,-0.3495868599,0.3456344163,0.7847244441,-0.0810864448,-0.88463883,0.0211635261,-0.2731092616,-0.6171402205,0.327551059,-0.518986732,0.7643860833,1.2961193317,-1.3696404477,0.7490602141,1.5633380291,0.8012981527,0.2492212366,-0.9084288463,-0.2955617521,0.7246672857,0.515144234,0.7072557002,-0.3118411557,0.8936098892,-0.843625071,0.8974599259,-0.9687794877,1.2094159246,0.8062433059,0.4960823619,-0.2551502651,-1.0360596295,-0.1022650439,-0.7636942671,-0.3722787238,0.2963246569,0.4232867537,-0.5040503388,-0.3011785271,-0.5285707833,0.1401798726,1.0763339127,1.57482121,-0.0439698046,-0.4876545511,-0.674765245,-0.1080386479,0.0533517337,-0.2261442138,-0.8112775184,-0.1060001198,0.07099801,-0.9330032088,2.1039765601,1.0590117603,-0.2579281219,0.324891222,-1.1353824279,-0.6630277286,0.5090847633,0.426033903,-0.449568069,-0.5444473033,1.475884564,0.3035382068,-1.0839498662,0.7794283063,-0.0226071277,0.4510828548,1.0567130579,0.2148625638,0.0261829814,0.2689441019,-0.7236234793,0.2422480188,0.1670697612,1.0870412034,-0.5200032022,-0.0395015006,0.6964888164,-0.2172346749,-0.890682316,0.5124967714,-0.6455712067,-0.3881318197,1.0701769133,0.7904947456,-0.7568464186,0.5126200902,-0.3762805316,-0.0369046033,-0.3459932113,-1.5043892419,0.0586306622,-1.2420962327,-0.0634254394,-0.1551803416,-0.9309285545,1.0645506127,0.3388791433,0.8414865408,-0.54103332,-1.0923539104,0.4106011631,-0.4377098632,0.1749884943,-1.0062534648,0.3792024921,-0.4334380278,0.549496055,-1.1534395228,0.4559783773,0.8555751783,-0.22122088,-0.7336185428,-0.7212778866,-0.9328306652,0.3979961213,-0.2439115292,-1.156853897,1.0886652817,-0.3685440102,-0.2181143037,-1.5607861404,0.0237187616,1.3726586727,0.9090427285,-1.0757120671,0.1913717673,-1.3682427422,0.9738403819,-0.8821029369,0.6630672797,0.1287403282,-0.1770450858,-0.3732783256,-0.4064662639,-1.12638937,1.0469697149,1.4030689267,0.3627748368,-0.9796681263,0.1215924678,-0.6051367827,0.8903051922,1.0509731713,-0.7900571533,0.9792461555,0.295366553,-0.0160720253,-0.6988879366,-0.8832151327,-0.4939324568,-0.1077337193,0.8793942753,-0.2598083637,-1.0720991746,-0.0764891977,0.0357465591,0.0152529318,-0.3754184294,0.5045263042,0.3941147977,-0.0628442071,-1.7060902826,-0.0718569643,-0.0890151436,-0.856815141,-0.4549997728,-0.6618095893,-0.4021110264,1.0508190758,0.8588916342,-0.2918618649,1.0480105202,0.6524472184,-1.3223874525,-0.9397387268,0.2635226495,-0.2795441142,0.7884648731,0.0056084923,0.138830043,-0.6503917929,-0.5630954196,0.3658310007,0.7359209478,1.0753703927,0.0757220464,-0.4235882688,-0.3148790125,-0.4768997271,1.0730406148,-0.6455596889,-0.5397166282,-0.1996122271,0.8426222603,-0.1519775439,0.3772973202,0.4994210821,0.3999110143,1.1021936335,-0.0645223133,0.0761143387,-0.6415107373,0.9224957729,-0.581852121,-1.1923045619,0.0128617956,0.1442377569,0.3317473057,-0.7030979334,0.2525387833,0.0705390098,0.2749399723,-0.20296382,0.4044173437,-0.468210997,-0.0714033456,-0.3217590296,0.275727698,-0.6845658813,-0.4716990728,-0.822302343,0.3737496091,0.0756494513,-1.1048442056,0.6946373785,-0.0173319058,0.8110289605,-0.362639584,1.0834033338,0.4221825139,0.188034091,-0.8235187097,0.9225510315,-0.1324897491,-0.0841151217,-0.9441611659,-0.8572926661,-0.4927697673,0.9313747806,-1.4421114369,0.932646991,-0.2796103918,0.1529119575,0.9413491422,0.4881604479,-0.1033380415,0.9981317927,-0.6109551223,0.6784093285,-1.0166491434,0.6298697503,1.4438914364,-0.6274307377,0.7765920987,1.1669759891,1.6026214625,-0.4164544376,-0.4073426307,-0.3706964432,-0.7548291122,0.5329769508,-0.0358475141,0.4629831384,-0.933042536,-0.0759685928,0.4334295724,0.6311193468,0.6221735393,0.8859384035,0.1117444026,-0.8044193457,-0.393870824,0.9018676951,-0.4227136719,-0.5855508079,-0.0318334176,-0.7108921496,0.1204570821,1.368282918,-0.4103021664,0.6921827599,0.747336889,1.5012846113,-0.6851330814,-0.7330239876,-0.6430525251,-0.2118953339,-0.4125813773,-0.1022755912,1.1016562838,-0.9179132465,0.0698048578,-0.7869016367,-0.4313916261,-0.8116803883,-0.3664987585,-1.0873727033,0.8166238529,1.2626133084,-0.9865225481,0.807807121,0.9034087094,0.756626252,0.1755735146,0.9280661862,-1.5339043457,0.9465536918,-1.2318297315,0.147573866,-0.5435213486,-0.6467431009,0.4152436449,1.9643059401,0.6630400485,-0.1434764038,0.2537741259,-0.9986380522,-0.2813140139,0.0182307568,0.3004461328,-0.41012514,-0.5776303865,0.2294587992,0.4216471302,-0.5632780463,0.2583483358,0.9835092253,0.2226406254,0.6468184754,-0.6021062972,0.5950493324,0.7267913688,0.4885520224,-0.0472922382,-1.1233425825,-1.3778358076,-1.5547182506,-1.0438549934,0.1422612814,-0.1835095093,-0.2630282089,0.6266884364,-0.5565359132,0.7386086658,-0.1655329821,0.8968981789,-0.2936860001,0.9557694306,-0.2755807017,-0.3306039372,0.5930122312,0.3968944531,-0.7909011391,0.7546266236,-0.30962586,-1.2581003371,-0.7652323014,0.3195016752,-0.8592268212,-0.9470475545,0.472676145,-0.4797823104,-0.4486031,-0.7331782744,0.6655017622,0.750046289,-1.2326735415,-0.0144170636,0.4551838111,1.1560102694,-0.2354684399,-0.6103068529,-0.7337071315,0.3061162767,0.1196455239,-0.6276634508,1.0355207539,-1.4697100647,0.0422000684,-0.1016302713,-0.5782405354,-0.4921464343,-0.6882443269,-0.1380137959,0.0218658725,0.16666044,0.1907765655,-0.051993943,1.1024702939,-0.361833204,1.0054380837,0.625916195,0.3413807374,0.8211948178,0.4775922053,0.7850483243,-0.2219554759,0.58933828,-0.2487944124,0.6746646401,0.6151168372,-0.6232282118,0.9348109469,-0.5295147723,-0.1029718419,0.5720097012,0.2164301073,0.613503213,-0.2035208287,-0.1200600923,0.8091304294,0.0958964751,-0.8770176388,1.4464656742,-0.9572286567,0.5579447825,1.5374721131,0.632119857,-0.5030925051,-0.5785088546,-0.2600124094,0.2088792352,0.2811611867,-0.5661114437,-0.0390836677,-0.7516049832,-1.0077462055,-0.2242768542,0.0839474698,0.6621512202,-0.3859907386,-0.27466758,0.2080909798,0.311008648,0.9059293028,-0.1905424543,-1.018802641,0.6270748614,0.5222759461,-1.0569252876,0.9881874294,-0.3978613392,0.8013039201,0.2287551666,1.0656698624,-0.1135177241,-0.3905567869,0.8218226128,-0.7517433163,-0.2371144498,-0.9284577955,0.4015917613,-0.371779316,1.0805860728,0.5195822644,-0.3888593683,1.0548229503,0.6237215486,-0.132095599,-0.7080280574,-0.9654094593,-0.9281319662,0.2369733705,-1.0177403824,-0.1790701256,-0.1751105275,0.2361671283,-0.2834979785,1.0203646857,0.1736686081,0.1622168654,-0.2475018456,-0.6709753597,-0.7887756358,-0.5742657221,0.7779362668,1.17265581,0.6602678941,-0.7566886664,-0.6625102899,0.0463362961,-0.4866949276,-0.0363318336,0.1448011655,-0.1076590296,0.0738897592,0.6235770298,0.20842236,0.8115839081,-0.6539185945,-0.2504465458,0.7059804037,-0.53694494,-0.425174936,-0.007422709,-0.7355264156,0.212288247,-0.1953441754,1.2870670138,-0.9730572117,-0.8760680891,-0.733465516,0.5033351828,0.1232172994,-0.0294183043,0.3884747863,-0.3533886274,1.1756123736,0.5615491177,-0.2779092207,-0.469887078,-0.1045016543,-0.2905577282,0.6433978115,0.0777784228,0.6163827192,0.3114106561,0.5550619712,-1.0874769264,1.1241774091,1.0049280222,-1.3864280582,1.5742317851,0.3769035978,-0.209130975,-0.2895782123,0.1616107156,1.0674392217,-0.4237636265,0.2374651268,0.7062120511,-1.147390852,0.7127762799,0.8257331067,-0.6640867196,-1.0707130108,0.6103602301,-0.4477417301,-1.113124481,-0.4349996749,-0.3186598182,0.6443539736,-0.7150817367,-0.5375272703,-0.1510845253,1.0018797925,0.6291158519,0.0579125728,-0.0024922251,0.8619834147,-0.8757332919,-0.9885171102,-2.8994190221,-0.7881945321,-1.0908305829,0.2113203553,-0.0538337805,0.3568663462,-0.2917779896,0.7288610089,0.5169046802,-0.4005298448,-0.023195497,0.6334011711,0.9805767404,0.9835068791,0.1752329625,0.0308005467,-0.8553112646,0.0922525452,0.8564614493,-1.1615399716,1.0550912456,0.6016351433,-0.7199686413,0.9791819662,0.5504904968,1.1445229446,0.0519068993,0.8905549056,-0.3808557968,-0.7155402529,0.4208209766,0.3805880127,-0.5270099162,0.2230731457,-0.0831808983,-0.9796414023,-0.1478997683,0.2491915241,-0.6037570681,-0.1274259074,0.4521407293,-0.0173918675,0.4788176205,-0.3153023525,1.0081174979,-0.9268501627,-0.2544912451,0.0888360839,-0.3982291629,0.039528808,-0.1799086609,-0.7355363157,-0.6922575723,1.0349868179,1.3435474547,-0.0364457121,0.1872194695,-0.0395601353,-0.1371927931,-0.131007605,-1.0075221213,-0.14959558,-0.3648034271,-0.0243608956,0.0258858353,-0.2853452296,0.2859460864,-0.6271056918,0.0716449069,-0.6507785185,0.0812791158,-0.7421385236,0.0926033051,0.5350076942,-0.6463704455,-0.4347833091,-0.2127178493,1.1223625412,-1.2996469108,-0.0974619916,0.1361688854,1.199308734,-0.392358364,-0.7083799664,0.9072939851,0.7168947633,0.9464498979,0.1653822238,-0.0323029829,0.8132921801,1.1952831248,-0.5534374629,0.3946843382,0.3974028042,0.179648138,0.2457299506,0.7300064201,-0.0602550636,-0.6717773612,-0.1766155667,-0.0052104285,-0.3412425632,0.0837587577,1.0386747202,0.2315617916,-0.9099367517,0.8339332923,-0.6038243919,0.1296922228,0.5665271621,0.0970730791,-0.5389113467,0.521233595,0.4784648735,0.2413174005,0.5967507444,-0.7927161546,-0.8440241829,-0.1299621824,-1.0419982864,-0.1781351952,-0.1991158655,1.0654697835,0.7506197858,-1.2912737052,-0.8343755893,-0.5984271056,-0.0629526782,0.4991000119,-0.3161401113,-0.3211635674,0.7351701009,0.3802846525,0.4000991713,0.6311580649,-0.3248277697,-19.9327518865,17.5386484872,-18.5130786573,-20.7680791916,4.5551957749,-14.189661671,-53.8774028839,-97.4669039343,-16.2742362752,43.835008536,-19.5888584692,14.5460822882,0.727960742,1.3247448922,-3.2521487957,-5.5530483273,-26.3941397733,-0.5809073846,-9.4290352946,30.5862678375,171.2295757967,-6.4192019244,-13.0428255915,-4.755786588,7.3788776579,-4.9177958961,6.7177235889,-25.464013724,-0.6836962232,1.0880519614,2.4630364634,-5.0917094816,47.9020176552,0.0021775474,-2.1457792327,-0.3967193343,3.791413879,-1.9817935225,-7.9847350856,-16.4498468754,0.7173661539,-11.8953105379,-4.3956218066,-7.0536382946,5.7260059433,-1.4143447821,-3.8293264356,-2.480208048,10.0937916261,-0.8864506837,-42.1867997305,-36.8726288663,5.6317791345,11.9296968979,0.3494585459,1.5353870195,0.1805575142,0.3163991521,-13.5389752784,-0.545889357,0.8184023512,3.7720938575,3.1887011473,-0.7524392606,-3.9522610685,0.8241882923,-0.8700136092,0.2919714888,0.8330829368,1.882847565,4.1862876348,-1.1972057249,3.5898169779,-0.6564241914,-1.4901689548,-0.3983510974,1.503473518,-0.8833644187,-1.427133325,0.3870719115,5.0720916361,-0.8624316832,-0.2264616762,-1.9984385515,1.8548665875,-5.3799740566,0.1869967481,2.2422183506,1.5827192196,-0.8289146733,-16.2713312082,3.1453357633,-17.232170639,2.9879002749,-7.7666133614,-0.2741185038,1.2764344718,3.3201662048,10.7120647099,20.5047460127,8.3978937099,0.1394671398,8.9531805215,-1.7875325041,3.8576761874,0.9995059704,-1.1004078269,-3.0508358128,4.8367512177,0.8936786798,-2.6729311447,19.9536217844,1.2334881044,0.2416138126,-0.8519647678,-10.1661298966,1.3104616731,23.5556267279,11.9831242482,3.5748644305,2.4173652208,2.81618853,15.5086343517,-2.5784072633,-0.6774905763,-5.5595324487,1.4566740605,-1.5548097109,1.1871169024,-4.5058680815,2.3773811243,7.513204861,0.0693439538,-3.2773401905,-32.1994855265,-6.9858287071,-1.2165815224,1.5404372994,5.7989103024,17.7821427713,2.0270083397,7.0004594085,-5.6162166437,-7.5841498974,3.4472254235,3.8732641165,5.3029566066,-10.1234889627,3.3671279019,0.8270715415,-0.010454983,0.3369339192,10.6204912954,-1.2884615231,6.637874811,-0.7073204889,2.7584533412,1.1568396353,-0.5443532172,-4.4905341516,2.7063162226,-5.5845553951,-0.1705446606,4.0930717686,1.4745066696,-2.5171417107,-0.7316513048,2.1890466206,-1.6730679574,0.5842732404,-8.6422355629,-3.073248661,-0.2378373391,0.5057808258,1.3011766997,2.3437194458,-4.3463814563,-1.2513044417,-1.8167367425,-0.0331051289,-1.3537922258,1.0671989249,-3.0259251385,0.7070726346,-0.1925790628,1.0080020897,5.7724842067,6.0277905685,1.8207329405,1.0245568531,-0.9324723946,-2.5073255419,1.0990983227,-5.3287114802,-7.1101501362,1.6207376973,-0.6648446263,1.6877327792,-0.1150209829,0.7648339736,-1.7357009916,0.2008709144,-0.7751379235,-2.3605931255,-1.4650432446,-4.2938455296,-2.7565472775,-1.6740480582,-5.1859451252,-0.6858637287,44.7665485387,-3.5707643039,-22.1598845716,-4.3283921492,49.3881694806,-40.5023136151,-1.3706862946,-58.7799874128,-26.3442959378,32.952375147,-60.6216251198,-9.0166876165,-13.6364750246,-2.648578756,104.9127719581,-19.6970861505,18.7571792659,-0.1057293534,-1.2629066188,33.2951309524,17.4881705276,18.3200390702,2.7721247106,-3.1185018517,-49.7688989377,76.557997115,-21.5993669012,4.8395393819,-15.3086980082,0.2509450445,0.2227016017,-2.4021076449,11.1497167111,-0.4064115717,-0.1933122495,-0.1993660796,-6.0151699787,-3.2593500433,0.5637650313,-8.6666656987,-2.6295620171,1.788309913,2.4379961329,1.5792776273,0.6175933961,-5.101037208,-1.3327041722,-0.9352369418,-0.6811571671,0.1462732846,-14.841954316,-0.2811644174,-0.4184556368,-0.324926637,-2.0355750048,7.0621872639,0.1490614973,-0.2519047114,1.3088168308,1.506612815,7.6760154236,4.9913147343,6.228771175,0.4248260756,-0.0742854655,-0.3528530945,0.0123093554,-5.5212934356,7.0535064427,10.526328563,-24.5553643831,8.0179440131,-7.7919259469,-5.8960359533,9.8704500606,2.2668794515,0.125440988,-8.12182506,-9.2636539418,0.1847222573,-3.0884835047,0.6740852786,-0.2539828047,6.6897558912,1.814347183,-8.0209743956,2.4508008948,2.911866735,-13.1131648886,1.5635253254,-0.9788983353,4.2027192985,-49.4607896036,-19.7671338138,5.2467609328,-6.3035884764,14.2154569376,2.0071331397,-7.6133166566,6.9194420959,-28.0164466356,-32.0382386327,2.0218614542,-8.943698147,30.3249868751,1.8116951256,1.3050562912,-1.3652173651,7.6402812613,-0.2546727346,22.4498482604,-5.0406361351,-5.5168530721,-3.2264003135,-0.1561126225,-20.6107857025,-0.1106103302,7.1568887417,-4.9176963381,2.9572721883,1.9314378874,0.9368717078,14.0717406742,-1.3338795004,0.0503146767,-2.0838763127,0.1488947028,2.9039880062,9.5383257698,-2.7427651556,3.2946583832,-0.7535665495,-1.0987917925,-0.5350342696,-3.5422428811,-12.6149250601,-11.2448886838,-1.5935143565,0.2411076407,-5.2605838427,11.0660561169,-4.16549838,9.6075964545,9.7270787403,1.577275646,-1.6635378671,0.1796097847,0.1750337242,-1.0509447108,0.942099814,-14.7726432085,0.0289556482,-84.6668161925,5.3420901226,-16.8943756244,-13.5473988581,0.0072693349,-22.3746167133,-3.4498612239,55.5770791486,109.3111488844,12.4643349981,-0.2065007653,-0.9093401157,182.9988069419,16.1238426093,157.5452124746,0.2318979605,-1.821207336,-14.8749333033,72.6005059276,-0.90555151,-0.0365598799,50.7423494767,19.4496552258,-56.6330267496,18.7968684906,-9.1348626487,16.9766915547,0.8655441769,-0.5976865819,-0.3452733011,0.3906563041,0.1210876618,0.5110579255,0.2381991099,0.5506927053,-0.3342481011,0.564276007,-6.8993853278,-0.3624385209,0.2575081156,0.1037062458,-1.5168730813,-1.1661969871,0.1330580446,0.1085884674,-0.6468568109,-0.9889638106,-0.5452806781,6.9390158132,-0.7048941208,-0.0746145564,-0.8237993035,-0.1300088107,-4.0291284107,-0.0107243969,0.2098282621,-0.4907730952,0.9357825546,-50.9006743099,-3.9369168604,-31.1760395416,2.8443787999,2.4993063619,24.8673104016,-2.5180234529,89.3294453578,30.1444385133,-10.7917669502,-23.4400774864,-88.7053225459,4.0249867884,-9.4761527667,-55.0480062949,1.8169142798,-0.8170935796,-0.4323499775,80.9019633636,1.9919655855,1.1656696293,-0.9833035662,5.4470882245,-1.4817733992,-14.7901342376,-287.5612636389,20.4431024465,8.1723462052,-5.3851426551,-0.7949312932,0.7348190275,-7.5084645377,-7.2208227568,0.3724877079,-0.3487736976,-0.7443642632,-0.7787863675,2.4810308595,-4.8298149378,5.4933596611,8.6631750115,-0.4037933157,5.9731195966,-3.8614345273,-0.1400679564,-4.3670125593,-4.0491104126,0.3718495193,-3.5130464866,-1.3929877657,-3.9302327085,0.9928744697,4.3720520295,7.1017061613,0.9427616983,31.5686493002,-0.6717010019,0.723720062,4.8847422681,0.4783688612,6.4872748644,-18.5871617245,-37.6213277159,22.7839462911,-203.0838127018,-14.6492868594,240.8664036257,228.5674708891,11.1077211512,14.8137276567,-164.9111699625,-5.8163364893,-151.1865345165,-29.6595219536,58.1436869764,21.5968098566,20.7796536588,17.8401035065,-17.8868240722,20.2870034113,-474.9944531202,41.8283851728,21.3205856044,19.6443372187,-19.3434096581,-166.2392377746,-13.7243635621,135.7571339531,20.096028067,-17.8712194691,6.16560877,-3.4327466458,36.3779631973,-1.0854629348,20.2219140832,12.0963509551,6.6982002688,-4.1514157072,11.8973130697,2.2330302476,-13.0380021077,24.5245587216,-0.2317076631,13.3564474674,12.6063712079,2.7158631595,-22.7729066111,-3.9802988254,-35.9166059714,1.3380979823,41.3536275639,2.2713959138,-32.4053199453,-11.9989641497,2.3818683434,-82.0876679769,7.3109613148,16.364098541,5.8682058242,-0.17010362,0.5613200925,-0.7481415771,11.3602619003,0.3272327665,0.4635039139,-2.7073682499,0.3335481715,-0.7671633271,-1.5102723745,-8.4685594597,-1.7393062062,-5.4620950999,-0.0366517187,0.4489921206,2.0143717281,-1.7124461788,-7.8936400432,0.9309188813,1.0417041657,-1.3068398073,-8.9445187326,-0.6842411823,-1.3164887433,26.8709089774,-6.3822746752,1.5229004828,-0.0545942289,-2.6135462401,-4.3599391059,-0.4375922526,-19.5779755856,54.2505453869,23.2120985059,-4.6023036262,1.7627465448,4.2462074772,1.1991560586,-8.02554064,-6.3489257075,-648.977331136,0.948807351,-7.8271859249,-6.257349716,-1.8015229315,22.0120808144,2.8064904069,-0.0852453348,0.1028887885,-10.69155508,3.9324753764,-0.3060169981,-12.8984963821,1.0813315758,0.3449893157,-1.0308697002,7.7323808582,-11.1169317288,0.3235551662,-0.8418373095,-0.6670120129,7.2989084682,2.3341873162,-10.067205386,-1.2018715552,-21.9036499307,-9.8119535961,-0.4495115874,-7.576780878,0.057525858,-38.4111408344,4.0803751457,22.537508174,-2.7170413395,-2.1609272807,12.1318556477,-1.3107035263,2.0842699737,-0.8634604546,16.4742182052,21.7378180574,-5.6368309276,-0.6256325401,-0.8249391996,4.4795343472,8.5444707396,-0.186058357,-1.6315388029,4.1091504916,31.1858905592,-0.2899601803,13.3647353322,2.7883588101,-6.5501297595,-1.1537483761,-3.0542853091,9.4615582345,9.7676376298,4.1695239584,-20.0694121081,-6.093314313,-10.6774661503,13.9005608996,1.5029954261,-74.8438945472,109.4112885283,-10.1956770754,-7.5961111076,65.9266665132,-0.633845735,-0.912212054,-66.4565033533,-0.2425071276,-18.4878702156,2.0302706139,31.5915758192,20.8354555044,-2.4259953247,-9.985566138,-56.0002538769,-23.5607503941,-0.8280311565,-2.9654213674,-1.5316253032,-0.5027977649,0.7271643907,1.6403635997,-3.0822768718,-0.2003139428,0.2079514331,3.5067677754,2.9328291855,0.6864007177,1.3580337497,-9.5625843111,-13.3096484455,-2.0371084326,0.172054622,-3.5427423618,-3.1959845671,-5.4521877552,1.9070722191,-0.2314244314,-0.6875216106,6.0587017977,-0.3668523317,-0.5204370293,-1.1164160133,5.7259857893,-0.0870023672,3.0715946646,3.8644416119,-1.6673950292,2.6246433376,0.1335654939,-0.0138558146,-2.7359961014,0.2228324198,0.5275325049,-0.6782870967,-3.1216120337,2.9094593273,-0.8523031222,1.2681214887,0.9805656601,-0.340250055,0.9648641283,1.0917116476,0.4241455415,0.1625596917,-0.0436349931,-2.1881972519,0.7064488702,0.3890552879,-2.167681587,0.222958564,2.9701556813,-0.18990796,0.7052215867,-0.1605197431,-1.7525970389,0.031481755,3.1691838825,1.5020291295,-0.7072577602,-0.9805430362,-2.7602620618,-2.8220388065,-0.2577310674,0.5248446202,-3.7482147766,-2.5012853326,-0.3040918158,-1.8184493957,-1.6927947892,-8.7715732438,2.4063626365,1.4642607421,-1.0291572672,4.2393064426,0.2880526381,-0.1154785503,1.0169274006,1.3401807463,-0.0272496151,-0.8161499951,1.7995147614,-2.5284937897,-0.5484044456,1.9359860671,-0.2156013028,-3.4942062714,0.0238353729,3.7685547358,0.3836209191,0.6351932966,-0.4604498362,0.1966651665,-1.0328522508,-0.9139065906,-2.3484082331,-0.3987659062,1.2412504932,0.9690953243,-0.0443027464,-1.9680628486,-0.5709955996,0.8078823315,-1.6840424477,-0.3775050654,-1.1887544152,-4.8521463683,0.7743365094,-0.4469397407,-0.4700777501,-0.4147758099,1.1333396605,-0.4220218021,1.6790409855,0.0328878596,0.3439967982,1.9485794826,0.4062749875,0.2029515653,0.4111983385,0.4624796734,-1.3199460978,-0.7858377586,-0.3588317387,0.8939684491,-1.2872198382,-1.3799842173,0.9932098857,1.26155492,0.7418340029,0.327207176,-0.7623296146,-0.2499570184,-1.216733243,2.8143664943,1.4315266536,-0.3837033708,-0.3127203153,-0.0191354975,-1.0857402577,0.4521545278,1.1710017769,0.9914246356,-1.7320088314,1.7861794902,1.0262858148,0.6047593526,0.6529620221,-0.026638438,1.8766656578,-0.6248128426,0.7176985611,0.0839268833,0.0029686724,-0.4609871633,-0.7159766666,-0.2944624411,0.1635451126,-0.7233957498,0.8827553689,0.1915434704,0.1083848933,-0.0389644627,-0.1133618262,-1.8533368757,-1.5200321009,-0.279374649,-1.1639996085,1.4869602321,-4.3193938928,-2.985979793,9.1865578946,12.7094117193,2.5306139062,13.0730123497,-4.6414768331,0.1806290471,1.4249934198,-2.919557941,1.1240637873,0.6478516742,-16.5399772568,1.3415137411,-1.0435142954,-26.3210060535,16.2198978786,-4.3745927174,0.3447514563,1.0129447761,-6.610818568,-0.3721462796,-24.5492463348,4.1424093205,-0.652644552,-1.1053439054,0.7181610886,-0.5988715375,1.5720923786,-0.4165825449,-0.1871810771,0.2557023468,-0.4576975206,-0.5601898482,-0.3761674591,0.6778751034,0.5734111782,0.3297019769,0.5537625931,0.4436341579,0.4374535392,0.1710388597,-0.9012397665,0.8629346898,0.6824995194,-0.7240448135,0.7026721719,23.0373225808,0.6947674692,234.0291496019,8.866363332,-1.3377057543,5.0235940188,1.8876987721,0.7537165431,7.3270368527,-26.5319813982,8.4183227513,6.2309084557,61.9894778595,78.1733901941,-14.6890626917,-51.1844472599,1.6114570397,22.259859945,38.2062274682,7.8931447975,42.6095687567,12.3803398529,0.570150207,0.5896251199,-0.8897366628,-0.0832282576,0.3674120669,-0.8583786986,-0.687076243,2.6461141657,0.5400535265,-0.5123212698,-0.0211900422,-0.8123937602,1.3413680563,-1.3204894916,-0.1297340694,1.0189254763,0.9384937965,-0.0028360026,1.4463996719,-1.3009802485,-0.1634973815,-0.1573875033,2.551505241,-1.7859442586,2.5229874393,3.5141830657,-1.0590105271,7.4005251632,0.4528113143,-3.2159051219,0.9045069072,1.893014802,1.6119424966,1.8273849429,-0.6558169925,-0.0971949482,0.5971375315,0.6928818041,6.3599189805,9.2768457202,1.7726676375,2.2318894281,3.1163197497,3.5394334418,0.4846235383,-2.4405999063,-13.9231150397,-3.2027393952,-9.1319569599,-0.3056021131,-23.4764429556,-14.2087007823,-1.8684229845,-9.7575557806,-12.597938392,9.4313101315,3.8610764169,-0.7245299981,-2.0680569464,1.6821714146,6.4868505347,10.3781204364,-5.7604980112,-0.591010333,4.0398006628,1.1460971433,-6.5413743227,-1.5678266974,-0.9602369699,-0.8583851021,0.8293879923,-1.0229778825,0.532297399,0.6672172353,-0.313576247,-0.0757185826,-0.8036860197,0.392421394,1.354720732,0.6952970377,0.6812418148,-0.284703509,0.121333869,-1.1000698011,-1.5265993365,2.1357605966,0.7823821645,0.6937879724,-0.0354549287,0.1625905179,0.1562567659,-0.0086841123,0.925326814,-0.6846694816,0.3841873882,0.8220508085,-0.4144430506,-0.3641829846,0.2600335831,0.7211464098,0.723020463,1.1269844747,-0.1257203958,-0.8976183486,0.8790195582,0.2233635286,-3.0135533552,0.3384874844,0.9787681446,-0.5782740806,-0.7542460329,-1.3457771271,-2.4408678845,-0.6755320407,0.163546286,0.7605372252,-0.3935373486,6.080215865,1.4462270864,-2.3612713073,0.3591687959,3.8548869294,0.9251910594,-4.0708323124,0.6199731405,-0.3467145315,6.1176491321,-2.7811035344,1.562299944,-0.4543902617,3.1407336102,-2.0190825898,-0.5803010049,-0.5748873854,-0.6763218592,0.9130623158,-1.3209525886,4.0136285852,2.491422888,-0.0560518531,-5.1741564633,0.334503428,-0.2828090119,-2.9622259003,0.813593665,3.4879144331,0.0126805682,9.5188889095,-1.217648192,-1.9501234193,-0.9339024114,0.4998927295,-0.6071177388,-0.2695877185,1.4596946249,4.4684517803,-1.7428059896,0.6762333231,-0.3589568614,-0.3439334596,1.4803459525,-1.9784202018,0.2920656884,0.8786979686,-1.822919521,-3.1840502459,0.7178165628,0.1515652289,1.0746310635,-0.4898637206,1.1133033625,-0.2441598673,-0.2403240748,0.5295061964,-1.0928628263,0.7032394771,-4.4386489134,-0.91660408,-0.7027149605,1.6084952738,0.1390566362,0.0636715621,0.2733973875,-1.6977362171,0.2247207791,-1.872758149,1.923899812,19.6333945505,17.2570156902,-4.5259294753,1.7456642148,0.4755821082,1.3962029619,8.7940873715,-4.7463219337,-4.4687976162,0.8254141359,-8.2035966364,3.921629353,7.3268420835,-8.1830632192,0.5420977739,-0.9280661161,7.2350167855,27.4842656727,2.1771042326,13.7716514297,1.0822588703,-0.8725489433,-0.7451665057,1.2033849459,1.0367071007,-0.4687478583,0.1974216921,-0.803914093,0.7038993257,-0.5297846777,-0.2633074371,-0.3180049323,-0.5953581833,0.0998229976,1.1151525451,-0.4991516738,-1.9402489077,0.6188500471,-0.1299636292,0.0692790273,1.0181142814,-0.79945771,-1.4072065704,-0.259707913,-0.8083908293,0.3612770865,-0.1029347413,-1.4640189045,0.8199034756,0.4868195778,-1.352509007,-0.0098784201,0.0283288935,0.4503624015,-0.6235059181,1.4641403254,1.081053537,0.3555080424,0.3196020262,-0.0358439488,-0.9173424752,-0.3156495679,1.0835528161,-0.394033825,0.6891115119,0.0297566264,0.2271591891,-100.3379889884,-5.5059617398,3183.058868443,-12.8184667956,11.3185324846,0.5159190451,2.7616116985,-0.2408468371,140.8505818704,41.1020299086,103.6909458348,-1.9163059651,3.5905406382,-0.9306407753,53.7608262865,45.2138588014,2.8516013839,-31.5996943485,5.537800125,56.3669959895,3.3838648291,960.0830459755,11.4115025666,53.2432276927,0.9504724013,-15.8971359728,17.2541188202,0.2269099093,110.3745974963,-0.274807164,0.9314608114,-38.476202791,-2.1599317034,208.3612649123,11.2356563427,0.6455061296,24.947308648,-0.9577898515,3.7193410361,-0.3217874839,21.9939504555,30.4191598272,-5.1582182548,8.848320343,-16.2159320013,-162.0753578282,-1.1367805545,1.2806032633,0.8716416526,254.5770495357,33.8916435054,-0.6578742837,205.0706448819,1.3258174321,3.3513915853,-44.6338208828,-1.7752234703,-26.306338122,-24.7905174512,7.9456117324,-29.3400122676,-10.0777273333,1.315001151,70.8807611672,86.7723517202,4.7598925614,-0.7832092259,275.1481805405,1.4239697074,3.7802868823,3.9106301713,1.1222661491,1.6549537548,0.8059265174,0.1032339722,-0.2554155257,3.4512849713,1.49035461,-0.087010394,0.3326565371,-0.1475857333,-2.1973350717,0.272453288,-0.4454022735,-0.4949875946,-0.4650389389,1.209941584,-5.0669369369,-0.1936991171,1.2106430375,1.083014569,0.3135504971,-4.7450335808,-0.0892315876,3.687976648,2.0100944978,0.5987410092,11.9987721539,0.6698601321,-1.0568488316,-2.4690922077,-0.2664643294,12.7578094861,-0.7034152156,-0.834333636,4.9149142825,-0.4665000685
   3.3791386896,0.1970965193,2.3303715459,0.9889049632,0.7541890331,1.8334078974,0.832185346,-0.2092634627,-0.0925810429,0.7266648388,0.6443635831,0.397180753,1.1617699353,0.6771346916,1.4182750718,-0.7105880528,-0.0514527732,1.1682350319,1.172539546,0.0877615797,-0.8039402473,0.1345234839,0.5976620489,-0.6447637678,0.544648195,-1.2761554916,0.5297663029,-1.171628054,0.5651911978,0.2203708389,0.8954974685,7.5659234359,-0.0317904594,59.0041435716,3.9484755569,-0.8326401245,0.7228796406,-0.4886474397,-0.5787592809,1.5135783115,-1.3404563595,1.1196446608,9.7970605632,0.8925067843,8.3052984057,-0.0923645654,-9.8270907665,1.0492481118,0.7448142342,-10.8828031892,-5.1785428171,2.2552482956,22.8349047879,3.1451336226,-5.4054212662,-10.3629770493,7.5511359579,-1.3325889253,-0.7668460616,16.1911606762,6.8330109364,0.1326024099,-0.697574264,-4.7711297594,42.700932525,6.1761013732,3.3169730825,-9.9015841368,0.6446623993,13.8440869135,12.234340824,30.6545546491,20.5031662195,4.9997599917,7.6222805614,3.2343533933,3.3993376199,0.0289699263,-0.7046097272,6.3211389842,1.1768790267,0.3688278757,0.50933273,-0.0687977241,0.0974034658,0.8500632587,-0.5510596533,0.7587871519,0.5354920746,0.4305596592,-0.9463346177,-1.0771285866,0.4506173356,0.7432435762,0.3060743774,2.0440091336,-0.19192416,-0.3336453302,-0.7866829446,0.8865570911,0.0765516264,-0.6059265554,4.7035900793,-1.0283100424,5.6365673455,-1.1486381123,-0.7376769901,-1.0409826465,4.9597910344,5.8490090205,-4.5094699276,2.9424317561,3.673258512,1.3172968366,-1.9246261365,-0.8696116187,-0.0632033228,-1.4105220433,-0.389815667,-5.2876933959,0.7093995007,-9.4553279181,0.4346092195,1.9201385914,-2.3736840053,0.0226352799,-0.3998471326,-0.2890297205,0.2084048575,0.4784559995,-0.3869271694,-0.6695907873,-0.4963816347,-1.5157385399,-0.9300819,0.0183731458,-1.7966674162,3.8615105044,1.2223078959,0.1179273676,0.2943643826,-1.3572656014,-1.1268472597,0.379045647,0.8996755142,3.3693915206,1.2214533163,0.8709523901,1.8247756666,4.2727052374,-2.3942845962,-0.8639388541,-6.1023338423,-1.0291478303,1.481025691,-0.3095850754,-0.8201367398,-1.5336125102,-1.3125343755,0.1197603375,1.4833879096,-3.3925361466,0.6065155665,-3.4638072879,0.7996968449,-0.0948052619,1.0826703005,-1.7712822673,-11.1214190967,-1.5787178429,0.6137169528,-5.9612965893,4.5677260204,0.2722264164,5.2853662729,0.5282479323,-1.9860937872,0.6881067347,0.8570001117,0.1897377586,-0.5800371534,9.7752892838,-0.5310948723,-8.9927118631,12.5195975287,1.4981821406,-3.8959098634,4.0546744739,-1.916609838,-0.4432829586,0.5828252628,-1.4114627928,-0.642508614,-0.8329314547,0.3503496817,-1.3837603892,-0.386879691,0.7743070827,0.5952354956,-1.0708869628,-0.4032783205,1.0191634993,-0.1798685213,-0.0174959866,0.044792394,-0.1540233228,-0.6655040446,2.4863148701,-0.9616054992,1.7057824943,0.5535014101,0.4182126553,-0.9057579309,1.5685470197,0.7247229296,1.9539042127,-0.6855106034,-1.5483992208,-0.9254238763,0.8724577483,-0.4006778728,0.778699556,0.2210687819,1.0789080256,-2.5534334914,-0.3322326134,-0.3621373552,1.0493001665,-0.1638923741,-0.6735793409,0.5798121305,0.6753050272,-0.5650881677,-0.7483509544,0.6033131636,-5.4546703755,-0.1050390882,-0.9670706063,-1.0834831319,-1.2688195176,1.2277813422,-2.8807408356,-0.0348702952,-1.2088147153,4.1638946737,-0.2872493753,0.0661077984,0.9580615358,0.127837262,1.5217817912,-23.972611721,2.5732021509,4.5436226816,0.7004466758,-0.7699791195,0.8623273618,-1.5378657013,-0.0801631664,14.3838059386,-0.2310940938,-0.3205361315,-3.7366652158,0.3768537768,-0.9563777228,1.058816367,-0.6590808965,6.3469061467,1.578310523,2.6335511,-0.7484030991,-1.5361548576,3.8799400484,2.8193754487,1.10622562,-4.2465421973,18.2929288728,15.5897283259,15.4797474102,-4.2005500689,-3.4304700041,-7.4315274619,5.8450761449,-35.8367851174,-4.3800123068,-9.0564974739,-0.7258738872,22.8354964282,-17.7581251967,1.5285548462,25.0499886979,21.4507776468,-1.7883076533,0.6253599776,0.4903160079,-0.7158866257,-0.4176169856,-1.2688055651,0.1800013545,-0.6558890362,0.4579398303,0.3153590879,-0.2504094026,-5.5870744662,-0.5633042502,1.1939798077,-0.0122477384,0.8836772354,1.203213801,-0.4894830684,-0.51716661,-1.5624203746,0.0750840054,-0.291188373,0.4529201602,-0.5667589084,1.4811039307,0.0802156536,-0.2386921635,-0.9865209649,0.5623137086,0.513849947,-1.0044443347,-0.2529006447,-0.7432764471,-0.7581374126,-0.7633374391,-0.1246876485,0.5881089781,5.8357668737,0.7640649884,-1.6588154549,0.5476691189,-0.1743246758,0.3722845326,3.6082795386,0.7895529633,-0.582481624,0.6104189201,-0.8286186808,-0.8492351988,0.6483559447,0.6294006868,0.0176022349,-1.1331776507,0.5742523713,-0.3340442108,0.3154652575,0.1726636974,1.4055073533,-0.1596871141,0.7103661128,-0.4355514199,1.2885184969,-1.0604392482,9.3274111828,-1.022617569,1.8238723443,-0.148730947,-1.0138409971,0.11354299,0.3847541662,-0.175493998,2.4998969623,-0.0521579357,-0.0182730901,-4.0871902747,1.0358804462,-3.14517451,0.9016406196,2.7729721181,-0.1271471092,-1.1908310022,-0.0634241468,-0.1935038181,0.4212944406,0.4265368346,-0.1600874503,0.3050460857,-1.387571634,-0.1076557909,-7.2712710434,-0.1308201117,-0.6505231906,1.6960560794,0.9212091035,0.0959031843,2.5286515521,0.1456505985,-2.0172192084,-0.3487386793,-0.2250948284,21.5696637244,-0.5687452472,-10.7011384829,-1.3197712458,-1.5001241938,0.5757659164,1.3416985067,0.7925593387,1.0689056087,-0.4087746078,-0.7218715181,-0.7599009753,0.2042109477,0.2200893703,0.8426246482,-5.823620836,-0.6935605123,0.1687916593,1.1763831466,0.070325416,-0.1342674345,-4.0282499392,-1.0533127153,1.7689897449,0.0314951727,-0.1183788296,-4.1314478721,0.6498430799,-0.5249958957,0.6299968362,-1.2078902332,-1.318854366,2.0508573837,0.3356680669,-4.6212506312,1.3713574301,7.8235895411,3.252530188,0.713634855,-1.3885213047,-1.1957834562,-71.2809546812,7.5885925639,157.8050550025,5.5598032619,-2.8225390671,3.099090186,-35.6282180504,-0.3787536188,-65.2195645088,-0.5819469492,0.2165748821,-288.6940877623,3.6170708855,-16.5216632213,1.6389520295,-11.7685199819,-0.9713665415,1.9442788811,0.9828758407,0.5889751634,3.1136688995,1.2048241698,-0.1603939216,-0.0595639133,-0.1171776189,1.5426887111,12.7692588651,-0.5790573342,-3.1870022851,0.1377416808,0.236671763,0.7736749682,-0.5188690479,0.7963824123,8.1442199817,1.9038760616,-0.2781340651,-34.5547069125,1.925324572,3.9352812881,5.2889521776,2.1827638716,-0.4943825815,-5.1076461001,0.1882121281,-0.6852085125,11.4823602228,-1.1248612386,0.7443296913,1.274273521,-0.6668097631,1.0074709756,16.6754447801,0.4890113196,-0.9321755325,8.8841147244,0.2880422306,1.0800397297,0.6928958194,-0.8519906975,17.8914042971,0.1067309146,0.4725345926,-8.9116269687,-0.9443156387,1.3466046548,0.8728842302,4.5140212815,0.7021966614,0.2487213387,-0.0014511344,1.042032413,-0.4968669068,1.1119177545,0.3359825426,-0.2707742055,0.4097563244,0.1948603649,-2.0313615069,-0.6487931837,-0.5366456716,-0.2880568484,0.20546928,-0.0681740255,0.432207292,0.8086700317,0.4133838478,-0.2612993035,-0.7238184446,0.376502198,-0.0948672555,-3.3324718163,-0.1594269458,-1.1345638426,-0.1518295852,2.5620722521,-0.1398740029,-1.0027036564,3.1143669967,-0.0948763178,1.4352028723,0.1096631636,3.5985658218,-0.6231158375,-4.6163347111,-4.9485768906,-4.6907813962,-1.8402388915,0.2832393174,-0.2316158571,1.0958322999,0.7569083056,2.641876634,-0.5815285524,0.1344335736,14.2172035714,-1.2773734751,-3.2617972205,0.6140772229,-0.6498799184,1.42682533,-0.794212182,-0.6811625274,-0.3960663571,-2.2771684875,-0.7945829247,0.6606890549,-1.7036706545,0.5842513565,-0.6145540355,-8.6024361432,0.3495829901,-25.5195076264,-0.9823395927,0.6927851973,-1.5076747756,0.1553101254,-0.078477644,10.359932805,-0.3347273726,-3.1107413026,5.0838058423,-0.2441396883,-6.8696553484,-0.5047899237,1.8563779666,0.5965613916,4.4125568464,0.1291692095,-0.4725682323,-0.6639810284,0.8597364182,-0.4771663304,-0.2224365388,0.5624994667,-1.5513392255,-3.4005223138,-1.7380805937,0.4345076486,-1.0434700543,1.2539487968,0.3299811308,1.0401684158,0.2347721435,1.6202811969,1.2560062667,-0.9953195235,2.6169860531,-0.2220922366,-1.1671482199,-0.2167772911,-0.9134491117,1.1367894675,-2.7783329336,-0.2524929038,1.8563520407,3.9125275592,2.6872759195,-0.0031978956,0.2494454918,0.7927601867,3.5443100879,-4.0359707994,1.1970772978,2.2466671889,0.8982346189,0.6250726728,-0.0579994856,-1.0568827008,-0.448281448,0.9322204038,-0.3767730339,0.8587684518,-4.6651857372,-0.0484390064,12.9723833034,0.5918218379,-0.1815094612,-0.1736570084,4.1442370624,0.6156739407,1.2495454649,0.5924347242,0.2019851589,0.5773341523,1.1058805548,-0.5057945041,-0.2187801527,-9.9267767743,0.3437361189,-0.9074034957,0.1037412881,0.5672932658,-0.1330666164,-0.6983612537,0.7053682966,-0.0316464227,0.165247629,-0.329173636,-3.2627749476,0.7052116681,-0.508241386,-0.0580796517,0.4763840857,0.2938676607,-1.4179503628,-0.6370232309,1.000927449,-0.1214739892,-5.2637068836,-0.8006854797,0.5454789676,-0.0270016924,-1.4883080286,2.6286390391,-6.6812952089,5.2360235544,-3.6193419932,0.3113769982,0.2073070109,0.728208388,0.7324751244,3.1888518314,0.5278189184,-0.675552862,5.4258582456,-2.4818435755,-1.5443983888,0.4888739244,0.2576331902,0.4425378523,1.0481273148,-0.3312520807,0.2891331705,1.7339538764,-0.3710319081,0.2467729113,0.3546189113,0.8710938426,-0.0036035469,8.899955499,-2.3836183238,-0.1664050856,0.3366002049,-0.124822679,0.6027239246,1.0686352425,-0.6061810195,-5.4150028612,-1.080838494,-0.1340648438,3.0415624072,-0.4007804697,-1.1660944645,-0.462126805,-0.5696741535,-0.3456834734,1.7509398256,-0.677731418,-1.1757324523,-1.1430083317,-0.0050161343,0.7978908305,-1.0739336314,-0.7820427429,-0.7240563225,-3.6941093574,-1.1787926584,-3.4488745327,-0.4891382735,0.6778839321,0.4639383369,0.2141682593,-0.2471105769,1.3286928791,0.6406662507,0.0654353361,-0.4614052405,-0.1781264069,3.4446604201,-1.3385103474,-0.1463693194,-0.9377139591,2.4637064838,0.9368071326,-0.834253823,1.5917927753,0.0904555158,-0.2719838439,-0.9052457418,-0.0118524778,-0.3895873986,-12.9042246747,0.1565078044,-1.7901279051,0.3962882911,-1.3402675818,0.7130716352,-0.2665618303,-0.0939036153,-0.8801406989,0.1780776027,-0.4717950085,1.7823092644,-0.6921840411,8.4781370342,-0.4386449329,-1.7535493178,-0.2739928908,5.2342909994,-0.4515906503,-0.7854106765,-2.6169835051,-0.1021661436,-1.0290216685,0.6567223251,1.911033726,-0.3269538338,-4.2361327778,-0.7581018909,0.1185271701,-3.5996329777,2.1480832547,-0.0508165001,-1.0993978926,0.2192395795,4.1346099059,0.9278996499,0.4277907159,8.4580640191,0.4406502397,-2.3267109527,0.3599305167,-0.7025742788,-0.3988535764,-2.6074200423,-0.8196337821,1.4225681896,-0.5877638128,0.137060658,-0.5942492424,0.6652459017,-1.0177490905,0.8339240693,-4.8799482028,-0.8925629245,-0.558813061,0.6505197761,0.0209112813,-0.3428368177,-0.360591631,-0.1941894503,1.0409414909,-0.0497938164,0.0434137826,-0.2360826515,3.6115310263,5.5556139426,-2.2952506628,-1.0413318802,0.5491891931,-1.2639266659,-0.4260943024,-0.7273815219,-0.4213726642,0.0508172219,-0.6111459598,0.2134451484,-0.627812689,0.9100248604,-0.5594445627,-0.5315313187,0.4720373469,-1.5764647928,-1.8963986455,0.4338118694,2.0074670765,-0.5167517652,2.1894740309,3.105828592,0.829934425,0.347510956,0.1334442319,-0.529698992,-0.6947833817,0.5338269957,0.1540867455,-1.0894295644,-1.1989414007,0.2439839469,-0.8571619197,-0.6556952624,-0.1777408214,-0.199670242,0.3124782276,-1.0320188489,0.5133969656,-0.3090867011,-0.755224523,0.62638496,1.0191473877,1.0050801339,1.1144399947,0.71261338,0.3546357809,0.2267260498,-0.882066077,-1.2478184208,-0.6001604413,-0.3384063327,-0.8355111092,0.6685733708,-0.4696410793,0.0051903458,-0.4210896518,-0.1104941989,-0.1844686742,0.4494758558,-0.5428353102,-0.0493317097,0.071153101,-0.2630367996,0.1877404053,0.4761839924,-0.3290268642,0.6882548588,0.6001500747,-0.1171340215,0.0098696043,-1.1727445791,0.4729692082,-0.5491711423,0.2500351043,0.5197759616,-0.4243171754,-0.0438195202,-0.9121253487,0.1836070054,-0.3739936356,0.4288402479,-0.4858972864,0.1903167341,0.864880182,0.9556641306,0.2638868216,0.7776069484,0.2622276511,0.3500738366,0.0684543825,0.1235348533,-0.5683127107,0.9195230403,-0.3322208823,-0.4510698031,0.6184091558,0.1510624005,0.50702662,0.2981821109,0.8546309229,-1.0306032863,-0.3046813574,0.6497120334,-0.7849035976,0.2319082011,-0.5376203376,0.7471165844,-0.5178077859,-0.1418857526,-0.3026197116,0.7887478181,0.0804106103,-0.3414250266,-0.5802445465,-0.156281205,0.3370162455,-0.8349421982,-0.0249633515,0.5301454473,-0.2289402937,0.1465087304,-0.0502511201,-0.5450476912,-0.1266395476,-0.4244693137,0.1708432026
##end
biasActivation=0,1,0,1,0,1,0
[BASIC:ACTIVATION]
"org.encog.engine.network.activation.ActivationLinear"
"org.encog.engine.network.activation.ActivationElliottSymmetric",1
"org.encog.engine.network.activation.ActivationElliottSymmetric",1
"org.encog.engine.network.activation.ActivationElliottSymmetric",1
"org.encog.engine.network.activation.ActivationElliottSymmetric",1
"org.encog.engine.network.activation.ActivationElliottSymmetric",1
"org.encog.engine.network.activation.ActivationLinear"
